tree
version=v4
num_class=1
num_tree_per_iteration=1
label_index=0
max_feature_idx=27
objective=regression
feature_names=Gender IncomeCategory CustomerStatus ClientType MaritalStatus OccupationCategory IndustryCategory CustomerBankingType CustomerOnboardingChannel ResidentialCityName CountryCodeNationality AnnualGrossIncome LowIncomeFlag CertificationTypeDescription ContactPreference Age txn_count txn_amount_sum txn_amount_mean txn_amount_std txn_amount_min txn_amount_max txn_debit_count txn_credit_count stmt_balance_mean stmt_balance_std fin_interest_income_mean fin_interest_revenue_mean
feature_infos=-1:1:0 -1:7:1:3:0:6:4:5:2 none -1:2:1:3 -1:0:2:1:3 -1:9:11:12:4:8:5:3:16:0:2:13:14:7:17:1:10:6 -1:5:4:12:10:7:3:2:1:8:11:15:17:0:6:13:14:9 -1:1:2:0 -1:1:2 -1:173:54:322:283:89:141:306:58:50:124:309:370:243:270:316:26:193:415:244:342:296:94:90:112:32:155:354:382:424:425:181:3:305:310:332:259:348:357:187:313:24:92:239:255:70:113:13:37:298:65:167:20:48:106:162:241:256:454:156:389:110:111:164:260:279:338:376:281:434:144:216:242:463:121:176:200:233:388:423:93:126:185:208:380:462:466:6:115:127:254:319:419:432:455:161:184:257:362:411:469:40:43:88:103:122:158:183:186:201:263:274:275:329:333:355:363:372:381:49:73:85:138:230:273:297:317:340:400:460:14:44:130:133:136:178:194:199:205:206:207:251:304:328:341:343:368:375:393:421:456:8:35:42:59:71:78:80:108:117:145:163:171:177:195:218:232:235:302:307:312:315:320:337:347:359:361:404:431:435:447 -1:59:23:61:18:30:44:4:52:33:9:22:28:34:42:48:60:57:3:11:43:49:0:1:2:10:14:15:19:26:40:46:55 [0:548044978.5] -1:0:1 -1:0:4:1:3 -1:2:1:0 [0:125] [1:18728] [-40620489.189999998:52406406.049999997] [-75941.460000000006:220265.82500000001] [0:590052.83448541572] [-1000000:88497.779999999999] [-75941.460000000006:1000000] [0:12696] [0:11867] [-766396.08912052121:1000000] [0:655056.662339887] [-58504.588571428569:22829.741304347826] [-0.089999999999999789:16911.705500000004]
tree_sizes=2641 2844 2810 2830 2817 2833 2828 2812 2839 2821 2827 2850 2833 2833 2851 2843 2836 2828 2839 2822 2822 2843 2844 2809 2872 2905 2837 2835 2812 2847 2797 2867 2804 2874 2827 2897 2904 2850 2887 2926 2945 2947 3003 2976 2966 2946 2918 2884 2972 3015 2991 2973 3088 2966 3025 3014 2893 3027 2937 3034 2887 2779 3085 3021 3054 2934 2972 3094 3048 3095 2945 3031 3004 2998 3051 2868 3038 2852 3009 3033 3061 2769 2825 3054 2969 3087 3132 3011 2296 2990 2241 2388 3004 3081 2372 2972 2424 2820 3117 2600 2957 2802 2963 3058 2923 2602 2757 2178 1751 3059 2976 2495 2092 1839 1661 2245 2293 1563 2855 3057 1561 2224 2947 2828 2508 2005 2484 3047 2434 1661 2457 2144 2658 3017 2828 3016 1666 2701 2282 2102 2189 3128 2070 2096 2527 2838 1212 2118 2974 3098 2950

Tree=0
num_leaves=31
num_cat=3
split_feature=22 16 22 16 16 7 16 15 16 20 16 15 15 7 22 22 15 27 15 16 22 16 16 22 16 16 27 14 16 26
split_gain=5662.58 1108.24 579.955 206.525 185.678 124.776 81.6466 42.0032 39.6984 26.7641 23.8783 22.808 22.3808 21.7442 18.9782 16.0054 13.6116 14.3189 16.6954 13.4441 12.6205 12.3771 9.61904 7.95003 7.34068 6.44341 5.99643 5.89969 5.5897 5.58012
threshold=399.50000000000006 1816.5000000000002 83.500000000000014 3193.5000000000005 1146.5000000000002 0 398.50000000000006 51.500000000000007 4935.5000000000009 -156.62999999999997 2316.5000000000005 57.500000000000007 13.500000000000002 1 540.50000000000011 267.50000000000006 31.500000000000004 0.39850000000000002 51.500000000000007 309.50000000000006 2.5000000000000004 1494.5000000000002 53.500000000000007 19.500000000000004 1030.5000000000002 7121.5000000000009 183.07629545454549 2 525.50000000000011 -233.22436507936507
decision_type=2 2 2 2 2 9 2 2 2 2 2 2 2 9 2 2 2 2 2 2 2 2 2 2 2 2 2 1 2 2
left_child=2 4 5 10 14 9 7 13 -5 11 -3 12 -1 -4 28 -15 22 18 -18 -9 -11 -6 -7 -19 -16 -10 -8 -22 -2 -13
right_child=1 3 6 8 21 16 26 19 25 20 -12 29 -14 15 24 -17 17 23 -20 -21 27 -23 -24 -25 -26 -27 -28 -29 -30 -31
leaf_value=4.2948278166239531 4.3954158232453766 4.4233581830622315 4.2968083390279821 4.4562642391214755 4.4032301667779192 4.2458624761712036 4.3678742436258613 4.3158899189553406 4.476858684530864 4.304411533775065 4.4371540485090284 4.3091349670098813 4.3263911741367727 4.3447409977478122 4.3813332146307991 4.3836232542603195 4.325364402976736 4.2507882684839293 4.2764986445949056 4.3340330279072568 4.25351684774198 4.4135863442413097 4.2706193196629156 4.2749724270112512 4.3914536765774761 4.4981577288011829 4.3550708783376235 4.2877405621339548 4.3694623358090592 4.286333364681739
leaf_weight=74 22 580 22 567 645 77 134 303 184 36 683 39 233 303 620 29 29 42 44 154 34 522 80 178 252 44 288 20 364 86
leaf_count=74 22 580 22 567 645 77 134 303 184 36 683 39 233 303 620 29 29 42 44 154 34 522 80 178 252 44 288 20 364 86
internal_value=4.38413 4.4164 4.31853 4.44339 4.3935 4.28965 4.3413 4.33202 4.46335 4.30628 4.43082 4.31145 4.31878 4.34495 4.38017 4.34814 4.27036 4.27672 4.29591 4.322 4.28148 4.40786 4.25848 4.27036 4.38426 4.48097 4.35914 4.26619 4.37094 4.29345
internal_weight=6688 4483 2205 2058 2425 972 1233 811 795 522 1263 432 307 354 1258 332 450 293 73 457 90 1167 157 220 872 228 422 54 386 125
internal_count=6688 4483 2205 2058 2425 972 1233 811 795 522 1263 432 307 354 1258 332 450 293 73 457 90 1167 157 220 872 228 422 54 386 125
cat_boundaries=0 1 2 3
cat_threshold=2 4 2
is_linear=0
shrinkage=1


Tree=1
num_leaves=31
num_cat=2
split_feature=22 16 22 16 16 16 7 16 7 20 18 16 27 20 25 20 23 16 26 16 22 20 22 16 23 27 16 16 11 27
split_gain=5110.76 809.599 730.214 141.682 139.231 132.353 123.772 35.8278 32.19 26.5245 21.5728 18.4515 18.3676 16.5539 20.3758 12.57 11.2603 9.77865 9.54153 8.30257 8.24405 8.0245 7.93355 6.26812 6.10009 7.02279 6.01872 5.81518 5.70921 4.85287
threshold=520.50000000000011 2035.5000000000002 94.500000000000014 3193.5000000000005 1159.5000000000002 409.50000000000006 0 4935.5000000000009 1 -156.62999999999997 -164.17486842105251 1494.5000000000002 169.88702380952384 -79939.099999999991 5444.3176859859623 -669.67999999999995 1.0000000180025095e-35 2413.5000000000005 -1.0000000180025095e-35 1030.5000000000002 19.500000000000004 -27576.904999999995 353.50000000000006 659.00000000000011 111.50000000000001 81.272205882352964 309.50000000000006 7121.5000000000009 1699064.6200000003 3.1001219512195126
decision_type=2 2 2 2 2 2 9 2 9 2 2 2 2 2 2 2 2 2 2 2 2 2 2 2 2 2 2 2 2 2
left_child=2 4 6 17 19 8 9 -5 -4 13 26 -6 -12 28 -15 18 -11 -3 20 23 -8 -20 -7 -2 25 -24 -10 -9 -1 -18
right_child=1 3 5 7 11 22 15 27 10 16 12 -13 -14 14 -16 -17 29 -19 21 -21 -22 -23 24 -25 -26 -27 -28 -29 -30 -31
leaf_value=-0.083934605375382332 0.022121116219494752 0.041193827774459742 -0.078023351649753755 0.068524535978623596 0.018463134201490268 -0.025416556058040708 -0.12292956621558578 0.088089258596301082 -0.067880021309480079 -0.071668989243435441 -0.029965929849506343 0.03002432682315628 -0.048623808671469454 -0.07179432519968558 -0.045788139911019245 -0.11700599064984299 -0.093488278874644531 0.051193852675240008 -0.10538439423807207 0.0073075923058087524 -0.099738911403851077 -0.072612888476950063 -0.00056037198219980515 -0.0039045876285443491 -0.0095400070861265812 -0.025130745498896684 -0.048843347669487273 0.10832335136153481 -0.056087528949692135 -0.12170127919742041
leaf_weight=149 24 421 80 567 619 259 54 184 100 29 257 780 271 183 128 197 27 583 31 279 132 47 35 642 267 172 71 44 21 35
leaf_count=149 24 421 80 567 619 259 54 184 100 29 257 780 271 183 128 197 27 583 31 279 132 47 35 642 267 172 71 44 21 35
internal_value=-2.45257e-10 0.0342571 -0.0557671 0.0594868 0.0148936 -0.0336298 -0.0881695 0.0752554 -0.0479795 -0.0726319 -0.044541 0.024909 -0.0395422 -0.0679487 -0.0610908 -0.107448 -0.097386 0.0470006 -0.100316 6.66453e-05 -0.106472 -0.0856375 -0.0183795 -0.00296672 -0.0145344 -0.0209763 -0.0599759 0.0919941 -0.0804947 -0.109415
internal_weight=6688 4143 2545 1799 2344 1512 1033 795 779 572 699 1399 528 481 311 461 91 1004 264 945 186 78 733 666 474 207 171 228 170 62
internal_count=6688 4143 2545 1799 2344 1512 1033 795 779 572 699 1399 528 481 311 461 91 1004 264 945 186 78 733 666 474 207 171 228 170 62
cat_boundaries=0 1 2
cat_threshold=2 4
is_linear=0
shrinkage=0.05


Tree=2
num_leaves=31
num_cat=3
split_feature=22 16 22 16 16 7 16 15 16 20 15 15 16 7 22 22 15 27 15 16 14 16 16 23 16 16 22 17 26 16
split_gain=4613.27 904.379 473.397 167.722 150.633 101.452 66.316 36.1166 32.3346 21.7451 20.274 19.9491 19.3732 18.0959 15.576 14.2167 12.0104 12.1864 16.1729 11.3263 10.9879 9.84824 8.94404 8.1168 5.6506 5.61176 5.37312 5.15709 4.99514 4.94693
threshold=399.50000000000006 1816.5000000000002 83.500000000000014 3193.5000000000005 1146.5000000000002 0 398.50000000000006 51.500000000000007 4935.5000000000009 -156.62999999999997 57.500000000000007 13.500000000000002 2316.5000000000005 1 551.50000000000011 267.50000000000006 34.500000000000007 2.5788095238095239 51.500000000000007 309.50000000000006 2 1494.5000000000002 43.500000000000007 10.500000000000002 1030.5000000000002 491.50000000000006 6334.5000000000009 106.97999999999966 -233.22436507936507 525.50000000000011
decision_type=2 2 2 2 2 9 2 2 2 2 2 2 2 9 2 2 2 2 2 2 1 2 2 2 2 2 2 2 2 2
left_child=2 4 5 12 14 9 7 13 -5 10 11 -1 -3 -4 29 -15 22 18 -18 -9 -11 -6 -7 -19 -16 -8 -10 -22 -12 -2
right_child=1 3 6 8 21 16 25 19 26 20 28 -13 -14 15 24 -17 17 23 -20 -21 27 -23 -24 -25 -26 -27 -28 -29 -30 -31
leaf_value=-0.081353404939275342 0.011528346723538231 0.03545689345420748 -0.078933030231432486 0.065098311590454566 0.01724149765887175 -0.1265659902555247 -0.028442914974268364 -0.061904611771084098 0.083640906287600181 -0.10937525147691052 -0.067781215982559401 -0.051554018992315098 0.047883370908667199 -0.035308576663402785 -0.0023461700651499912 0.001336722422776551 -0.04708811276807235 -0.11093315885712703 -0.096424123256102862 -0.045251683667816178 -0.058252785508723363 0.02647932292543391 -0.10335562010200657 -0.090940888158299704 0.0065891249090551385 -0.016909144200157201 0.10309072600846941 -0.092968627363443385 -0.089354559075260576 -0.012840933224114663
leaf_weight=74 22 580 22 567 645 72 207 303 184 47 39 233 683 303 594 29 26 120 46 154 23 522 98 88 252 215 44 20 86 390
leaf_count=74 22 580 22 567 645 72 207 303 184 47 39 233 683 303 594 29 26 120 46 154 23 522 98 88 252 215 44 20 86 390
internal_value=1.31015e-10 0.0291237 -0.0592115 0.0535015 0.00843524 -0.0853047 -0.0386417 -0.0470063 0.0714927 -0.0703066 -0.0656486 -0.0587369 0.0421768 -0.0350177 -0.00356717 -0.0321076 -0.102703 -0.0963378 -0.0786083 -0.0562929 -0.0926647 0.0213736 -0.113186 -0.102475 0.000315407 -0.0225667 0.0873944 -0.0743997 -0.0826237 -0.0115397
internal_weight=6688 4483 2205 2058 2425 972 1233 811 795 522 432 307 1263 354 1258 332 450 280 72 457 90 1167 170 208 846 422 228 43 125 412
internal_count=6688 4483 2205 2058 2425 972 1233 811 795 522 432 307 1263 354 1258 332 450 280 72 457 90 1167 170 208 846 422 228 43 125 412
cat_boundaries=0 1 2 3
cat_threshold=2 4 2
is_linear=0
shrinkage=0.05


Tree=3
num_leaves=31
num_cat=0
split_feature=22 16 22 16 16 16 20 15 16 15 17 15 23 21 16 22 16 15 22 16 22 16 18 16 16 24 15 23 25 15
split_gain=4164.33 660.279 599.435 115.066 113.06 73.9673 71.6984 29.4078 29.182 28.8946 19.5547 20.5147 19.4878 16.4789 14.8531 14.2551 12.752 21.0407 9.25315 8.67674 8.63027 7.967 7.43811 6.86528 6.67292 6.30606 6.12766 7.3409 6.91098 6.10961
threshold=520.50000000000011 2035.5000000000002 124.50000000000001 3193.5000000000005 1159.5000000000002 409.50000000000006 -887.00499999999988 51.500000000000007 4935.5000000000009 12.500000000000002 4515.0299999999761 54.500000000000007 36.500000000000007 57647.355000000003 1494.5000000000002 43.500000000000007 3.5000000000000004 37.500000000000007 43.500000000000007 309.50000000000006 22.500000000000004 2413.5000000000005 832.23391666666669 771.50000000000011 1030.5000000000002 48.510884308510647 50.500000000000007 91.500000000000014 223788.08882440077 31.500000000000004
decision_type=2 2 2 2 2 2 2 2 2 2 2 2 2 2 2 2 2 2 2 2 2 2 2 2 2 2 2 2 2 2
left_child=2 4 6 21 24 7 9 12 -5 20 15 -12 13 -4 -6 -11 17 -8 22 -9 -1 -3 -18 26 -2 -20 28 -28 -7 -14
right_child=1 3 5 8 14 23 16 19 -10 10 11 -13 29 -15 -16 -17 18 -19 25 -21 -22 -23 -24 -25 -26 -27 27 -29 -30 -31
leaf_value=-0.1039225099028134 -0.0026443513457428433 0.037213709801457592 -0.024046060004426786 0.06184339216291064 0.016677902659186145 -0.0078115272608766072 -0.11103422613370986 -0.05796076540497043 0.083024659504493087 -0.082268306626851528 -0.04073362243865189 -0.067791800518849296 -0.026108092142314444 0.024219872024176376 0.027050669416785241 -0.063444667826615161 -0.10371551543668692 -0.047727432751229835 -0.098307798917476957 -0.042052542617810627 -0.075581844702052578 0.046239991442601505 -0.073997348546981812 0.00040644312700764706 0.0065666040304654342 -0.065799581089190082 -0.031847436869672195 -0.017473960255799621 -0.036278210502738759 -0.044360050010996376
leaf_weight=61 666 421 48 567 619 191 21 168 228 161 148 133 82 28 780 268 249 35 26 175 48 583 23 55 279 35 120 342 24 104
leaf_count=61 666 421 48 567 619 191 21 168 228 161 148 133 82 28 780 268 249 35 26 175 48 583 23 55 279 35 120 342 24 104
internal_value=-2.92253e-10 0.030923 -0.0503394 0.0537075 0.013436 -0.0272738 -0.0758681 -0.0402099 0.067918 -0.0674731 -0.0637933 -0.0535405 -0.0275968 -0.00626387 0.0224611 -0.070509 -0.0935431 -0.0714675 -0.0972555 -0.0498443 -0.0914422 0.0424551 -0.101203 -0.0165821 7.50736e-05 -0.0796555 -0.0179623 -0.0212073 -0.0109892 -0.0363135
internal_weight=6688 4143 2545 1799 2344 1337 1208 605 795 819 710 281 262 76 1399 429 389 56 333 343 109 1004 272 732 945 61 677 462 215 186
internal_count=6688 4143 2545 1799 2344 1337 1208 605 795 819 710 281 262 76 1399 429 389 56 333 343 109 1004 272 732 945 61 677 462 215 186
is_linear=0
shrinkage=0.05


Tree=4
num_leaves=31
num_cat=3
split_feature=22 16 22 16 16 7 16 15 16 20 15 11 7 16 16 22 15 15 27 15 14 16 22 16 22 11 27 16 17 16
split_gain=3760.94 737.456 387.431 136.201 121.837 87.8629 53.1222 29.581 26.3367 18.1204 17.9684 19.9756 16.1765 15.7116 12.9438 12.5109 10.864 10.069 10.5856 14.4337 9.93764 9.06009 8.06106 7.60441 6.26659 5.29319 5.10822 4.88807 4.88644 4.478
threshold=399.50000000000006 1816.5000000000002 83.500000000000014 3193.5000000000005 1146.5000000000002 0 398.50000000000006 51.500000000000007 4935.5000000000009 -156.62999999999997 57.500000000000007 39111.055000000008 1 2316.5000000000005 905.50000000000011 267.50000000000006 40.500000000000007 34.500000000000007 2.5788095238095239 51.500000000000007 2 309.50000000000006 1283.5000000000002 47.500000000000007 19.500000000000004 1112.3800000000003 183.07629545454549 7121.5000000000009 41321.710000000006 468.50000000000006
decision_type=2 2 2 2 2 9 2 2 2 2 2 2 9 2 2 2 2 2 2 2 1 2 2 2 2 2 2 2 2 2
left_child=2 4 5 13 14 9 7 12 -5 10 11 -1 -4 -3 16 -14 -2 23 19 -19 -11 28 -6 -7 -20 -22 -8 -10 -9 -28
right_child=1 3 6 8 22 17 26 21 27 20 -12 -13 15 -15 -16 -17 -18 18 24 -21 25 -23 -24 -25 -26 -27 29 -29 -30 -31
leaf_value=-0.062017442681707252 0.0054130480127970743 0.032052575714629272 -0.07301152941178192 0.058751222564850325 0.016679531243077746 -0.11434231689498307 -0.012401853234910255 -0.059340998330862142 0.075293380414824126 -0.099412094690698269 -0.074839120876789095 -0.035522489927409751 -0.031741917698272192 0.043243280978666115 0.0026396071656459592 0.0026346691338152723 -0.010519189509915584 -0.041129829188307321 -0.11121698801334089 -0.087737708441589193 -0.082508567882620773 -0.040869759279605629 0.025967677033739884 -0.093120337828345931 -0.08898176506475805 -0.047337630661204458 -0.03270250964024575 0.093844535946846011 -0.044493198404981671 -0.019636981595272728
leaf_weight=195 131 580 22 567 844 78 134 230 184 47 125 112 303 683 543 29 584 26 39 46 23 154 323 92 169 20 101 44 73 187
leaf_count=195 131 580 22 567 844 78 134 230 184 47 125 112 303 683 543 29 584 26 39 46 23 154 323 92 169 20 101 44 73 187
internal_value=-1.41889e-10 0.026296 -0.0534626 0.0483094 0.00761414 -0.077068 -0.034854 -0.0423404 0.0645221 -0.0631104 -0.0588584 -0.0523515 -0.0314905 0.0381042 -0.00318028 -0.0287391 -0.00760014 -0.0932588 -0.087431 -0.0709071 -0.0835202 -0.0507448 0.0192503 -0.102857 -0.0931509 -0.06615 -0.0204666 0.0788734 -0.0557638 -0.024219
internal_weight=6688 4483 2205 2058 2425 972 1233 811 795 522 432 307 354 1263 1258 332 715 450 280 72 90 457 1167 170 208 43 422 228 303 288
internal_count=6688 4483 2205 2058 2425 972 1233 811 795 522 432 307 354 1263 1258 332 715 450 280 72 90 457 1167 170 208 43 422 228 303 288
cat_boundaries=0 1 2 3
cat_threshold=2 4 2
is_linear=0
shrinkage=0.05


Tree=5
num_leaves=31
num_cat=3
split_feature=22 16 22 7 16 16 16 20 7 16 22 16 18 19 17 23 16 21 26 3 22 16 16 23 27 21 22 27 16 23
split_gain=3395.25 538.258 489.162 108.026 100.544 85.8017 59.4282 22.4368 19.7665 15.4065 15.0045 14.7465 14.1782 14.0648 17.7726 12.964 10.7216 9.12545 8.72526 13.571 6.38302 5.94461 5.55696 5.84073 4.96202 7.2592 4.13893 4.1191 4.09062 3.71382
threshold=520.50000000000011 2118.5000000000005 124.50000000000001 0 1159.5000000000002 3652.5000000000005 409.50000000000006 -156.62999999999997 1 5251.5000000000009 1283.5000000000002 100.50000000000001 -125.86658261214036 29061.648313777016 2008.8850000000002 34.500000000000007 2619.5000000000005 1.0000000180025095e-35 -1.0000000180025095e-35 2 43.500000000000007 771.50000000000011 1030.5000000000002 50.500000000000007 153.42637602459021 91515.155000000013 19.500000000000004 3.1001219512195126 1521.5000000000002 54.500000000000007
decision_type=2 2 2 9 2 2 2 2 9 2 2 2 2 2 2 2 2 2 2 9 2 2 2 2 2 2 2 2 2 2
left_child=2 4 3 7 22 16 8 13 -4 -7 28 18 -10 14 -1 -14 -3 -9 26 -20 -15 24 23 -2 29 -26 -5 -19 -6 -8
right_child=1 5 6 11 10 9 21 17 12 -11 -12 -13 15 20 -16 -17 -18 27 19 -21 -22 -23 -24 -25 25 -27 -28 -29 -30 -31
leaf_value=-0.056618942090350649 0.019580415180274126 0.035973068062054567 -0.064510467901293722 -0.10357354293350413 0.014539456507044628 0.059664909718487813 0.0087089381452339406 -0.056118421519881695 -0.046801763127506196 0.077266464691135767 0.026598432323197259 -0.071648392748832709 -0.01155663609970361 -0.074944066807627677 -0.035770540241577213 -0.033248423755812322 0.045814736407642935 -0.075425089171363258 -0.069254639449091743 -0.10601329869694182 -0.056727225438052267 0.00077426854097707709 0.0060408744273380138 -0.0033637330812157913 -0.033614985777498926 -0.01647593345968296 -0.090691785696353625 -0.10141778154032571 0.022676382758015513 -0.01224377658584396
leaf_weight=230 29 496 56 119 636 397 24 29 144 181 658 125 88 75 184 317 626 27 83 36 134 55 279 637 73 402 131 35 204 178
leaf_count=230 29 496 56 119 636 397 24 29 144 181 658 125 88 75 184 317 626 27 83 36 134 55 279 637 73 402 131 35 204 178
internal_value=9.47389e-11 0.0279219 -0.0454539 -0.0685153 0.012888 0.0495264 -0.0246176 -0.0560783 -0.0362129 0.0651768 0.0209445 -0.086491 -0.0333264 -0.0526908 -0.047353 -0.0285351 0.0414641 -0.0792696 -0.0915189 -0.0803749 -0.0632644 -0.0150342 0.000116971 -0.00236466 -0.0163185 -0.0191099 -0.0968235 -0.0900984 0.0165156 -0.00975435
internal_weight=6688 4143 2545 1208 2443 1700 1337 714 605 578 1498 494 549 623 414 405 1122 91 369 119 209 732 945 666 677 475 250 62 840 202
internal_count=6688 4143 2545 1208 2443 1700 1337 714 605 578 1498 494 549 623 414 405 1122 91 369 119 209 732 945 666 677 475 250 62 840 202
cat_boundaries=0 1 2 3
cat_threshold=2 4 4
is_linear=0
shrinkage=0.05


Tree=6
num_leaves=31
num_cat=2
split_feature=22 16 22 16 16 7 22 16 11 27 7 16 16 25 19 16 15 16 23 22 15 27 15 23 19 15 23 15 22 11
split_gain=3066.01 601.27 317.267 111.691 98.5695 71.1526 43.5561 21.4328 15.8153 15.7166 17.6417 15.3395 12.6403 11.459 12.2267 10.6347 9.54354 8.6332 10.4196 8.29284 8.24472 8.43873 9.84143 7.18048 7.16866 11.1529 7.01166 6.69905 6.58707 5.0358
threshold=399.50000000000006 1816.5000000000002 83.500000000000014 3193.5000000000005 1146.5000000000002 0 219.50000000000003 4935.5000000000009 653347.62000000011 0.18517460317460319 1 68.500000000000014 2316.5000000000005 268.38876502868555 31184.92365046198 905.50000000000011 40.500000000000007 468.50000000000006 34.500000000000007 51.500000000000007 27.500000000000004 0.39850000000000002 51.500000000000007 39.500000000000007 11409.615761063074 18.500000000000004 32.500000000000007 51.500000000000007 1067.0000000000002 22600.985000000004
decision_type=2 2 2 2 2 9 2 2 2 2 9 2 2 2 2 2 2 2 2 2 2 2 2 2 2 2 2 2 2 2
left_child=2 4 5 12 15 8 9 -5 13 24 27 -10 -3 29 -15 16 -2 18 -8 -13 23 22 -22 -7 25 -4 -23 -11 -6 -1
right_child=1 3 6 7 28 20 17 -9 11 10 -12 19 -14 14 -16 -17 -18 -19 -20 -21 21 26 -24 -25 -26 -27 -28 -29 -30 -31
leaf_value=-0.086680899348044613 0.0053550019127117715 0.028950278761265758 -0.028512757293879989 0.053095452860736893 0.012493664124575508 -0.10348346000093789 -0.0025734288044846976 0.071247852699863806 -0.021999856290806617 -0.032379752050655956 -0.064582832415689184 -0.076987500786781321 0.038987788952761615 -0.051652282115734985 -0.073580883550939377 0.002439851239778129 -0.0095776099530056648 -0.014790609156287562 -0.030005129340691373 -0.040395856648683552 -0.043953697913093497 -0.088702875231675693 -0.08039588964417238 -0.081253019254654654 -0.041627769110103449 0.021581145860254766 -0.066648792293336659 -0.044412177375156139 0.020251683346717651 -0.05937831168412231
leaf_weight=57 131 580 25 567 438 84 39 228 56 192 83 30 683 236 87 543 584 254 308 32 32 181 44 64 21 20 45 291 729 24
leaf_count=57 131 580 25 567 438 84 39 228 56 192 83 30 683 236 87 543 584 254 308 32 32 181 44 64 21 20 45 291 729 24
internal_value=-7.80011e-11 0.0237426 -0.0482713 0.0436198 0.0068737 -0.0696325 -0.0314318 0.0583014 -0.0570721 -0.0405959 -0.0432884 -0.0409685 0.0343783 -0.0617757 -0.0575587 -0.00283544 -0.0068417 -0.0217949 -0.026922 -0.0581015 -0.0842026 -0.0794647 -0.0650518 -0.0938703 -0.0175057 -0.0062488 -0.0843116 -0.0396291 0.0173399 -0.0785912
internal_weight=6688 4483 2205 2058 2425 972 1233 795 522 632 566 118 1263 404 323 1258 715 601 347 62 450 302 76 148 66 45 226 483 1167 81
internal_count=6688 4483 2205 2058 2425 972 1233 795 522 632 566 118 1263 404 323 1258 715 601 347 62 450 302 76 148 66 45 226 483 1167 81
cat_boundaries=0 1 2
cat_threshold=2 2
is_linear=0
shrinkage=0.05


Tree=7
num_leaves=31
num_cat=4
split_feature=16 16 16 7 16 16 16 25 20 16 7 23 27 16 16 16 23 14 26 14 16 17 23 17 16 27 25 27 16 16
split_gain=2764.13 466.964 340.884 93.9894 85.2438 77.827 44.6443 21.7982 21.2031 16.9154 16.1365 13.9727 12.8281 12.6055 11.3285 10.1429 10.0443 9.58613 13.7618 9.29077 6.98271 6.60899 6.5436 6.34992 5.94001 5.72114 9.26788 5.62934 5.26332 3.28497
threshold=687.50000000000011 2035.5000000000002 221.50000000000003 0 1159.5000000000002 3652.5000000000005 409.50000000000006 741.08648967961051 -120695.19499999999 105.50000000000001 1 24.500000000000004 307.24350000000004 5251.5000000000009 2619.5000000000005 1494.5000000000002 35.500000000000007 2 -1.0000000180025095e-35 3 43.500000000000007 -55219.355000000018 6.5000000000000009 106.97999999999966 1030.5000000000002 21.564821428571431 10863.819984626471 3.8145238095238096 105.50000000000001 7121.5000000000009
decision_type=2 2 2 9 2 2 2 2 2 2 9 2 2 2 2 2 2 1 2 1 2 2 2 2 2 2 2 2 2 2
left_child=2 4 3 7 24 14 10 19 28 17 -4 -12 -10 -7 -3 -6 -8 18 -5 22 -19 -13 -1 -21 -2 -18 -27 -11 -9 -15
right_child=1 5 6 9 15 13 16 8 12 27 11 21 -14 29 -16 -17 25 20 -20 23 -22 -23 -24 -25 -26 26 -28 -29 -30 -31
leaf_value=-0.087843653025492185 -0.0030050545326648329 0.031694726447707842 -0.062233606105049459 -0.081947061208927113 0.013462362454294625 0.053919438686062318 0.018997227705337787 -0.069660414822686187 -0.034079741602296459 -0.038810226580371032 0.00544974821805954 -0.042385661509938374 -0.059772415354586488 0.066023398625127377 0.041330092192922066 0.02203164145829831 -0.0035720753742762932 -0.097832624080924788 -0.046505174083778494 -0.041669511770748575 -0.080923631088808179 -0.02932769244181968 -0.054278633594512939 -0.068395645985769679 0.0054932346983809464 -0.042591853976687966 -0.015610611849991851 -0.066193767111091054 -0.05230040860999572 0.081726596639914953
leaf_weight=53 752 595 45 92 619 397 22 65 329 23 25 133 57 137 626 781 88 106 39 46 144 357 20 43 283 34 498 102 133 44
leaf_count=53 752 595 45 92 619 397 22 65 329 23 25 133 57 137 626 781 88 106 39 46 144 357 20 43 283 34 498 102 133 44
internal_value=1.94675e-11 0.0244716 -0.042222 -0.0604814 0.0101991 0.04379 -0.0232031 -0.0491987 -0.0446972 -0.0771156 -0.0335206 -0.0310117 -0.0378737 0.0589052 0.0366347 0.0182428 -0.0142034 -0.0823519 -0.0713957 -0.0654265 -0.088093 -0.032872 -0.0786478 -0.0545821 -0.000681368 -0.0153815 -0.017335 -0.0611552 -0.0579994 0.0698408
internal_weight=6688 4234 2454 1252 2435 1799 1202 746 584 506 560 515 386 578 1221 1400 642 381 131 162 250 490 73 89 1035 620 532 125 198 181
internal_count=6688 4234 2454 1252 2435 1799 1202 746 584 506 560 515 386 578 1221 1400 642 381 131 162 250 490 73 89 1035 620 532 125 198 181
cat_boundaries=0 1 2 3 4
cat_threshold=2 4 2 2
is_linear=0
shrinkage=0.05


Tree=8
num_leaves=31
num_cat=0
split_feature=22 16 22 16 16 20 22 16 15 15 18 27 16 23 23 16 23 16 16 15 15 23 15 18 22 20 24 23 22 15
split_gain=2500.72 546.925 203.37 96.8547 91.5864 27.5912 19.5257 17.5118 15.6937 16.8637 19.2206 14.7303 12.8337 10.7455 11.7658 10.2333 8.9907 9.73952 8.69217 15.7541 8.02279 6.9356 6.75587 6.19038 6.16054 5.98475 4.8906 4.66016 4.49524 3.82829
threshold=333.50000000000006 1816.5000000000002 83.500000000000014 1030.5000000000002 3193.5000000000005 -702.54999999999984 148.50000000000003 5251.5000000000009 13.500000000000002 57.500000000000007 43.767042857142876 6.0294062500000001 1356.5000000000002 19.500000000000004 80.500000000000014 2316.5000000000005 34.500000000000007 771.50000000000011 3.5000000000000004 37.500000000000007 50.500000000000007 6.5000000000000009 45.500000000000007 155.80623339941238 22.500000000000004 -115031.00499999999 21258.900372240125 95.500000000000014 43.500000000000007 16.500000000000004
decision_type=2 2 2 2 2 2 2 2 2 2 2 2 2 2 2 2 2 2 2 2 2 2 2 2 2 2 2 2 2 2
left_child=2 3 5 16 15 8 11 -6 24 10 -10 29 -5 -8 20 -3 -2 22 19 -7 -15 -11 -18 27 -1 -25 28 -13 -20 -4
right_child=1 4 6 12 7 18 13 -9 9 21 -12 23 -14 14 -16 -17 17 -19 26 -21 -22 -23 -24 25 -26 -27 -28 -29 -30 -31
leaf_value=-0.081782451685931956 0.025325658204762833 0.026133781662772828 -0.033543689290116377 0.0084969624418353793 0.048651861057219366 -0.089631411397740959 -0.00084587540955115596 0.066348714305304035 -0.055950691380656392 -0.081506728040783308 -0.030749375632462595 -0.052822613743720229 0.018035440899268305 -0.024770710131893536 -0.020648696978643882 0.035165167360813369 -0.0022739391558394403 -0.0016847291259929915 -0.081925842225930454 -0.034550838073825134 -0.040179415515890708 -0.058870574430329725 -0.014234698404090237 -0.044048942587078484 -0.059321397486722695 -0.012882270182793341 -0.058981451821146592 -0.027994728328416214 -0.063395915733111138 -0.010851745252929083
leaf_weight=72 23 580 34 645 614 21 39 181 181 46 130 189 778 140 304 683 165 584 236 34 213 128 415 43 53 24 33 21 38 41
leaf_count=72 23 580 34 645 614 21 39 181 181 46 130 189 778 140 304 683 165 584 236 34 213 128 415 43 53 24 33 21 38 41
internal_value=8.16411e-11 0.0201124 -0.0464777 0.00491499 0.0393862 -0.0629512 -0.0311988 0.052681 -0.0564617 -0.0523902 -0.0454164 -0.0407956 0.013712 -0.0263453 -0.0278589 0.0310177 -0.005631 -0.00624268 -0.0738865 -0.0555816 -0.0340683 -0.0648548 -0.0108321 -0.0461178 -0.072259 -0.0328848 -0.0771659 -0.0503398 -0.079356 -0.0211388
internal_weight=6688 4668 2020 2610 2058 972 1048 795 610 485 311 352 1423 696 657 1263 1187 1164 362 55 353 174 580 277 125 67 307 210 274 75
internal_count=6688 4668 2020 2610 2058 972 1048 795 610 485 311 352 1423 696 657 1263 1187 1164 362 55 353 174 580 277 125 67 307 210 274 75
is_linear=0
shrinkage=0.05


Tree=9
num_leaves=31
num_cat=3
split_feature=22 16 22 16 16 7 22 7 15 11 27 22 16 27 22 16 22 15 27 15 21 23 23 15 23 17 23 16 16 0
split_gain=2258.2 357.65 327.351 63.3558 61.0054 60.9376 56.6421 14.4107 12.5843 28.6622 17.1462 10.3645 10.2696 8.6916 8.40412 8.07213 7.89608 7.54381 8.72267 13.6702 6.58648 6.13008 6.08093 11.4313 9.6128 5.36153 5.26241 5.18175 5.41213 4.22157
threshold=520.50000000000011 2074.5000000000005 94.500000000000014 1208.5000000000002 3652.5000000000005 0 267.50000000000006 1 45.500000000000007 245528.31000000003 2.5788095238095239 25.500000000000004 5988.0000000000009 5.0568750000000007 148.50000000000003 2619.5000000000005 1283.5000000000002 34.500000000000007 2.5788095238095239 51.500000000000007 2112.0150000000008 6.5000000000000009 111.50000000000001 51.500000000000007 33.500000000000007 945.69000000000324 32.500000000000007 1030.5000000000002 659.00000000000011 2
decision_type=2 2 2 2 2 9 2 9 2 2 2 2 2 2 2 2 2 2 2 2 2 2 2 2 2 2 2 2 2 9
left_child=2 3 5 27 15 8 7 -4 9 11 -11 -1 -6 20 -15 -3 -5 21 19 -19 -9 -7 23 24 -8 29 -20 28 -2 -10
right_child=1 4 6 16 12 17 22 13 25 10 -12 -13 -14 14 -16 -17 -18 18 26 -21 -22 -23 -24 -25 -26 -27 -28 -29 -30 -31
leaf_value=-0.061643291452918393 0.021505011703508596 0.028949009401428968 -0.05274736498658722 0.013848689512968103 0.049982869789184703 -0.09693190975244656 0.024563837472704197 -0.043895781403407455 -0.054684036920767232 0.022241300162251877 -0.02992218346334994 -0.039869112863403854 0.06684482908250565 -0.040640319374159531 -0.027805206879287305 0.037271573248441318 0.021485437962611945 -0.024173451932492082 -0.076466922650442415 -0.068992039383105608 -0.012588737459321106 -0.075132826155470331 -0.0078948539046455497 -0.024675936924107595 -0.011680062041756482 -0.0481862903572619 -0.0574041523039341 0.0056588260906928478 -0.0026784221428186421 -0.071850227192044258
leaf_weight=99 24 545 74 762 466 43 21 20 83 23 50 122 112 193 376 626 609 27 170 46 105 129 372 209 142 132 46 357 642 63
leaf_count=99 24 545 74 762 466 43 21 20 83 23 50 122 112 193 376 626 609 27 170 46 105 129 372 209 142 132 46 357 642 63
internal_value=1.70651e-11 0.0227714 -0.0370695 0.0102147 0.0399587 -0.0587645 -0.0222475 -0.0317726 -0.0478622 -0.0406506 -0.0134871 -0.0496232 0.0532502 -0.0295361 -0.0321588 0.0333981 0.0172409 -0.0722917 -0.0673574 -0.0524153 -0.0175979 -0.0805826 -0.0124152 -0.0169355 -0.0070106 -0.055489 -0.0724073 0.000798411 -0.00180695 -0.0620914
internal_weight=6688 4143 2545 2394 1749 1033 1512 768 572 294 73 221 578 694 569 1171 1371 461 289 73 125 172 744 372 163 278 216 1023 666 146
internal_count=6688 4143 2545 2394 1749 1033 1512 768 572 294 73 221 578 694 569 1171 1371 461 289 73 125 172 744 372 163 278 216 1023 666 146
cat_boundaries=0 1 2 3
cat_threshold=2 4 2
is_linear=0
shrinkage=0.05


Tree=10
num_leaves=31
num_cat=3
split_feature=22 16 22 16 16 7 22 22 27 11 16 7 22 25 16 23 16 22 15 16 15 23 15 25 3 21 18 22 22 27
split_gain=2040.28 399.105 211.953 75.1149 64.8292 50.0827 29.0869 14.9473 13.1633 12.512 12.644 11.6167 8.65601 8.57859 8.26153 7.84462 8.96437 7.14932 6.77916 6.71546 8.61088 8.89269 6.41643 6.23341 10.9559 6.18036 5.83455 5.31696 4.77444 4.20673
threshold=399.50000000000006 1816.5000000000002 83.500000000000014 3193.5000000000005 1146.5000000000002 0 201.50000000000003 4247.0000000000009 0.18517460317460319 653347.62000000011 68.500000000000014 1 19.500000000000004 120905.91409119179 2316.5000000000005 37.500000000000007 771.50000000000011 51.500000000000007 41.500000000000007 468.50000000000006 50.500000000000007 35.500000000000007 41.500000000000007 31220.049469572117 2 6821.7650000000012 -0.49107015723270458 43.500000000000007 1283.5000000000002 4.7388095238095245
decision_type=2 2 2 2 2 9 2 2 2 2 2 9 2 2 2 2 2 2 2 2 2 2 2 2 9 2 2 2 2 2
left_child=2 4 5 14 15 9 8 -5 23 12 29 18 26 -14 -3 -2 22 -12 -10 20 21 -8 -17 24 -4 27 -1 -7 -6 -11
right_child=1 3 6 7 28 25 19 -9 11 10 17 -13 13 -15 -16 16 -18 -19 -20 -21 -22 -23 -24 -25 -26 -27 -28 -29 -30 -31
leaf_value=-0.073479379538227529 0.027345336016944867 0.023595473022593572 -0.024057809471000488 0.043067104562950299 0.01213416758046194 -0.076851277259955247 0.009609810976932448 0.057966341150632088 -0.021749447897428231 -3.3648479550790327e-05 -0.065066253940264385 -0.054278443190149774 -0.040466994107814458 -0.066050709210909331 0.031710268631045695 0.0031259096075042059 0.00018565558157435683 -0.031091008966905066 -0.03670032085148868 -0.012128013946646608 -0.028514495299064687 -0.019523364772257492 -0.01220847171942388 -0.036092068720608952 0.025165578871965411 -0.06171547195847546 -0.052989691846636593 -0.058223050589794705 0.019282324023360255 -0.027511905853947007
leaf_weight=51 22 580 26 553 844 229 33 242 98 26 30 78 205 39 683 87 833 32 335 258 238 127 316 20 20 175 109 46 323 30
leaf_count=51 22 580 26 553 844 229 33 242 98 26 30 78 205 39 683 87 833 32 335 258 238 127 316 20 20 175 109 46 323 30
internal_value=6.94498e-11 0.0193681 -0.0393774 0.0355624 0.00562464 -0.056837 -0.0256136 0.0476025 -0.0338021 -0.0462992 -0.0319757 -0.0365162 -0.0504828 -0.0445562 0.0279838 -0.00224934 -0.00277611 -0.0475306 -0.0333165 -0.0184113 -0.0224844 -0.0135146 -0.00889807 -0.0127884 -0.00265634 -0.0690609 -0.0595208 -0.0737353 0.0141126 -0.0147541
internal_weight=6688 4483 2205 2058 2425 972 1233 795 577 522 118 511 404 244 1263 1258 1236 62 433 656 398 160 403 66 46 450 160 275 1167 56
internal_count=6688 4483 2205 2058 2425 972 1233 795 577 522 118 511 404 244 1263 1258 1236 62 433 656 398 160 403 66 46 450 160 275 1167 56
cat_boundaries=0 1 2 3
cat_threshold=2 2 8
is_linear=0
shrinkage=0.05


Tree=11
num_leaves=31
num_cat=1
split_feature=22 16 22 16 16 20 22 16 15 15 18 27 16 23 16 23 16 16 15 15 20 3 23 27 26 23 23 22 22 23
split_gain=1841.56 402.045 149.214 71.1837 67.7912 22.3492 14.5061 13.4991 13.0821 14.0754 16.2132 11.8799 9.68916 9.08258 7.45603 7.10295 7.12908 6.83702 13.7077 6.79278 6.78831 10.8313 5.91951 5.72384 5.10553 4.89713 5.85734 4.61015 4.52052 3.24829
threshold=333.50000000000006 1816.5000000000002 83.500000000000014 1030.5000000000002 3193.5000000000005 -702.54999999999984 201.50000000000003 4566.0000000000009 13.500000000000002 57.500000000000007 43.767042857142876 0.18517460317460319 1356.5000000000002 103.50000000000001 2316.5000000000005 34.500000000000007 771.50000000000011 3.5000000000000004 37.500000000000007 41.500000000000007 -105101.42999999998 0 6.5000000000000009 3.1001219512195126 -62.416860465116265 34.500000000000007 80.500000000000014 22.500000000000004 6334.5000000000009 6.5000000000000009
decision_type=2 2 2 2 2 2 2 2 2 2 2 2 2 2 2 2 2 2 2 2 2 9 2 2 2 2 2 2 2 2
left_child=2 3 5 15 14 8 11 -6 27 10 -10 20 -5 19 -3 -2 23 18 -7 -13 -4 -22 -11 -17 -19 -8 -27 -1 -9 -26
right_child=1 4 6 12 7 17 25 28 9 22 -12 13 -14 -15 -16 16 -18 24 -20 -21 21 -23 -24 -25 29 26 -28 -29 -30 -31
leaf_value=-0.07081613254526424 0.022703816952264828 0.022415699115176567 -0.036467790044844149 0.0072396901791893639 0.040190785427308501 -0.079364135267124297 -0.0033179206415437736 0.051086622559034782 -0.047741165026785673 -0.071208772411488971 -0.02459525773803202 -0.025656580242958634 0.015527615359558107 -0.017073538385739086 0.030124755314173586 0.0065457978818673074 -0.0014557436377301252 -0.050321824807764551 -0.027985212712219973 -0.040500216638862059 -0.022854918979394897 0.026087625138461593 -0.050296393169992376 -0.010840578290398382 -0.07332807568284129 -0.028147416770448814 -0.016462613037900808 -0.051385881533881406 0.068450869467448106 -0.06174101002754704
leaf_weight=72 23 580 20 645 498 21 39 253 181 46 130 99 778 64 683 52 584 41 34 348 26 20 128 528 173 198 234 53 44 93
leaf_count=72 23 580 20 645 498 21 39 253 181 46 130 99 778 64 683 52 584 41 34 348 26 20 128 528 173 198 234 53 44 93
internal_value=1.11735e-11 0.0172594 -0.0398845 0.00422938 0.0337843 -0.0539952 -0.0267972 0.0452223 -0.0481546 -0.0444373 -0.038066 -0.032112 0.011771 -0.0346904 0.0265846 -0.00481163 -0.00535532 -0.063837 -0.0476026 -0.0372127 -0.012149 -0.00157555 -0.055825 -0.0092818 -0.0667455 -0.0202863 -0.0218181 -0.0625777 0.0536591 -0.069277
internal_weight=6688 4668 2020 2610 2058 972 1048 795 610 485 311 577 1423 511 1263 1187 1164 362 55 447 66 46 174 580 307 471 432 125 297 266
internal_count=6688 4668 2020 2610 2058 972 1048 795 610 485 311 577 1423 511 1263 1187 1164 362 55 447 66 46 174 580 307 471 432 125 297 266
cat_boundaries=0 1
cat_threshold=8
is_linear=0
shrinkage=0.05


Tree=12
num_leaves=31
num_cat=3
split_feature=22 22 22 22 22 22 20 22 22 14 11 22 27 18 23 23 27 17 23 19 25 20 3 27 23 23 6 18 23 23
split_gain=1662.95 319.747 172.373 76.021 32.0393 23.731 20.1701 11.7277 11.6762 10.8086 13.9233 10.5989 9.93766 9.60592 9.02332 8.34252 6.79269 6.65646 6.39009 6.19258 6.37554 6.12645 9.7752 6.12592 5.66145 5.58839 5.28504 4.29234 4.09816 4.07688
threshold=399.50000000000006 1283.5000000000002 83.500000000000014 2786.5000000000005 909.00000000000011 219.50000000000003 -702.54999999999984 1951.5000000000002 4247.0000000000009 0 1135827.6950000001 22.500000000000004 0.18517460317460319 163.90783564936675 10.500000000000002 178.50000000000003 178.88865079365084 5984.9700000000021 76.500000000000014 1.0000000180025095e-35 8360.8165858608027 -105101.42999999998 1 169.88702380952384 91.500000000000014 37.500000000000007 2 676.69320228866752 6.5000000000000009 35.500000000000007
decision_type=2 2 2 2 2 2 2 2 2 1 2 2 2 2 2 2 2 2 2 2 2 2 9 2 2 2 9 2 2 2
left_child=2 4 6 7 15 12 9 -3 -5 14 11 -11 21 18 17 25 29 -1 -14 -8 28 -4 -23 -15 -18 -2 -27 -12 -21 -7
right_child=1 3 5 8 -6 16 19 -9 -10 10 27 -13 13 23 -16 -17 24 -19 -20 20 -22 22 -24 -25 -26 26 -28 -29 -30 -31
leaf_value=-0.031929936103032172 0.021555132372304799 0.020478096524818318 -0.034644400570541627 0.039026525257473674 0.011428013317093776 0.0099218420684337623 -0.037136172725317572 0.02918372868858847 0.052367092124071007 -0.06483872694366459 -0.037963262242688374 -0.047323533312267622 -0.03897698991062367 -0.001806309649392086 -0.045970321397414839 0.0034879027360440133 -0.026162179598233699 1.8334000006965969e-05 -0.024876359973173098 -0.068618061483049622 -0.040860656720976676 -0.021712172711984473 0.024783243946731093 -0.026572391214753268 -0.013923282858095118 0.0031616414771328525 -0.0071908258836502065 -0.011309163616565259 -0.056173008689464836 -0.011506268165836869
leaf_weight=56 20 945 20 509 793 25 26 655 242 134 44 243 332 34 87 548 191 23 106 208 31 26 20 94 187 151 620 23 97 198
leaf_count=56 20 945 20 509 793 25 26 655 242 134 44 243 332 34 87 548 191 23 106 208 31 26 20 94 187 151 620 23 97 198
internal_value=-6.41829e-11 0.0174857 -0.0355502 0.0302018 0.00346327 -0.0231379 -0.0512954 0.024042 0.0433253 -0.0457468 -0.0498164 -0.0535491 -0.0299022 -0.0320432 -0.0348619 -0.00125371 -0.0160247 -0.0226285 -0.0355645 -0.0606452 -0.0624643 -0.0115415 -0.00149677 -0.0199939 -0.0201075 -0.00453868 -0.00521556 -0.0288133 -0.0646601 -0.00910401
internal_weight=6688 4483 2205 2351 2132 1233 972 1600 751 610 444 377 632 566 166 1339 601 79 438 362 336 66 46 128 378 791 771 67 305 223
internal_count=6688 4483 2205 2351 2132 1233 972 1600 751 610 444 377 632 566 166 1339 601 79 438 362 336 66 46 128 378 791 771 67 305 223
cat_boundaries=0 1 2 3
cat_threshold=2 8 26
is_linear=0
shrinkage=0.05


Tree=13
num_leaves=31
num_cat=4
split_feature=16 16 7 16 16 16 16 27 6 15 20 19 16 27 18 7 16 16 26 3 26 15 15 16 16 16 26 26 21 16
split_gain=1501.06 313.194 130.2 55.3876 53.7336 38.109 19.6141 22.6561 18.809 19.1767 16.0308 14.3785 11.3368 8.94351 8.69263 8.68569 6.95836 6.05235 5.52836 9.36473 9.34 4.58102 4.30643 3.53643 3.3262 3.06474 2.91408 2.77744 2.73675 2.64051
threshold=536.50000000000011 1816.5000000000002 0 3193.5000000000005 1146.5000000000002 309.50000000000006 117.50000000000001 0.18517460317460319 1 56.500000000000007 -156.62999999999997 944.53870966252668 5251.5000000000009 183.07629545454549 -152.13071934862697 2 905.50000000000011 2316.5000000000005 -1.0000000180025095e-35 3 1.0000000180025095e-35 40.500000000000007 44.500000000000007 1494.5000000000002 43.500000000000007 378.50000000000006 832.45061111111124 -0.89440909090909093 66210.815000000017 8881.5000000000018
decision_type=2 2 9 2 2 2 2 2 9 2 2 2 2 2 2 9 2 2 2 9 2 2 2 2 2 2 2 2 2 2
left_child=2 4 5 17 15 8 18 -8 9 11 14 -1 -5 25 -10 16 21 -3 24 20 -20 -2 -9 28 -4 -7 -15 -12 -6 -14
right_child=1 3 6 12 23 13 7 22 10 -11 27 -13 29 26 -16 -17 -18 -19 19 -21 -22 -23 -24 -25 -26 -27 -28 -29 -30 -31
leaf_value=-0.040600950060592549 0.0035483444457929726 0.020258920589771436 -0.072325671750765583 0.037619780036711806 0.021129970267550868 -0.01701616791131742 0.0053540446836015457 -0.067578526400029662 -0.046669780198966955 -0.042827463551269228 -0.045773438685573639 -0.0028667695947018836 0.049612273617922892 -0.022817291138840162 -0.032722627699954494 -0.032970102366221991 0.0024356188203445333 0.027204516213107717 -0.033141419636986906 -0.073296740474669553 -0.069343801200389868 -0.0066117889531798237 -0.04416331992726083 0.015179537865132542 -0.061070767888705135 -0.0038986840704094993 -0.0036200902269532286 -0.068092233922494499 0.0087203253402122743 0.068094027313319122
leaf_weight=31 133 580 104 614 48 68 23 24 140 60 20 136 159 337 553 23 535 683 62 38 25 669 108 522 178 129 21 46 597 22
leaf_count=31 133 580 104 614 48 68 23 24 140 60 20 136 159 337 553 23 535 683 62 38 25 669 108 522 178 129 21 46 597 22
internal_value=-3.01215e-07 0.0160421 -0.0349763 0.0305228 0.00424906 -0.0274632 -0.0555774 -0.0404412 -0.0333623 -0.0177981 -0.0372914 -0.00987132 0.0408616 -0.0169828 -0.0355402 -0.00250486 -0.00198078 0.0240149 -0.0613418 -0.0525891 -0.0435444 -0.00492688 -0.0484206 0.01212 -0.0652215 -0.00842655 -0.0216912 -0.061329 0.00964383 0.0518587
internal_weight=6688 4585 2103 2058 2527 1541 562 155 986 227 759 167 795 555 693 1360 1337 1263 407 125 87 802 132 1167 282 197 358 66 645 181
internal_count=6688 4585 2103 2058 2527 1541 562 155 986 227 759 167 795 555 693 1360 1337 1263 407 125 87 802 132 1167 282 197 358 66 645 181
cat_boundaries=0 1 2 3 4
cat_threshold=2 172314 2 4
is_linear=0
shrinkage=0.05


Tree=14
num_leaves=31
num_cat=2
split_feature=22 16 22 7 16 16 16 15 20 19 15 16 15 14 16 22 26 15 22 16 16 15 16 15 16 24 20 16 15 24
split_gain=1358.48 215.323 199.456 50.705 39.4909 35.9544 23.4597 16.0959 10.9702 9.7653 12.8139 9.56514 7.17035 6.91027 6.75556 6.25361 6.0303 9.72968 5.40938 5.00466 4.98755 4.85497 4.67824 4.66356 4.24927 6.68998 4.18648 4.02967 3.36135 6.14975
threshold=520.50000000000011 2118.5000000000005 124.50000000000001 0 1208.5000000000002 3652.5000000000005 454.50000000000006 51.500000000000007 -156.62999999999997 53313.055260850822 13.500000000000002 206.50000000000003 31.500000000000004 1 5988.0000000000009 277.50000000000006 -1.0000000180025095e-35 51.500000000000007 19.500000000000004 309.50000000000006 1521.5000000000002 20.500000000000004 30.500000000000004 28.500000000000004 2952.5000000000005 -23664.384068183226 -10747.904999999997 105.50000000000001 36.500000000000007 10214.258182575761
decision_type=2 2 2 9 2 2 2 2 2 2 2 2 2 1 2 2 2 2 2 2 2 2 2 2 2 2 2 2 2 2
left_child=2 4 3 8 21 24 7 11 9 10 -1 -4 22 -10 -7 -13 18 -18 -14 -9 -6 26 -5 -23 -3 -26 -2 -11 -8 -30
right_child=1 5 6 12 20 14 28 19 13 27 -12 15 16 -15 -16 -17 17 -19 -20 -21 -22 23 -24 -25 25 -27 -28 -29 29 -31
leaf_value=-0.046971029871492653 0.032995379042057765 0.023987757816449365 0.013021915545687081 -0.078827321990614846 0.010054218650838564 0.038807078395758324 0.002468887486793392 -0.034698623809076491 -0.064504752482505562 -0.052785687023424545 -0.02493398589666616 -0.020271725435996087 -0.072925143539905549 -0.036933098365129396 0.052483192931062406 -0.0024306276197043749 -0.023081466072194634 -0.053958084841187186 -0.052666715167482753 -0.023494072064225165 0.016061452833083505 -0.020976502978457854 -0.059395853794669197 0.00048692891686140209 0.0024691258114762603 0.032223021000339663 0.0027127526998519899 -0.036810195994635739 -0.022014966568745235 -0.0074168059467269697
leaf_weight=80 21 761 32 42 594 466 64 168 47 64 376 201 40 44 112 65 42 65 187 245 826 26 118 951 20 341 25 103 85 477
leaf_count=80 21 761 32 42 594 466 64 168 47 64 376 201 40 44 112 65 42 65 187 245 826 26 118 951 20 341 25 103 85 477
internal_value=-2.86155e-07 0.0176615 -0.0287519 -0.0434778 0.00815283 0.0313261 -0.0154468 -0.0216615 -0.0349571 -0.0325884 -0.0288001 -0.0128051 -0.0557932 -0.0511734 0.0414571 -0.0159121 -0.0516239 -0.0418383 -0.0562365 -0.0280519 0.0135486 0.00066315 -0.0644966 -8.42576e-05 0.0261071 0.0305746 0.0165374 -0.0429325 -0.00838831 -0.00962471
internal_weight=6688 4143 2545 1208 2443 1700 1337 711 714 623 456 298 494 91 578 266 334 107 227 413 1420 1023 160 977 1122 361 46 167 626 562
internal_count=6688 4143 2545 1208 2443 1700 1337 711 714 623 456 298 494 91 578 266 334 107 227 413 1420 1023 160 977 1122 361 46 167 626 562
cat_boundaries=0 1 2
cat_threshold=2 2
is_linear=0
shrinkage=0.05


Tree=15
num_leaves=31
num_cat=3
split_feature=22 16 22 7 16 16 7 22 25 15 15 6 23 15 16 15 26 15 23 16 22 16 23 15 19 18 16 19 20 15
split_gain=1226.03 194.591 180.009 45.7612 35.6966 32.1607 21.416 18.3833 10.2116 12.1827 21.4856 6.88745 9.37287 6.47124 6.0969 5.46442 5.44235 8.78103 5.20724 4.99401 4.80517 6.08559 4.52049 4.42918 4.57756 5.93801 4.30058 4.21902 4.04558 3.75788
threshold=520.50000000000011 2035.5000000000002 124.50000000000001 0 3652.5000000000005 1208.5000000000002 1 303.50000000000006 741.08648967961051 45.500000000000007 35.500000000000007 2 37.500000000000007 31.500000000000004 5988.0000000000009 77.500000000000014 -1.0000000180025095e-35 51.500000000000007 11.500000000000002 2619.5000000000005 1.5000000000000002 26.500000000000004 39.500000000000007 19.500000000000004 4984.8192505179204 -12.004584326209047 454.50000000000006 6999.1553410376464 -5654.2099999999991 50.500000000000007
decision_type=2 2 2 9 2 2 9 2 2 2 2 9 2 2 2 2 2 2 2 2 2 2 2 2 2 2 2 2 2 2
left_child=2 5 3 8 19 23 -4 11 20 10 -10 12 -8 22 -6 -11 18 -18 -15 -3 -1 -22 -5 28 25 -25 -13 -26 -2 -9
right_child=1 4 6 13 14 -7 7 29 9 15 -12 26 -14 16 -16 -17 17 -19 -20 -21 21 -23 -24 24 27 -27 -28 -29 -30 -31
leaf_value=-0.026957686032138523 0.031320149917155503 0.021021684913802113 -0.042897125158924611 -0.068314024488976666 0.036866724412876299 0.012439249474414472 0.019536408266195886 -0.0017688161829421515 -0.031302450408216519 -0.038241631607163699 0.0015626130769894999 -0.023638971727040988 -0.014093414663939791 -0.060084646625909954 0.049859033405248609 -0.013441371494748942 -0.021927392518236527 -0.051260180777082082 -0.044813764874230735 0.027419133300702583 -0.059866061080838487 -0.037709766416810453 -0.051241924222840955 -0.033962356028231708 0.018700743117369713 -0.0022659340449091461 -0.0090875716902429991 0.00021877196750654622 0.00063884244078681583 -0.0099371957419559006
leaf_weight=31 22 595 64 94 466 1321 26 215 166 298 71 465 102 128 112 24 42 65 99 626 63 61 66 22 32 45 57 881 21 408
leaf_count=31 22 595 64 94 466 1321 26 215 166 298 71 465 102 128 112 24 42 65 99 626 63 61 66 22 32 45 57 881 21 408
internal_value=-2.71814e-07 0.0167784 -0.0273143 -0.0413039 0.0291475 0.00728529 -0.0146745 -0.0132556 -0.0332093 -0.0300606 -0.0214568 -0.019138 -0.0067361 -0.0530035 0.0393843 -0.0363932 -0.0490427 -0.0397464 -0.0534247 0.0243016 -0.0445648 -0.0489666 -0.0612718 0.000629992 -5.91602e-05 -0.0126737 -0.0216356 0.000866552 0.0163363 -0.00711825
internal_weight=6688 4143 2545 1208 1799 2344 1337 1273 714 559 237 650 128 494 578 322 334 107 227 1221 155 124 160 1023 980 67 522 913 43 623
internal_count=6688 4143 2545 1208 1799 2344 1337 1273 714 559 237 650 128 494 578 322 334 107 227 1221 155 124 160 1023 980 67 522 913 43 623
cat_boundaries=0 1 2 3
cat_threshold=2 4 282
is_linear=0
shrinkage=0.05


Tree=16
num_leaves=31
num_cat=3
split_feature=16 22 16 7 16 16 7 22 23 20 15 15 15 23 21 23 15 16 27 15 16 22 21 23 15 16 5 15 16 24
split_gain=1106.9 173.347 167.402 47.273 29.2406 28.6144 17.7549 14.7565 10.7372 10.2718 9.09819 12.507 8.05764 10.4039 6.47993 6.29797 6.22839 5.52816 5.22267 10.8645 4.73204 4.55855 4.5429 4.07974 3.91901 3.77324 3.61557 4.27862 3.58368 6.03771
threshold=771.50000000000011 148.50000000000003 2118.5000000000005 0 3652.5000000000005 1208.5000000000002 1 303.50000000000006 17.500000000000004 -156.62999999999997 57.500000000000007 12.500000000000002 50.500000000000007 34.500000000000007 1.0000000180025095e-35 6.5000000000000009 31.500000000000004 5251.5000000000009 0.39850000000000002 51.500000000000007 117.50000000000001 1283.5000000000002 88992.770000000004 39.500000000000007 44.500000000000007 319.50000000000006 2 44.500000000000007 2952.5000000000005 -23664.384068183226
decision_type=2 2 2 9 2 2 9 2 2 2 2 2 2 2 2 2 2 2 2 2 2 2 2 2 2 2 9 2 2 2
left_child=1 3 5 9 28 26 25 8 -8 10 11 -1 13 -9 -11 -12 23 -6 19 -18 -20 -7 -14 -5 -10 -3 27 -2 -4 -30
right_child=2 6 4 16 17 21 7 12 24 14 15 -13 22 -15 -16 -17 18 -19 20 -21 -22 -23 -24 -25 -26 -27 -28 -29 29 -31
leaf_value=-0.044137525001673832 -0.021950982183669556 -0.029427411998140404 0.021625897573471151 -0.064898323614467332 0.034113330124133749 0.0095838756322079374 0.014683573469519616 0.035160048566758632 -0.012009095496673063 -0.026938622901296439 -0.055786382262077598 -0.021261420952428393 -0.022241026218855819 -0.0023338627508925824 -0.055572558460276457 -0.03313564292195504 -0.012520906550344081 0.044656949932815625 -0.05394101694285397 -0.050458376787845864 -0.039618850759713053 0.015263313129841489 -0.0083168699103699419 -0.048679827768920048 -0.02160558316838472 -0.056887516074559913 0.0024246038310330453 -0.0018372211430249807 0.00097471341723576188 0.029240913181142376
leaf_weight=70 33 29 761 94 397 763 25 20 149 29 36 408 70 247 62 208 32 181 189 46 83 658 359 66 372 22 785 133 20 341
leaf_count=70 33 29 761 94 397 763 25 20 149 29 36 408 70 247 62 208 32 181 189 46 83 658 359 66 372 22 785 133 20 341
internal_value=-2.58253e-07 -0.0253785 0.0163036 -0.0381027 0.0282787 0.00772116 -0.0123591 -0.0111718 -0.0173252 -0.0306169 -0.0286216 -0.0246115 -0.00634467 0.00047467 -0.0464475 -0.0364776 -0.0500358 0.0374151 -0.0462999 -0.0348943 -0.0495707 0.0122138 -0.0105889 -0.0582082 -0.0188611 -0.0412729 0.00100823 -0.00550416 0.0235722 0.0276749
internal_weight=6688 2616 4072 1323 1700 2372 1293 1242 546 813 722 478 696 267 91 244 510 578 350 78 272 1421 429 160 521 51 951 166 1122 361
internal_count=6688 2616 4072 1323 1700 2372 1293 1242 546 813 722 478 696 267 91 244 510 578 350 78 272 1421 429 160 521 51 951 166 1122 361
cat_boundaries=0 1 2 3
cat_threshold=2 4 69920
is_linear=0
shrinkage=0.05


Tree=17
num_leaves=31
num_cat=4
split_feature=16 16 22 7 16 16 22 27 7 15 11 27 23 26 15 20 22 18 27 21 23 14 16 26 16 16 5 15 16 26
split_gain=999.394 168.359 136.294 30.1119 29.681 29.4764 21.7478 9.80399 9.98992 9.52183 19.4236 14.294 7.49082 6.86356 5.73595 8.13757 5.2723 5.11605 5.01488 7.96485 7.71868 4.71415 7.53303 7.25372 4.43406 3.82672 3.40401 3.5703 3.231 2.95837
threshold=687.50000000000011 2011.5000000000002 94.500000000000014 0 3652.5000000000005 1159.5000000000002 285.50000000000006 1.0000000180025095e-35 1 45.500000000000007 245528.31000000003 2.5788095238095239 33.500000000000007 -2.0276190476190474 16.500000000000004 -38467.304999999993 6334.5000000000009 11.929461349854462 0.99083333333333357 45295.970000000008 6.5000000000000009 2 43.500000000000007 -1.0000000180025095e-35 2580.5000000000005 1494.5000000000002 3 37.500000000000007 923.50000000000011 832.45061111111124
decision_type=2 2 2 9 2 2 2 2 9 2 2 2 2 2 2 2 2 2 2 2 2 1 2 2 2 2 9 2 2 2
left_child=2 5 3 9 24 26 7 14 17 10 13 -12 -8 -1 -4 -16 -6 -9 19 -11 -20 23 -23 -5 -3 -7 -2 -28 -29 -14
right_child=1 4 6 21 16 25 12 8 -10 18 11 -13 29 -15 15 -17 -18 -19 20 -21 -22 22 -24 -25 -26 -27 27 28 -30 -31
leaf_value=-0.025824280055172313 -0.0062513176129296482 0.018709964348298812 -0.022608733802501644 -0.048394508148290362 0.034173537216917529 0.0079237528594283332 0.017612281041564766 -0.024168731132706039 -0.038921726540457918 -0.0022131266072392465 0.029711392546153587 -0.017916311853448861 -0.010176574579630168 -0.044019713703857127 -0.012082251314229022 0.02697917665742959 0.052180361138148751 -0.015215082849301821 -0.054581255011260515 -0.040787703008390963 -0.034891859383787964 -0.063008412054436774 -0.046657729860217802 -0.023740287426681744 0.024684054669426948 0.013224035708244174 0.010238472857522442 -0.0035747955915962724 0.00298352033928677 0.005951085718891894
leaf_weight=138 187 594 28 103 534 619 27 380 82 23 23 50 545 83 30 24 44 275 75 32 148 106 210 42 651 757 94 354 400 30
leaf_count=138 187 594 28 103 534 619 27 380 82 23 23 50 545 83 30 24 44 275 75 32 148 106 210 42 651 757 94 354 400 30
internal_value=-6.41375e-08 0.0147147 -0.0253881 -0.0392084 0.0261808 0.00604489 -0.0153413 -0.0206445 -0.0224693 -0.0315446 -0.0252716 -0.00291032 -0.00812653 -0.0326579 -0.00424405 0.00527838 0.0355443 -0.0204096 -0.0381788 -0.0246565 -0.0415139 -0.0487174 -0.0521425 -0.0412533 0.0218338 0.0108397 -0.000329626 0.0010377 -9.55829e-05 -0.00933513
internal_weight=6688 4234 2454 1033 1823 2411 1421 819 737 572 294 73 602 221 82 54 578 655 278 55 223 461 316 145 1245 1376 1035 848 754 575
internal_count=6688 4234 2454 1033 1823 2411 1421 819 737 572 294 73 602 221 82 54 578 655 278 55 223 461 316 145 1245 1376 1035 848 754 575
cat_boundaries=0 1 2 3 4
cat_threshold=2 2 2 69920
is_linear=0
shrinkage=0.05


Tree=18
num_leaves=31
num_cat=0
split_feature=22 16 22 16 16 22 21 27 16 15 15 23 21 15 16 18 16 23 15 23 23 22 20 16 11 16 23 22 22 23
split_gain=902.731 195.035 77.6496 34.8086 33.5746 14.7837 9.88527 9.85738 8.60536 13.9861 15.0448 7.92257 7.65934 9.7648 7.54639 7.19879 7.13955 6.55562 5.90761 5.41572 5.18165 4.52289 4.19517 4.14919 3.82258 3.56339 2.94484 2.8834 2.87056 2.86109
threshold=342.50000000000006 1816.5000000000002 51.500000000000007 1030.5000000000002 3193.5000000000005 148.50000000000003 4280.5000000000009 0.64333333333333342 53.500000000000007 15.500000000000002 45.500000000000007 19.500000000000004 75167.715000000011 16.500000000000004 4566.0000000000009 33.905912566489356 1.5000000000000002 80.500000000000014 50.500000000000007 34.500000000000007 144.50000000000003 1067.0000000000002 -118349.14999999998 206.50000000000003 54740.220000000008 2336.0000000000005 6.5000000000000009 7637.5000000000009 19.500000000000004 52.500000000000007
decision_type=2 2 2 2 2 2 2 2 2 2 2 2 2 2 2 2 2 2 2 2 2 2 2 2 2 2 2 2 2 2
left_child=2 3 6 19 25 7 16 12 9 -8 -11 -7 13 -4 -6 23 -1 18 -13 -2 24 -5 -17 -9 -21 -3 -18 -16 -28 -10
right_child=1 4 5 21 14 11 8 15 29 10 -12 17 -14 -15 27 22 26 -19 -20 20 -22 -23 -24 -25 -26 -27 28 -29 -30 -31
leaf_value=-0.02107790113681134 0.021195469051599504 0.015842610333568981 -0.018847721760103017 0.0053972791582842369 0.02796665421349509 0.0065515166960465601 -0.053245340523923317 -0.037630974272257284 -0.045385871557581343 0.00033617919710065636 -0.031975437691527435 -0.013483162366223765 -0.033838180901199978 0.019258618977820052 0.036643231538124384 -0.029571102807919188 -0.051785603379035122 -0.011431922833218316 -0.026515845840656051 -0.0016484445737551452 5.1434587345896504e-05 0.011036933258762711 -0.013168270736932755 -0.024452397668683703 -0.0096297925471971 0.021158947600173839 -0.049972505805393058 0.055454709719527852 -0.036404144403469917 -0.030874949327500706
leaf_weight=27 22 605 40 693 498 39 41 213 149 56 101 146 28 29 275 72 199 322 215 234 487 730 85 83 418 658 72 22 85 44
leaf_count=27 22 605 40 693 498 39 41 213 149 56 101 146 28 29 275 72 199 322 215 234 487 730 85 83 418 658 72 22 85 44
internal_value=-5.28276e-07 0.012195 -0.02767 0.00304862 0.0236791 -0.0200717 -0.040157 -0.0262477 -0.0345646 -0.0272412 -0.0204503 -0.0153671 -0.0117822 -0.00283201 0.0317287 -0.0293452 -0.0458663 -0.0166186 -0.021245 -0.00337609 -0.00385069 0.00829043 -0.0206906 -0.0339356 -0.00676532 0.0186123 -0.0477464 0.0380367 -0.0426266 -0.0420777
internal_weight=6688 4642 2046 2584 2058 1272 774 550 391 198 157 722 97 69 795 453 383 683 361 1161 1139 1423 157 296 652 1263 356 297 157 193
internal_count=6688 4642 2046 2584 2058 1272 774 550 391 198 157 722 97 69 795 453 383 683 361 1161 1139 1423 157 296 652 1263 356 297 157 193
is_linear=0
shrinkage=0.05


Tree=19
num_leaves=31
num_cat=4
split_feature=22 16 22 7 16 16 16 6 23 27 15 22 23 27 22 16 7 15 15 22 15 27 15 16 23 23 16 23 15 0
split_gain=816.198 128.962 119.614 31.6427 25.0433 19.8824 15.5618 12.2779 16.7365 9.09942 16.8545 10.6633 10.3959 10.3711 8.10763 7.62339 7.46756 5.82395 4.74344 4.52365 4.47786 4.53145 9.35483 4.44502 4.21919 3.84301 3.43969 3.33036 4.17382 3.07438
threshold=520.50000000000011 2186.5000000000005 119.50000000000001 0 1159.5000000000002 3652.5000000000005 454.50000000000006 1 24.500000000000004 0.18517460317460319 14.500000000000002 43.500000000000007 37.500000000000007 30.753777777777781 5.5000000000000009 71.500000000000014 2 19.500000000000004 51.500000000000007 1283.5000000000002 31.500000000000004 0.39850000000000002 51.500000000000007 5988.0000000000009 50.500000000000007 32.500000000000007 30.500000000000004 111.50000000000001 36.500000000000007 3
decision_type=2 2 2 9 2 2 2 9 2 2 2 2 2 2 2 2 9 2 2 2 2 2 2 2 2 2 2 2 2 9
left_child=2 4 3 9 24 -3 7 16 -9 10 14 13 -12 -11 -1 -13 -4 -18 -10 -6 26 22 -22 -7 -2 -23 -5 28 -8 -30
right_child=1 5 6 20 19 23 27 8 18 11 12 15 -14 -15 -16 -17 17 -19 -20 -21 21 25 -24 -25 -26 -27 -28 -29 29 -31
leaf_value=-0.062745508924126628 0.018012259001261556 0.020559019131289588 -0.039829130349110592 -0.062826299392396506 0.007965593133204784 0.029960424843536046 0.0037464451099941997 0.037877330332994466 -0.00092832543383780371 -0.05070437048245402 0.0015549450716439714 0.0018374665975570679 -0.031064969606020232 -0.027982279683026124 -0.026799520144178985 -0.027110208990883886 -0.0067274924437213061 -0.021675023951793951 -0.017736205813887806 0.013343140550824736 -0.0090581645607016991 -0.047013782961366435 -0.044421410778045865 0.041053933973307727 -0.00045872815041746401 -0.032525680881614491 -0.046164415555737789 -0.0037165104088230563 -0.0098478857601504224 -0.023521463565092774
leaf_weight=21 32 1048 49 42 841 466 38 20 74 103 94 25 33 98 62 252 77 424 97 731 32 193 45 112 913 60 118 404 122 62
leaf_count=21 32 1048 49 42 841 466 38 20 74 103 94 25 33 98 62 252 77 424 97 731 32 193 45 112 913 60 118 404 122 62
internal_value=-5.01839e-07 0.0136896 -0.0222866 -0.0339635 0.00659931 0.0246651 -0.0122241 -0.0171274 -0.00513215 -0.0270478 -0.0183724 -0.0308591 -0.0069211 -0.0396259 -0.0358943 -0.0244976 -0.0208212 -0.0193777 -0.0104626 0.0104662 -0.0436737 -0.0403455 -0.029725 0.03211 0.000166744 -0.0435779 -0.0505382 -0.00641993 -0.0113397 -0.0144553
internal_weight=6688 4143 2545 1178 2517 1626 1367 741 191 688 210 478 127 201 83 277 550 501 171 1572 490 330 77 578 945 253 160 626 222 184
internal_count=6688 4143 2545 1178 2517 1626 1367 741 191 688 210 478 127 201 83 277 550 501 171 1572 490 330 77 578 945 253 160 626 222 184
cat_boundaries=0 1 2 3 4
cat_threshold=2 7332 4 2
is_linear=0
shrinkage=0.05


Tree=20
num_leaves=31
num_cat=4
split_feature=16 22 16 7 16 16 7 22 17 19 23 23 23 16 11 27 27 22 14 26 17 16 16 16 23 16 23 19 16 5
split_gain=737.242 115.687 111.033 32.7748 20.5093 17.9793 13.8396 9.88192 8.67592 8.99742 9.07779 8.33307 6.10782 5.36722 7.19308 5.09884 4.75319 4.56458 4.10791 5.76374 3.87325 3.83876 3.71178 3.63804 3.3813 3.28278 2.67782 2.2849 4.81408 2.11462
threshold=771.50000000000011 148.50000000000003 2186.5000000000005 0 1356.5000000000002 3918.0000000000005 1 303.50000000000006 2008.8850000000002 30148.269045976886 13.500000000000002 17.500000000000004 33.500000000000007 26.500000000000004 18752.870000000003 3.1001219512195126 0.18517460317460319 19.500000000000004 2 -1.0000000180025095e-35 561215.62 1030.5000000000002 319.50000000000006 7121.5000000000009 80.500000000000014 2952.5000000000005 10.500000000000002 462.73520248845301 53.500000000000007 3
decision_type=2 2 2 9 2 2 9 2 2 2 2 2 2 2 2 2 2 2 1 2 2 2 2 2 2 2 2 2 2 9
left_child=1 3 4 8 21 25 22 11 13 10 -10 -8 -9 14 -1 -14 -15 18 19 -5 -11 29 -3 -7 -13 -4 -20 -19 -29 -2
right_child=2 6 5 17 -6 23 7 12 9 20 -12 24 15 16 -16 -17 -18 27 26 -21 -22 -23 -24 -25 -26 -27 -28 28 -30 -31
leaf_value=-0.049310938564977098 -0.0068316235071529457 -0.023854968009580826 0.017830955046797586 -0.048018310554325587 0.011201036994161244 0.030146123961055472 0.014135129094123842 0.019188445955514909 -0.00064155328507115549 -0.033301993090383432 -0.021331799879677479 -0.019053549171694741 0.0081879596723693198 -0.014324154832692289 -0.023796060356370947 -0.0073224351445112697 -0.029144614774384122 -0.043519773002308193 -0.059409236735518789 -0.016606100616247756 -0.011462030557449907 0.0047066132822481269 -0.05109051112085581 0.045226731756702068 -0.01095546872014753 0.023303041741529709 -0.045159629995332046 -0.014659661447836293 -0.037245226667865235 0.00060781691959766175
leaf_weight=67 109 29 687 40 1210 439 25 25 91 108 127 287 58 67 47 613 281 101 64 23 25 646 22 44 234 456 68 27 187 481
leaf_count=67 109 29 687 40 1210 439 25 25 91 108 127 287 58 67 47 613 281 101 64 23 25 646 22 44 234 456 68 27 187 481
internal_value=-4.76755e-07 -0.020712 0.0133053 -0.0311067 0.00657367 0.0234318 -0.0100761 -0.00902787 -0.0248737 -0.0189478 -0.012695 -0.0140633 -0.00507764 -0.0293758 -0.0387916 -0.00598175 -0.0262913 -0.0410429 -0.047055 -0.0365504 -0.0291967 0.00204365 -0.0356036 0.0315199 -0.0154164 0.020014 -0.0520685 -0.0373212 -0.0343956 -0.000872076
internal_weight=6688 2616 4072 1323 2446 1626 1293 1242 813 351 218 546 696 462 114 671 348 510 195 63 133 1236 51 483 521 1143 132 315 214 590
internal_count=6688 2616 4072 1323 2446 1626 1293 1242 813 351 218 546 696 462 114 671 348 510 195 63 133 1236 51 483 521 1143 132 315 214 590
cat_boundaries=0 1 2 3 4
cat_threshold=2 4 2 69920
is_linear=0
shrinkage=0.05


Tree=21
num_leaves=31
num_cat=4
split_feature=16 16 7 16 16 16 6 15 23 16 26 11 18 16 18 14 26 15 16 16 26 21 11 6 23 23 15 16 24 20
split_gain=665.651 139.344 57.6594 24.9472 23.8494 17.2338 16.0595 15.1198 12.7797 10.6491 9.19845 9.82643 7.75325 5.79763 5.19722 5.05506 5.26795 4.26509 3.64323 3.24579 2.94445 2.82959 2.79171 2.702 8.74576 4.41219 3.73123 2.62228 2.53886 2.51196
threshold=536.50000000000011 1816.5000000000002 0 3193.5000000000005 1030.5000000000002 309.50000000000006 1 56.500000000000007 2.5000000000000004 117.50000000000001 -0.2578333333333333 287143.74500000005 77.775467187500013 4566.0000000000009 -152.13071934862697 2 -1.0000000180025095e-35 44.500000000000007 43.500000000000007 1356.5000000000002 -14.595714285714285 420687.96000000002 23957.835000000003 3 54.500000000000007 119.50000000000001 21.500000000000004 2413.5000000000005 -6877.9728227053129 -50624.469999999994
decision_type=2 2 9 2 2 2 9 2 2 2 2 2 2 2 2 1 2 2 2 2 2 2 2 9 2 2 2 2 2 2
left_child=2 4 5 27 23 6 7 12 -8 15 20 -12 -1 28 -10 16 -4 21 -17 -6 -11 22 -7 24 -2 26 -25 -3 -5 -27
right_child=1 3 9 13 19 17 8 -9 14 10 11 -13 -14 -15 -16 18 -18 -19 -20 -21 -22 -23 -24 25 -26 29 -28 -29 -30 -31
leaf_value=-0.0096708499960908578 0.032660233154892922 0.013863840145178769 -0.039687991358339787 0.011734654580672774 0.0044712825782461272 -0.0065092487327038893 -0.045813025478018472 -0.031068172402222427 -0.032642668443128332 -0.028167476785713682 0.019178695138543846 -0.027061528367576776 0.013315090437624919 0.032808634323955387 -0.021722894518355948 -0.052482244550724921 -0.018218338645529002 -0.01377839870637952 -0.040545022264643578 0.009266181382365438 -0.045807080254224801 -0.018191528674301315 0.0096541769167577673 0.0064712715862939758 -0.0011691050063622397 -0.0030221450294904014 -0.01234155036807672 0.018433906814829475 0.025022825440351316 0.0091527121781837199
leaf_weight=97 20 680 100 39 646 68 73 57 135 73 20 27 59 297 565 106 40 416 161 778 35 27 44 30 427 361 217 583 459 48
leaf_count=97 20 680 100 39 646 68 73 57 135 73 20 27 59 297 565 106 40 416 161 778 35 27 44 30 427 361 217 583 459 48
internal_value=-9.18222e-07 0.0106821 -0.0232923 0.0203409 0.00281594 -0.0182925 -0.0222595 -0.00862497 -0.0255741 -0.0370017 -0.0258488 -0.00738484 -0.000977449 0.0272796 -0.0238289 -0.0412491 -0.0335538 -0.0112447 -0.0452841 0.00709097 -0.033884 -0.00366199 -0.000159332 -0.00270321 0.000336973 -0.00470817 -0.0100566 0.0159734 0.0239822 -0.00159331
internal_weight=6688 4585 2103 2058 2527 1541 986 213 773 562 155 47 156 795 700 407 140 555 267 1424 108 139 112 1103 447 656 247 1263 498 409
internal_count=6688 4585 2103 2058 2527 1541 986 213 773 562 155 47 156 795 700 407 140 555 267 1424 108 139 112 1103 447 656 247 1263 498 409
cat_boundaries=0 1 2 3 4
cat_threshold=2 164122 2 34202
is_linear=0
shrinkage=0.05


Tree=22
num_leaves=31
num_cat=2
split_feature=22 22 22 22 7 22 22 15 15 27 22 18 27 23 23 22 27 21 23 23 14 22 26 27 15 19 21 19 26 23
split_gain=601.473 92.2002 90.2047 18.8021 18.6158 15.3754 14.4228 7.84327 15.9198 12.5441 5.95709 5.57962 7.61523 6.11269 5.31892 4.5008 3.74336 6.99585 5.92494 3.66062 3.47996 5.09269 4.83203 3.33958 3.29616 5.36159 6.2301 4.45729 3.57485 3.26017
threshold=520.50000000000011 1777.0000000000002 94.500000000000014 1001.5000000000001 0 2888.5000000000005 267.50000000000006 45.500000000000007 35.500000000000007 2.5788095238095239 5.5000000000000009 11.929461349854462 112.55195121951222 80.500000000000014 28.500000000000004 4247.0000000000009 0.99083333333333357 45295.970000000008 6.5000000000000009 255.50000000000003 1 43.500000000000007 -1.0000000180025095e-35 0.99083333333333357 20.500000000000004 5294.8522383688442 41396.120000000003 6999.1553410376464 -8.7606303549571578 54.500000000000007
decision_type=2 2 2 2 9 2 2 2 2 2 2 2 2 2 2 2 2 2 2 2 1 2 2 2 2 2 2 2 2 2
left_child=2 3 4 24 7 -3 11 8 10 -10 -1 13 14 -4 -13 -7 17 -9 -18 -5 22 29 -6 -8 28 26 -26 -27 -2 -22
right_child=1 5 6 19 20 15 23 16 9 -11 -12 12 -14 -15 -16 -17 18 -19 -20 -21 21 -23 -24 -25 25 27 -28 -29 -30 -31
leaf_value=-0.04394892671933541 0.027704876542945085 0.016784019224664784 -0.023377239694215221 0.0075562845352677589 -0.037412735266448227 0.023705637913680581 0.0071355222139594171 0.0022008814428851982 0.030816074242086516 -0.01223613877373282 -0.022257644950877876 0.017299935664050282 -0.016239397563061718 -0.010543006046478134 -0.0076021656591015374 0.032122937050909732 -0.04484611317329109 -0.033951142270234415 -0.027595567941426525 0.012872983175946182 -0.04655925892818142 -0.030128370282918582 -0.017290523618326656 -0.007219664414571704 -0.0014967293223543537 0.021628506881771266 -0.033431166394924126 0.0010575324546108478 -0.00054328138274805889 -0.026341966675086453
leaf_weight=39 24 921 324 736 103 462 43 23 23 64 168 32 217 130 65 242 75 32 148 578 213 81 42 701 42 27 24 1066 21 22
leaf_count=39 24 921 324 736 103 462 43 23 23 64 168 32 217 130 65 242 75 32 148 578 213 81 42 701 42 27 24 1066 21 22
internal_value=-8.72279e-07 0.0117513 -0.0191321 0.00575918 -0.0305206 0.0210362 -0.0113515 -0.0244949 -0.0188015 -0.000854519 -0.0263444 -0.016158 -0.0110334 -0.0197022 0.000612961 0.0265991 -0.0305159 -0.018833 -0.0333973 0.00989498 -0.0379973 -0.04094 -0.0315842 -0.00639 0.00124551 0.000730016 -0.0131093 0.00156569 0.0145224 -0.0446666
internal_weight=6688 4143 2545 2518 1033 1625 1512 572 294 87 207 768 314 454 97 704 278 55 223 1314 461 316 145 744 1204 1159 66 1093 45 235
internal_count=6688 4143 2545 2518 1033 1625 1512 572 294 87 207 768 314 454 97 704 278 55 223 1314 461 316 145 744 1204 1159 66 1093 45 235
cat_boundaries=0 1 2
cat_threshold=2 2
is_linear=0
shrinkage=0.05


Tree=23
num_leaves=31
num_cat=6
split_feature=16 22 16 7 22 16 7 15 6 17 19 25 16 18 19 16 16 11 27 24 15 8 16 17 11 16 5 15 6 21
split_gain=544.111 85.9374 81.7753 24.0676 15.9659 12.4748 11.3701 9.29786 7.25393 6.94068 7.80574 7.23081 6.81439 6.81268 5.20037 4.95364 4.51503 5.96172 4.19779 4.06762 3.774 3.59537 3.54979 3.36327 2.87025 2.80804 2.71726 4.08309 2.52339 3.17776
threshold=771.50000000000011 148.50000000000003 2035.5000000000002 0 2888.5000000000005 1159.5000000000002 1 50.500000000000007 2 2008.8850000000002 30148.269045976886 11505.203150043957 454.50000000000006 -296.8819285807711 50337.351800645563 5251.5000000000009 26.500000000000004 18752.870000000003 0.18517460317460319 12705.854912280704 31.500000000000004 3 319.50000000000006 561215.62 6291.5700000000006 12.500000000000002 4 44.500000000000007 5 390136.63000000006
decision_type=2 2 2 9 2 2 9 2 9 2 2 2 2 2 2 2 2 2 2 2 2 9 2 2 2 2 9 2 9 2
left_child=1 3 5 9 -4 26 22 8 14 16 11 -11 -9 -10 -8 -6 17 -1 -18 -14 25 -22 -3 -12 -23 -5 27 -2 29 -7
right_child=2 6 4 20 15 28 7 12 13 10 23 -13 19 -15 -16 -17 18 -19 -20 -21 21 24 -24 -25 -26 -27 -28 -29 -30 -31
leaf_value=-0.043651171848212662 -0.022317848168313503 -0.020275643699128054 0.015617774392315507 -0.057795284945598768 0.022838453443471761 0.01437527599690599 0.017472332375596318 -0.016628060100010094 -0.024754599842992497 -0.01867032388493545 -0.029482976411317297 -0.00039560374256689102 -0.017433921909795549 -0.0031582979245590951 -0.0070734691025028306 0.032506227484078144 -0.011363138469742306 -0.020422625936012954 -0.025290836643525383 -0.0048548544444341523 -0.018048929331155542 -0.027883143913527222 -0.046910240154036068 -0.0091315599307417866 -0.037833380377946459 -0.03891504692036088 0.0017246449194017546 -0.0017283571320089711 0.0052201937844831466 0.0077817796658019127
leaf_weight=67 30 29 1095 23 527 277 71 322 41 118 108 100 78 334 31 177 67 47 281 365 39 115 22 25 196 137 721 122 586 537
leaf_count=67 30 29 1095 23 527 277 71 322 41 118 108 100 78 334 31 177 67 47 281 365 39 115 22 25 196 137 721 122 586 537
internal_value=-8.28734e-07 -0.0177939 0.0114301 -0.0267529 0.0193946 0.00512641 -0.00862697 -0.00767686 -0.00219822 -0.0214116 -0.0161114 -0.0102874 -0.0110929 -0.00537613 0.00911838 0.0252691 -0.0254384 -0.0340745 -0.0226094 -0.00706968 -0.0352676 -0.0323595 -0.0317651 -0.0256575 -0.034154 -0.0416291 0.000435648 -0.00543454 0.00805143 0.00990384
internal_weight=6688 2616 4072 1323 1799 2273 1293 1242 477 813 351 218 765 375 102 704 462 114 348 443 510 350 51 133 311 160 873 152 1400 814
internal_count=6688 2616 4072 1323 1799 2273 1293 1242 477 813 351 218 765 375 102 704 462 114 348 443 510 350 51 133 311 160 873 152 1400 814
cat_boundaries=0 1 2 3 4 5 6
cat_threshold=2 4 28 4 69920 133296
is_linear=0
shrinkage=0.05


Tree=24
num_leaves=31
num_cat=6
split_feature=22 16 22 16 16 7 7 18 23 27 15 15 27 21 23 19 21 16 22 14 26 23 9 15 16 23 6 6 23 23
split_gain=491.239 96.7482 54.0864 18.467 15.6136 14.1279 10.09 8.08916 10.6125 7.45287 14.5583 10.3082 7.27808 9.55817 6.8654 6.65539 9.46119 4.37471 3.91521 3.87782 5.92476 3.60444 3.45604 3.45068 3.37715 3.11406 2.62499 2.58972 5.36529 3.94881
threshold=399.50000000000006 1816.5000000000002 51.500000000000007 3193.5000000000005 1030.5000000000002 0 1 -107.39744313303859 49.500000000000007 0.18517460317460319 14.500000000000002 61.500000000000007 175.04285714285717 1954.8650000000002 91.500000000000014 96224.791090576517 39354.260000000002 4935.5000000000009 5.5000000000000009 2 -1.0000000180025095e-35 37.500000000000007 3 38.500000000000007 398.50000000000006 54.500000000000007 4 5 76.500000000000014 119.50000000000001
decision_type=2 2 2 2 2 9 9 2 2 2 2 2 2 2 2 2 2 2 2 1 2 2 9 2 2 2 9 9 2 2
left_child=2 4 6 -3 21 -4 9 8 -7 10 18 -12 13 -9 -14 16 -11 -5 -1 20 -8 -2 23 -6 -10 -21 -24 28 -23 -29
right_child=1 3 5 17 22 7 19 12 24 15 11 -13 14 -15 -16 -17 -18 -19 -20 25 -22 27 26 -25 -26 -27 -28 29 -30 -31
leaf_value=-0.053005621901580272 0.018452021071598643 0.013718925909999567 -0.028770073318678507 0.021094524291425294 0.026077534330210518 -0.030985771813262088 -0.035775425220795333 -0.024773579821563686 -0.019005099002271892 -0.032304009344263737 0.0053368574237986788 -0.03243603751373788 -0.018192714800108038 -0.0019280605597859835 -0.0053450882124889175 -0.049699177344640098 -0.0069569590540292372 0.029295566520171668 -0.025839726154744214 -0.04113442904065924 -0.011761802475194674 0.025420864456859621 0.0060851201518361629 0.0093430176879210122 -0.008109595758671111 -0.022882564308551644 0.00037596029749667676 -0.0080876078170910182 -0.00027486847722956419 -0.00086066846741646207
leaf_weight=21 21 1263 138 567 35 111 84 52 125 158 73 24 297 383 160 36 48 228 36 231 37 23 855 257 165 26 276 318 174 466
leaf_count=21 21 1263 138 567 35 111 84 52 125 158 73 24 297 383 160 36 48 228 36 231 37 23 855 257 165 26 276 318 174 466
internal_value=-2.68049e-07 0.00950333 -0.0193221 0.0174767 0.00273668 -0.0135629 -0.0299699 -0.0119399 -0.0178383 -0.0243923 -0.0157937 -0.00400901 -0.00928826 -0.00465902 -0.0136946 -0.0298642 -0.0263979 0.0234465 -0.0358482 -0.035813 -0.0284324 -0.0020445 0.00610332 0.0109731 -0.0128059 -0.0392879 0.00470741 -0.00248326 0.00259349 -0.00374425
internal_weight=6688 4483 2205 2058 2425 1431 774 1293 401 396 154 97 892 435 457 242 206 795 57 378 121 1002 1423 292 290 257 1131 981 197 784
internal_count=6688 4483 2205 2058 2425 1431 774 1293 401 396 154 97 892 435 457 242 206 795 57 378 121 1002 1423 292 290 257 1131 981 197 784
cat_boundaries=0 1 2 3 14 15 16
cat_threshold=4 2 2 8 67371008 33554432 65536 0 0 2 0 16384 268566784 4 137392 26
is_linear=0
shrinkage=0.05


Tree=25
num_leaves=31
num_cat=3
split_feature=16 16 16 16 20 6 20 27 16 16 14 16 15 24 16 24 18 23 15 23 11 23 16 15 9 26 16 24 19 19
split_gain=444.008 67.1996 64.629 14.4884 14.243 13.3912 17.2736 11.0833 9.64267 9.12928 6.14485 5.53146 4.62242 6.21772 4.56486 4.42389 3.81458 4.87381 10.0444 3.82742 3.41076 3.35651 2.9952 9.40839 2.55136 2.51687 2.35267 2.4741 2.35067 3.72965
threshold=771.50000000000011 2316.5000000000005 221.50000000000003 1356.5000000000002 -887.00499999999988 0 -120695.19499999999 1.0000000180025095e-35 4460.5000000000009 454.50000000000006 1 63.500000000000007 36.500000000000007 10214.258182575761 37.500000000000007 139714.57922788776 -204.63838327435101 34.500000000000007 53.500000000000007 49.500000000000007 296851.90500000009 82.500000000000014 3.5000000000000004 37.500000000000007 2 -4.5279166666666653 3193.5000000000005 -6877.9728227053129 581.00471282552712 19445.999356195618
decision_type=2 2 2 2 2 9 2 2 2 2 1 2 2 2 2 2 2 2 2 2 2 2 2 2 9 2 2 2 2 2
left_child=2 3 4 24 5 10 15 -8 26 16 14 -12 28 20 -1 -7 19 18 -18 -4 -14 -19 23 -6 -2 -15 -3 -28 -11 -30
right_child=1 8 9 -5 22 6 7 -9 -10 12 11 -13 13 25 -16 -17 17 21 -20 -21 -22 -23 -24 -25 -26 -27 27 -29 29 -31
leaf_value=0.0042399013010056127 0.0085279851107067685 0.014833130278850821 -0.034302538162206901 0.0090427598079280466 -0.047826694590704787 -0.039109224970547522 0.018869087037940824 -0.0091593019478723291 0.026518242549227578 -0.0092271498870104551 -0.037068414630565219 -0.024645325966460709 -0.0070469413861268902 -0.0057181315965478818 -0.02004431613079715 -0.013592895886932427 0.017318756215092612 -0.015657809509417912 -0.022892063222825526 -0.015445105420775682 -0.02617491053059456 -0.0064285288096871231 -0.03384298111301199 -0.0054938037533845225 0.00080431404285383852 0.0031710328317877626 0.0069994424494939887 0.020463853915543329 0.016515951436012984 -0.0082536990549193622
leaf_weight=23 109 683 34 1358 21 49 48 133 320 21 123 330 41 407 122 26 41 287 25 129 54 150 342 35 1127 99 37 438 55 21
leaf_count=23 109 683 34 1358 21 49 48 133 320 21 123 330 41 407 122 26 41 287 25 129 54 150 342 35 1127 99 37 438 55 21
internal_value=2.28385e-07 0.0103262 -0.016073 0.0054778 -0.0242759 -0.0206352 -0.00970766 -0.00172636 0.0188356 -0.00854358 -0.0247373 -0.0280185 -0.0045479 -0.00618256 -0.0161923 -0.0302636 -0.0127312 -0.0105771 0.00208739 -0.0193786 -0.0179197 -0.0124899 -0.0320878 -0.0213686 0.00156095 -0.00397895 0.0167126 0.019415 0.0055802 0.00967171
internal_weight=6688 4072 2616 2594 1252 854 256 181 1478 1364 598 453 698 601 145 75 666 503 66 163 95 437 398 56 1236 506 1158 475 97 76
internal_count=6688 4072 2616 2594 1252 854 256 181 1478 1364 598 453 698 601 145 75 666 503 66 163 95 437 398 56 1236 506 1158 475 97 76
cat_boundaries=0 1 2 15
cat_threshold=7200 2 0 262144 67108864 0 134217728 0 0 0 16384 270532608 0 0 2147483648
is_linear=0
shrinkage=0.05


Tree=26
num_leaves=31
num_cat=5
split_feature=22 22 22 16 16 7 7 18 27 19 23 27 15 15 23 19 25 9 24 23 22 22 19 14 20 23 8 23 16 15
split_gain=401.103 88.7405 36.9819 18.8897 11.533 10.3087 8.88052 8.41275 6.85288 8.34601 6.89371 6.47432 12.2631 9.12192 5.97827 5.87534 8.60495 4.35343 4.13804 3.90006 3.81282 3.44806 3.15785 3.15674 3.46061 3.65311 2.99704 2.84332 2.83144 2.71925
threshold=333.50000000000006 1283.5000000000002 51.500000000000007 3193.5000000000005 1030.5000000000002 0 1 -152.13071934862697 0.64333333333333342 462.73520248845301 41.500000000000007 0.18517460317460319 14.500000000000002 61.500000000000007 66.500000000000014 96224.791090576517 5444.3176859859623 2 101808.68353497195 144.50000000000003 6334.5000000000009 5.5000000000000009 16187.288266673468 3 -887.00499999999988 10.500000000000002 4 41.500000000000007 2413.5000000000005 15.500000000000002
decision_type=2 2 2 2 2 9 9 2 2 2 2 2 2 2 2 2 2 9 2 2 2 2 2 1 2 2 9 2 2 2
left_child=2 4 6 28 17 -4 11 14 10 -10 -9 12 21 -14 22 16 -13 18 -2 26 -5 -1 -7 24 25 -8 -19 29 -3 -25
right_child=1 3 5 20 -6 7 23 8 9 -11 -12 15 13 -15 -16 -17 -18 19 -20 -21 -22 -23 -24 27 -26 -27 -28 -29 -30 -31
leaf_value=-0.048457181418225886 0.01242829390825796 0.010051800304453653 -0.02622049570348739 0.020336574427379919 0.0047269798570366136 -0.040518203582013808 -0.0049933230343352387 0.016201287273279564 -0.032690484679880595 -0.0096775989789873035 -0.0072959137796207753 -0.031867196225363208 0.0056576119327585994 -0.029875390619660422 -0.012213689236194312 -0.045700631042321527 -0.01085059625344186 -0.0070644577152182003 -0.0057157236374526599 0.00010770306685722895 0.035480787875977436 -0.022963428135456831 -0.022413971674137025 -0.048065070076422259 -0.033738520036620853 -0.030872601419687274 0.0063475394616317425 -0.025850148498596227 0.014458914137988664 -0.035020336432323461
leaf_weight=21 91 975 137 750 1130 31 30 49 42 636 86 127 73 24 157 36 79 560 48 443 44 36 108 55 66 25 45 56 582 146
leaf_count=21 91 975 137 750 1130 31 30 49 42 636 86 127 73 24 157 36 79 560 48 443 44 36 108 55 66 25 45 56 582 146
internal_value=9.14665e-07 0.00805581 -0.0186131 0.0148997 0.00111151 -0.013281 -0.0271968 -0.0116825 -0.00905478 -0.0111032 0.0012327 -0.0219642 -0.0139499 -0.00313406 -0.0188997 -0.0270643 -0.0238074 -0.00233035 0.00574913 -0.00342414 0.0211758 -0.0323559 -0.0264516 -0.0326786 -0.0260195 -0.0167566 -0.00606687 -0.0358138 0.0116992 -0.0385898
internal_weight=6688 4668 2020 2351 2317 1246 774 1109 813 678 135 396 154 97 296 242 206 1187 139 1048 794 57 139 378 121 55 605 257 1557 201
internal_count=6688 4668 2020 2351 2317 1246 774 1109 813 678 135 396 154 97 296 242 206 1187 139 1048 794 57 139 378 121 55 605 257 1557 201
cat_boundaries=0 1 2 11 12 13
cat_threshold=4 2 0 0 0 0 8192 0 2 0 134234112 2 2
is_linear=0
shrinkage=0.05


Tree=27
num_leaves=31
num_cat=3
split_feature=22 22 16 7 7 22 16 16 15 15 15 27 21 27 22 8 15 11 19 27 21 22 16 24 15 24 26 27 21 21
split_gain=362.51 59.123 54.736 12.5333 11.9599 9.76286 9.68864 9.2495 6.73702 6.71697 13.1222 9.37961 5.29266 6.04289 4.59563 3.53347 3.31309 2.9267 2.55964 2.5386 6.02658 2.97356 2.53682 3.52798 2.37018 3.37507 3.6128 2.31941 3.41164 3.91707
threshold=551.50000000000011 94.500000000000014 2186.5000000000005 0 1 1067.0000000000002 398.50000000000006 4460.5000000000009 51.500000000000007 45.500000000000007 35.500000000000007 2.5788095238095239 3239.6850000000004 431.34653367653374 33.500000000000007 2 20.500000000000004 5758.6000000000013 4984.8192505179204 0.99083333333333357 45295.970000000008 7.5000000000000009 2952.5000000000005 -23664.384068183226 34.500000000000007 -31.145533596837947 -0.15308441558441555 0.18517460317460319 91515.155000000013 72861.075000000026
decision_type=2 2 2 9 9 2 2 2 2 2 2 2 2 2 2 9 2 2 2 2 2 2 2 2 2 2 2 2 2 2
left_child=1 4 3 -2 9 16 8 22 12 10 14 -12 17 -14 -1 -10 -5 -3 -18 20 -11 -21 -4 -24 -6 -26 -27 -8 29 -29
right_child=2 6 7 5 24 -7 27 -9 15 19 11 -13 13 -15 -16 -17 18 -19 -20 21 -22 -23 23 -25 25 26 -28 28 -30 -31
leaf_value=-0.027158678008709105 -0.032956935255788265 -0.03603091695430604 0.012494515541410451 0.016279657772527292 -0.034450614302917279 0.0082928323525807458 0.0065624113205473792 0.02407138555459824 -0.017823002251802781 0.0045906964163093464 0.029967987785399289 -0.0072598671627929438 -0.0013221615007099228 -0.021722367567519205 -0.0121487680460572 0.0011947954073548317 -0.0079515754377044844 -0.010522109334883484 0.0020287431509296377 -0.044832523610620276 -0.028963568434119225 -0.025063930539239089 0.00018208401277661324 0.017759709077996857 -0.03857300420506643 -0.028996690149539178 -0.016019112998392523 -0.0087525244326596818 -0.0037029763016909346 -0.03144764770669016
leaf_weight=116 22 22 687 39 172 1149 43 320 403 23 23 64 233 43 91 26 68 23 1163 21 32 202 30 589 52 155 82 140 633 22
leaf_count=116 22 22 687 39 172 1149 43 320 403 23 23 64 233 43 91 26 68 23 1163 21 32 202 30 589 52 155 82 140 633 22
internal_value=8.68932e-07 -0.0144997 0.00934584 0.00461165 -0.0238106 0.00495332 -0.00844296 0.016453 -0.0125712 -0.0189807 -0.0137119 0.00258198 -0.00709288 -0.00450045 -0.0205601 -0.0166704 0.00193199 -0.0229931 0.00147743 -0.0245527 -0.0149318 -0.0269255 0.0145863 0.0169078 -0.0298034 -0.0270375 -0.0245066 -0.00474821 -0.00535998 -0.0118346
internal_weight=6688 2621 4067 2441 1033 2419 1588 1626 750 572 294 87 321 276 207 429 1270 45 1231 278 55 223 1306 619 461 289 237 838 795 162
internal_count=6688 2621 4067 2441 1033 2419 1588 1626 750 572 294 87 321 276 207 429 1270 45 1231 278 55 223 1306 619 461 289 237 838 795 162
cat_boundaries=0 1 2 3
cat_threshold=4 2 2
is_linear=0
shrinkage=0.05


Tree=28
num_leaves=31
num_cat=5
split_feature=22 16 22 22 7 16 6 23 24 7 23 27 27 15 15 27 16 22 8 25 22 23 15 22 22 14 26 24 16 23
split_gain=327.481 73.6451 29.5447 13.0777 13.0262 11.1422 7.92747 9.16411 9.84937 7.22508 6.04258 8.02314 5.41536 10.4324 7.95787 5.33359 9.8851 4.54588 4.14626 4.05972 3.70553 3.57145 3.52275 3.12072 3.04792 2.79317 4.41928 2.71422 2.70241 2.62922
threshold=326.50000000000006 1760.5000000000002 51.500000000000007 2888.5000000000005 0 1030.5000000000002 1 21.500000000000004 2368.7910155679419 2 80.500000000000014 0.64333333333333342 0.18517460317460319 14.500000000000002 61.500000000000007 27.845119047619054 71.500000000000014 219.50000000000003 3 14708.187203799769 37.500000000000007 609.50000000000011 19.500000000000004 124.50000000000001 5.5000000000000009 4 -1.0000000180025095e-35 6851.3555000000006 164.50000000000003 41.500000000000007
decision_type=2 2 2 2 9 2 9 2 2 9 2 2 2 2 2 2 2 2 9 2 2 2 2 2 2 1 2 2 2 2
left_child=2 4 9 -3 -2 18 10 8 -8 12 11 19 13 24 -15 20 -17 -13 22 -4 -14 -5 -6 28 -1 26 -11 -25 -9 -27
right_child=1 3 6 21 5 -7 7 23 -10 25 -12 17 15 14 -16 16 -18 -19 -20 -21 -22 -23 -24 27 -26 29 -28 -29 -30 -31
leaf_value=-0.044676388072825618 -0.031263404493996255 0.011324442624397038 0.00098101140939872017 0.017952591332222437 0.011364538326027039 0.005023471416667623 -0.010158580006100239 -0.004344709341724714 0.032506164331589975 -0.029633399897318759 -0.0081981771449210258 -0.021987741751352582 -0.036735938798375826 0.0056258943895107676 -0.027562585108292598 -0.0066311854609771631 -0.035590165203556103 -0.011362316316896768 0.0083384673051720409 -0.022068314790725709 -0.014321978203952312 0.027130655074635381 -0.0030751192429303237 -0.01744903115605986 -0.020707488264371125 -0.035174059925776956 -0.0088939128317744361 -0.0021872307236364152 -0.026694336391397212 -0.022923437273129822
leaf_weight=21 30 1432 81 574 44 1332 24 21 31 84 271 424 93 73 24 79 47 132 96 25 23 130 1055 37 36 201 37 137 38 56
leaf_count=21 30 1432 81 574 44 1332 24 21 31 84 271 424 93 73 24 79 47 132 96 25 23 130 1055 37 36 201 37 137 38 56
internal_value=8.25491e-07 0.00721458 -0.0169687 0.0140676 0.00148989 0.00187873 -0.0121241 -0.0043188 0.0138888 -0.024611 -0.0143336 -0.0170617 -0.0198912 -0.0125616 -0.00258569 -0.0245556 -0.0174333 -0.0194652 -0.00162654 -0.00445515 -0.0322918 0.0196474 -0.00249701 -0.0088021 -0.0295381 -0.0295555 -0.0232916 -0.00543256 -0.0187394 -0.0325047
internal_weight=6688 4693 1995 2136 2557 2527 1221 288 55 774 933 662 396 154 97 242 126 556 1195 106 116 704 1099 233 57 378 121 174 59 257
internal_count=6688 4693 1995 2136 2557 2527 1221 288 55 774 933 662 396 154 97 242 126 556 1195 106 116 704 1099 233 57 378 121 174 59 257
cat_boundaries=0 1 2 3 4 5
cat_threshold=4 7333 2 2 2
is_linear=0
shrinkage=0.05


Tree=29
num_leaves=31
num_cat=2
split_feature=16 22 16 22 16 6 20 20 16 27 23 27 18 23 15 23 17 11 11 19 25 27 22 23 5 15 15 17 16 24
split_gain=296.409 48.1732 44.9929 8.801 8.34769 7.74215 10.3327 14.4765 7.72227 6.89686 5.60238 5.23303 5.04661 9.36495 8.77231 4.68999 4.62737 5.06215 3.99201 4.50266 3.68159 3.33359 2.90674 2.82596 2.379 3.4803 2.49995 2.38218 2.16627 2.9672
threshold=771.50000000000011 83.500000000000014 2186.5000000000005 267.50000000000006 1208.5000000000002 0 -702.54999999999984 -120695.19499999999 4566.0000000000009 5.0568750000000007 33.500000000000007 1.7369761904761909 155.80623339941238 37.500000000000007 53.500000000000007 80.500000000000014 2008.8850000000002 1481257.1100000001 73729.950000000026 8059.1897109140427 741.08648967961051 4.7388095238095245 45.500000000000007 52.500000000000007 1 44.500000000000007 42.500000000000007 43.075000000000024 2952.5000000000005 -12626.325911228623
decision_type=2 2 2 2 2 9 2 2 2 2 2 2 2 2 2 2 2 2 2 2 2 2 2 2 9 2 2 2 2 2
left_child=1 5 4 12 24 6 7 -1 28 -8 -5 -9 15 14 -14 21 23 22 20 -20 -12 -3 -18 -7 25 -2 27 -26 -4 -30
right_child=2 3 8 10 -6 16 9 11 -10 -11 18 -13 13 -15 -16 -17 17 -19 19 -21 -22 -23 -24 -25 26 -27 -28 -29 29 -31
leaf_value=-0.031808470226259843 -0.019604344138254723 -0.0073682013216839967 0.011303567434712563 0.015951120463961906 0.0064821518700247981 -0.029428467492078055 -0.0067956929932448222 0.023475060942432575 0.022172882104204712 -0.034400783095043151 -0.02019490974701264 -0.0014295378304792173 0.034377534171709648 -0.01103950561410144 -0.0080135440453886989 -0.006702108606354118 -0.024919129179487395 0.0018602721703549225 -0.021774641412104338 -0.0062050827649987438 0.0010614218172056347 -0.01826685576252346 -0.013124377477536168 -0.014982204320462975 0.014467204049202232 -0.0014638182032272165 0.00042634035611831608 0.00073694178708276514 0.0031077441050792517 0.016287554921222937
leaf_weight=33 33 86 687 33 1495 398 35 31 297 64 22 66 26 135 23 177 215 24 52 434 275 381 69 37 68 133 658 59 46 596
leaf_count=33 33 86 687 33 1495 398 35 31 297 64 22 66 26 135 23 177 215 24 52 434 275 381 69 37 68 133 658 59 46 596
internal_value=7.84218e-07 -0.0131319 0.00843767 -0.00791468 0.00415248 -0.021956 -0.011949 -0.00320232 0.0148839 -0.0246414 -0.00422953 0.00652966 -0.0115464 -0.00424364 0.0144797 -0.0136329 -0.024549 -0.0201901 -0.00508006 -0.00787096 -0.000513121 -0.0162598 -0.0220535 -0.0281997 0.000490168 -0.004782 0.00164501 0.00808858 0.013255 0.0153432
internal_weight=6688 2616 4072 1644 2446 972 229 130 1626 99 816 97 828 184 49 644 743 308 783 486 297 467 284 435 951 166 785 127 1329 642
internal_count=6688 2616 4072 1644 2446 972 229 130 1626 99 816 97 828 184 49 644 743 308 783 486 297 467 284 435 951 166 785 127 1329 642
cat_boundaries=0 1 2
cat_threshold=57630 69920
is_linear=0
shrinkage=0.05


Tree=30
num_leaves=31
num_cat=4
split_feature=7 21 19 15 6 21 15 26 15 19 19 24 26 15 17 11 17 20 12 15 17 17 17 26 11 11 24 25 7 18
split_gain=143.429 51.283 18.371 18.86 15.7263 11.983 6.33597 6.56129 10.4818 6.40351 4.92964 4.14211 3.55952 3.85744 4.71241 3.30077 3.18509 3.13631 3.11825 4.62915 2.48137 3.35479 1.92044 1.8078 1.66924 1.48509 1.41066 1.38902 1.66336 1.27272
threshold=0 3544.3000000000006 154445.35726646034 12.500000000000002 1 288858.51000000007 30.500000000000004 -1.0000000180025095e-35 51.500000000000007 52157.561492405512 29061.648313777016 2608.9629073298161 -1.6749999999999996 46.500000000000007 106.97999999999966 6291.5700000000006 -1973088.99 -116045.19499999999 2 25.500000000000004 695356.09500000044 -105548.68000000005 -2854.8299999999958 -0.89440909090909093 1230.0250000000003 414534.71500000003 17663.058899900647 843.0689993701227 3 -8746.2116184828792
decision_type=9 2 2 2 9 2 2 2 2 2 2 2 2 2 2 2 2 2 9 2 2 2 2 2 2 2 2 2 9 2
left_child=1 12 3 -3 10 -6 27 9 11 17 -5 -9 13 14 -1 -10 29 -8 19 23 21 -18 -17 -14 -16 -11 -19 28 -2 -4
right_child=6 2 16 4 5 -7 7 8 15 25 -12 -13 18 -15 24 22 20 26 -20 -21 -22 -23 -24 -25 -26 -27 -28 -29 -30 -31
leaf_value=0.0084847480710595856 -0.049528124462813142 -0.025509783649748125 -0.010137456137454138 0.011627759029422972 -0.00090314400609598335 0.0047029138687709193 -0.04440507662172119 -0.0058998658931974715 -0.0088277677190490064 -0.015428907767107543 0.0058348839757437522 0.022513290548332687 -0.031532033087442755 -0.029798525471938776 -0.0093049200566704664 -0.018350493733811639 -0.0096757007893961931 -0.027654571664540772 -0.01383336311361442 -0.04203811585903168 -0.0032606518599839714 -0.02580884052993004 -0.037419267539535804 -0.013771585197384029 -0.02723412648109453 0.0031602259525763138 -0.018663359120295483 -0.028293261790478769 -0.031543953563798119 0.0021748106404241999
leaf_weight=30 20 54 32 716 1546 2486 24 29 31 22 754 23 23 25 34 23 71 176 48 42 44 59 31 38 21 21 58 110 36 61
leaf_count=30 20 54 32 716 1546 2486 24 29 31 22 754 23 23 25 34 23 71 176 48 42 44 59 31 38 21 21 58 110 36 61
internal_value=7.45037e-07 0.00230784 0.00327971 0.00389536 0.00418396 0.00254705 -0.0232382 -0.0200856 -0.0110147 -0.0242142 0.00859796 0.00666749 -0.019375 -0.0125337 -0.00745578 -0.021832 -0.00953146 -0.0271915 -0.0243587 -0.0292637 -0.0135239 -0.0169977 -0.0292974 -0.0204681 -0.0161506 -0.00635049 -0.025426 -0.0315566 -0.0379669 -0.00206167
internal_weight=6688 6084 5823 5556 5502 4032 604 438 137 301 1470 52 261 110 85 85 267 258 151 103 174 130 54 61 55 43 234 166 56 93
internal_count=6688 6084 5823 5556 5502 4032 604 438 137 301 1470 52 261 110 85 85 267 258 151 103 174 130 54 61 55 43 234 166 56 93
cat_boundaries=0 1 2 3 4
cat_threshold=2 139544 2 4
is_linear=0
shrinkage=0.05


Tree=31
num_leaves=31
num_cat=7
split_feature=16 16 16 7 7 9 16 6 21 20 16 23 27 16 23 27 18 27 27 16 14 6 26 16 24 24 21 26 6 24
split_gain=253.798 39.3255 35.3872 10.3344 8.84477 8.45513 8.64897 7.85456 7.78504 16.2406 6.07387 5.53272 4.77166 4.60464 4.14576 3.86309 2.88511 2.83699 2.81877 2.80648 2.50031 2.29509 2.36863 2.25662 2.20816 3.67813 2.08133 2.06601 1.95816 5.87604
threshold=784.50000000000011 2316.5000000000005 221.50000000000003 0 1 2 1494.5000000000002 3 3544.3000000000006 -31126.219999999998 4566.0000000000009 24.500000000000004 4.7388095238095245 387.50000000000006 2.5000000000000004 0.18517460317460319 -152.13071934862697 232.37619047619049 3.1001219512195126 117.50000000000001 4 5 -162.9600162337662 43.500000000000007 2368.7910155679419 10933.286673669469 59025.305000000008 -1.0000000180025095e-35 6 8941.0025316652846
decision_type=2 2 2 9 9 9 2 9 2 2 2 2 2 2 2 2 2 2 2 2 1 9 2 2 2 2 2 2 9 2
left_child=2 5 3 7 17 26 21 14 12 -10 28 -6 -9 16 -1 -16 -13 -4 -15 20 27 22 -7 -22 -8 -26 -2 -5 29 -3
right_child=1 10 4 19 11 6 24 8 9 -11 -12 13 -14 18 15 -17 -18 -19 -20 -21 23 -23 -24 -25 25 -27 -28 -29 -30 -31
leaf_value=-0.03093865187754008 0.026725761785551357 -0.019311198520008475 -0.037773769040143602 -0.023923529298976065 0.013314707700565859 0.0010350774039357712 0.015549824956741017 -0.0058046293204072228 -0.012863200955578816 0.02040716252121769 0.020766773758423188 -0.017125639697622916 -0.03360461163701433 0.0052881069190334534 -0.0096678065326645315 -0.019435843538394143 -0.0079912577035889925 -0.015058427879453771 -0.0050438344611278864 -0.016107393082494686 -0.033996894792214315 0.0019402187900232873 -0.0065478321272946366 -0.024602061649495216 -0.0065798651004486067 0.0068638388217583599 0.011949177316775354 -0.010478251170134172 0.013424474967280359 0.010620969083610474
leaf_weight=55 27 20 27 100 37 217 66 29 92 61 297 119 33 72 146 330 316 28 794 99 106 922 196 161 54 880 203 40 1070 91
leaf_count=55 27 20 27 100 37 217 66 29 92 61 297 119 33 72 146 330 316 28 794 99 106 922 196 161 54 880 203 40 1070 91
internal_value=7.07749e-07 0.0078789 -0.0120415 -0.0181418 -0.0065586 0.00413565 0.00318152 -0.0144006 -0.00540384 0.000401454 0.0143751 -0.00575083 -0.0206014 -0.00629304 -0.0176099 -0.0164398 -0.0104901 -0.0262096 -0.00418483 -0.0236575 -0.0254941 0.000561439 -0.00250299 -0.0283318 0.00671115 0.00608658 0.0131137 -0.020082 0.0127678 0.00479574
internal_weight=6688 4043 2645 1252 1393 2565 2335 746 215 153 1478 1338 62 1301 531 476 435 55 866 506 407 1335 413 267 1000 934 230 140 1181 111
internal_count=6688 4043 2645 1252 1393 2565 2335 746 215 153 1478 1338 62 1301 531 476 435 55 866 506 407 1335 413 267 1000 934 230 140 1181 111
cat_boundaries=0 1 2 12 13 14 15 16
cat_threshold=2 4 8 262145 0 65536 134217728 2097152 2 0 16384 272760832 7328 2 37956 43014
is_linear=0
shrinkage=0.05


Tree=32
num_leaves=31
num_cat=5
split_feature=16 22 16 7 7 15 23 17 23 16 25 22 27 3 19 22 23 14 23 16 23 23 23 15 22 23 15 24 22 8
split_gain=229.583 44.3219 29.9242 10.1898 6.6457 5.99508 9.2748 10.7531 7.08405 5.90415 4.90265 4.85746 4.24271 7.81845 7.84994 5.18942 5.06261 4.5484 3.48372 3.46955 2.42561 2.18642 3.22797 3.15992 3.20885 2.10965 1.99132 1.77962 1.69691 1.66218
threshold=905.50000000000011 148.50000000000003 2437.5000000000005 0 1 50.500000000000007 34.500000000000007 13072.605000000001 91.500000000000014 1494.5000000000002 223788.08882440077 4247.0000000000009 0.39850000000000002 2 18858.159229589593 9.5000000000000018 3.5000000000000004 3 76.500000000000014 319.50000000000006 60.500000000000007 6.5000000000000009 8.5000000000000018 16.500000000000004 2.5000000000000004 533.50000000000011 40.500000000000007 111324.92630236519 34.500000000000007 4
decision_type=2 2 2 9 9 2 2 2 2 2 2 2 2 9 2 2 2 1 2 2 2 2 2 2 2 2 2 2 2 9
left_child=1 3 9 12 19 6 7 -6 27 18 -8 -4 13 14 -1 -15 26 -18 20 -3 -2 23 -23 -5 -25 -13 -14 -7 -24 -10
right_child=2 4 11 21 5 8 10 -9 29 -11 -12 25 16 15 -16 -17 17 -19 -20 -21 -22 22 28 24 -26 -27 -28 -29 -30 -31
leaf_value=0.012946098885731772 0.0025192334272322202 -0.010995025677478006 0.012705558132019974 -0.045330392303765711 0.002417960784673183 -0.014327394409621422 -0.0011154047213430814 0.044024273365115128 -0.0040204640641169475 0.0072518832879067061 -0.01937337091425434 0.017454677753249655 -0.015115833021700381 -0.032677386898015227 -0.015743293989400723 -0.010218079611371013 -0.0069083103364690731 -0.017366902391478506 0.0017497824711743771 -0.03699933350916304 0.024998887049566425 -0.0026445046688119574 -0.02563773104527467 -0.0059571111202239993 -0.027253560028099789 0.027626021577632182 -0.033680631032285212 -0.0063896856411399016 -0.018011651230199884 0.0078602073443753105
leaf_weight=64 21 29 1111 21 44 267 455 24 585 1227 40 169 20 35 38 97 146 361 1142 23 28 24 142 20 153 73 52 96 150 31
leaf_count=64 21 29 1111 21 44 267 455 24 585 1227 40 169 20 35 38 97 146 361 1142 23 28 24 142 20 153 73 52 96 150 31
internal_value=1.82105e-06 -0.0105312 0.00814946 -0.0172963 -0.00491621 -0.00432335 -0.000212205 0.0171025 -0.00668757 0.00481769 -0.0025908 0.0141038 -0.0138208 -0.00813913 0.00225789 -0.0161732 -0.0161171 -0.0143552 0.00230993 -0.0224969 0.0153647 -0.0228366 -0.0202714 -0.0270148 -0.0247915 0.0205229 -0.0285237 -0.0122282 -0.0217202 -0.00342257
internal_weight=6688 2917 3771 1323 1594 1542 563 68 979 2418 495 1353 813 234 102 132 579 507 1191 52 49 510 316 194 173 242 72 363 292 616
internal_count=6688 2917 3771 1323 1594 1542 563 68 979 2418 495 1353 813 234 102 132 579 507 1191 52 49 510 316 194 173 242 72 363 292 616
cat_boundaries=0 1 2 3 4 5
cat_threshold=2 4 4 2 2
is_linear=0
shrinkage=0.05


Tree=33
num_leaves=31
num_cat=6
split_feature=22 16 22 7 22 7 6 23 23 27 9 15 15 25 19 15 16 22 22 25 23 1 25 14 15 27 17 22 15 23
split_gain=207.625 32.7228 31.8815 8.94155 6.97552 6.38927 5.9635 11.5018 9.96251 6.62064 5.56452 5.39745 9.83014 8.78196 5.36268 4.67266 4.01026 3.36545 3.30374 3.20615 3.09405 2.82568 2.31112 2.54663 2.27584 3.32928 1.94039 2.41684 1.99629 1.87669
threshold=551.50000000000011 2011.5000000000002 94.500000000000014 0 3227.0000000000005 1 2 19.500000000000004 111.50000000000001 92.703766666666681 3 45.500000000000007 35.500000000000007 1238.1158817896403 313.07878599727451 39.500000000000007 1356.5000000000002 119.50000000000001 33.500000000000007 4063.6670869341992 622.00000000000011 4 298892.34934645501 5 76.500000000000014 461.39469696969701 11046.495000000015 19.500000000000004 54.500000000000007 13.500000000000002
decision_type=2 2 2 9 2 9 9 2 2 2 9 2 2 2 2 2 2 2 2 2 2 1 2 1 2 2 2 2 2 2
left_child=2 3 5 -2 24 11 8 -8 9 14 15 12 18 -14 -4 -5 -12 -9 -1 -11 -6 -19 23 -13 -3 -26 27 28 -7 -28
right_child=1 4 6 10 20 26 7 17 -10 19 16 22 13 -15 -16 -17 -18 21 -20 -21 -22 -23 -24 -25 25 -27 29 -29 -30 -31
leaf_value=-0.021078304382611129 -0.028687873385338621 0.01046515613497241 -0.025499638658778474 0.023626712976707792 0.014944504833319923 -0.0255739471915464 0.026379977990732051 -0.018382796318129346 -0.001871724951857761 -0.033731651897930232 0.00016745271362918269 -0.013789709461852909 -0.017350595180566111 0.016071017284207702 -0.0029266938249739409 0.0069809293610285528 0.0048285697059833391 0.0027958769487000448 -0.0083518287207890347 -0.014940587130599842 0.024471036153230468 -0.005353556088645876 -0.035648069391027097 -0.023859147015846922 0.01149160210043192 -0.014395540515365807 -0.001633418465498835 -0.020325859290854079 -0.039726250351879808 -0.019655941452947447
leaf_weight=116 22 1232 30 49 435 127 33 38 342 24 1044 150 30 57 214 302 827 148 91 419 106 340 20 108 27 23 20 231 31 52
leaf_count=116 22 1232 30 49 435 127 33 38 342 24 1044 150 30 57 214 302 827 148 91 419 106 340 20 108 27 23 20 231 31 52
internal_value=1.73002e-06 0.00707399 -0.0109723 0.00303158 0.0120499 -0.0178095 -0.00652462 -0.00221442 -0.00875948 -0.0123158 0.00334563 -0.0142793 -0.00955636 0.00454632 -0.00570206 0.00904695 0.00221587 -0.00405046 -0.0154836 -0.0159586 0.0168111 -0.00293442 -0.0192741 -0.0180048 0.0100408 -0.000416484 -0.0221897 -0.0235853 -0.0283507 -0.0146497
internal_weight=6688 4067 2621 2244 1823 1033 1588 559 1029 687 2222 572 294 87 244 351 1871 526 207 443 541 488 278 258 1282 50 461 389 158 72
internal_count=6688 4067 2621 2244 1823 1033 1588 559 1029 687 2222 572 294 87 244 351 1871 526 207 443 541 488 278 258 1282 50 461 389 158 72
cat_boundaries=0 1 2 3 13 14 15
cat_threshold=4 2 7201 67108872 262145 67108864 268500992 134225920 0 2 0 16384 272761088 66 4
is_linear=0
shrinkage=0.05


Tree=34
num_leaves=31
num_cat=4
split_feature=16 22 16 7 7 16 15 23 11 23 25 15 15 8 22 16 23 26 23 24 23 23 3 22 26 18 23 24 24 23
split_gain=187.663 36.2348 24.6524 8.27604 5.80712 5.43546 5.25537 8.07681 11.5362 5.90168 4.39705 3.77313 5.97933 4.98739 3.58731 3.10176 3.10063 2.95945 2.16293 2.01621 1.89544 2.91199 2.86055 2.35102 1.76688 1.76617 1.76021 1.64583 3.41446 3.31168
threshold=905.50000000000011 148.50000000000003 2580.5000000000005 0 1 1494.5000000000002 50.500000000000007 34.500000000000007 287143.74500000005 111.50000000000001 223788.08882440077 10.500000000000002 45.500000000000007 2 4247.0000000000009 319.50000000000006 76.500000000000014 345.05123543123545 60.500000000000007 111324.92630236519 6.5000000000000009 8.5000000000000018 3 3.5000000000000004 3.9142045454545458 -521.05778094183654 533.50000000000011 2368.7910155679419 10933.286673669469 261.50000000000006
decision_type=2 2 2 9 9 2 2 2 2 2 2 2 2 9 2 2 2 2 2 2 2 2 9 2 2 2 2 2 2 2
left_child=1 3 5 11 15 16 7 8 -6 19 -9 -1 13 -13 -4 -3 18 -14 -2 -8 22 -22 23 -5 -11 -23 -16 -7 29 -29
