tree
version=v4
num_class=1
num_tree_per_iteration=1
label_index=0
max_feature_idx=27
objective=regression
feature_names=Gender IncomeCategory CustomerStatus ClientType MaritalStatus OccupationCategory IndustryCategory CustomerBankingType CustomerOnboardingChannel ResidentialCityName CountryCodeNationality AnnualGrossIncome LowIncomeFlag CertificationTypeDescription ContactPreference Age txn_count txn_amount_sum txn_amount_mean txn_amount_std txn_amount_min txn_amount_max txn_debit_count txn_credit_count stmt_balance_mean stmt_balance_std fin_interest_income_mean fin_interest_revenue_mean
feature_infos=-1:1:0 -1:7:1:3:6:0:4:5:2 -1:0:2 -1:2:1:3 -1:0:2:1:3 -1:9:11:12:4:8:5:3:16:0:2:13:14:7:1:17:10:6 -1:5:4:12:10:7:3:2:1:8:15:11:17:0:6:13:14:9 -1:1:2:0 -1:1:2 -1:173:54:283:322:89:141:306:58:50:309:370:124:26:316:270:342:243:94:193:296:244:415:354:112:3:90:382:424:32:155:305:310:332:181:357:259:348:425:13:24:187:255:37:313:92:113:298:70:65:239:256:167:106:20:111:48:241:389:216:144:156:162:164:233:260:279:463:115:242:338:423:454:6:43:110:121:176:434:455:93:208:281:376:362:380:388:462:103:126:158:185:186:254:419:460:466:127:130:138:146:184:201:205:257:363:393:400:44:122:200:230:297:312:315:319:328:333:372:375:411:432:8:27:34:40:88:117:133:136:161:171:182:183:199:206:207:251:263:273:275:304:317:323:329:337:341:343:347:355:381:404:421:469:35:42:49:59:60:61:64:73:80:85:99:108:145:147:152:178:194:195:202:231:232:237:246:291:302:340:360:361:367:456 -1:59:23:61:18:44:57:30:4:33:34:9:52:3:28:48:60:22:2:11:14:42:46:19:29:43:0:1:26:40:49 [0:314996257.04000002] -1:0:1 -1:0:4:1:3 -1:2:1:0 [0:125] [1:18728] [-40620489.189999998:52406406.049999997] [-75941.460000000006:220265.82500000001] [0:590052.83448541572] [-1000000:88497.779999999999] [-75941.460000000006:1000000] [0:12696] [0:11867] [-973250.26728686632:1000000] [0:672413.13680984743] [-58504.588571428569:35985.627209302322] [-0.089999999999999789:16911.705500000004]
tree_sizes=2654 2816 2841 2810 2833 2841 2832 2840 2842 2838 2794 2818 2843 2843 2829 2839 2825 2823 2783 2831 2819 2791 2813 2828 2854 2853 2786 2846 2891 2946 2852 2930 2891 3039 2840 2956 2985 2994 2946 2929 2895 2813 3018 2962 3048 2931 3022 2965 2855 2857 2799 3020 3050 3073 2988 2963 3110 3066 2961 3072 3041 3007 2952 2989 2955 2959 2977 3015 2993 2909 2847 2889 2955 3016 2810 2786 2816 2513 2962 2849 2702 2767

Tree=0
num_leaves=31
num_cat=3
split_feature=22 22 22 22 22 7 22 22 20 22 7 22 7 22 20 23 20 25 21 18 23 22 22 22 23 27 27 23 26 23
split_gain=5747.6 1040.53 576.982 216.983 158.136 109.407 79.0073 35.4341 26.3686 24.7755 21.9939 21.2526 17.5107 16.8877 15.2411 15.0006 14.1082 19.6402 12.9211 10.5856 10.5688 9.6611 8.70967 7.93341 7.88162 7.2894 7.24598 7.21225 6.92122 6.75865
threshold=403.50000000000006 1636.5000000000002 83.500000000000014 910.50000000000011 2780.0000000000005 0 200.50000000000003 4214.5000000000009 -118.3 519.50000000000011 1 1282.5000000000002 2 298.50000000000006 -1.0000000180025095e-35 213.50000000000003 -139518.61499999996 5568.1322354181912 2970.7900000000004 -153.01702113978038 380.50000000000006 6.5000000000000009 2029.5000000000002 6301.0000000000009 380.50000000000006 0.14914285714285716 195.28884032634036 75.500000000000014 -1.0000000180025095e-35 28.500000000000004
decision_type=2 2 2 2 2 9 2 2 2 2 9 2 9 2 2 2 2 2 2 2 2 2 2 2 2 2 2 2 2 2
left_child=2 3 5 9 20 8 10 -6 16 -2 -4 24 -8 29 -10 -11 -1 -18 -7 27 22 -20 -3 -9 -5 -21 -15 -12 -23 -14
right_child=1 4 6 11 7 18 12 23 14 15 19 -13 13 26 -16 -17 17 -19 21 25 -22 28 -24 -25 -26 -27 -28 -29 -30 -31
leaf_value=4.2912810444385938 4.365993384567429 4.4202258024177716 4.2958970145238116 4.3994432273261772 4.4518575262319864 4.2589682988182487 4.3040373566190597 4.4707635921748681 4.2610727753146636 4.3778952534445912 4.3056583604523659 4.4140515759099141 4.3662534842047576 4.3671814657908605 4.3065497067205225 4.3911463190653022 4.3005097913960038 4.325839730371456 4.255765298306093 4.3479103243520756 4.4373411702057686 4.2746237463083423 4.4310788553327995 4.4941932301344485 4.4144120665654221 4.3278861754688664 4.3517144055849011 4.329538699853078 4.2961787638806523 4.3397486158668732
leaf_weight=118 316 338 67 680 511 231 22 202 58 677 86 574 26 123 27 312 175 136 47 53 295 120 408 44 101 319 197 50 54 321
leaf_count=118 316 338 67 680 511 231 22 202 58 677 86 574 26 123 27 312 175 136 47 53 295 120 408 44 101 319 197 50 54 321
internal_value=4.37981 4.41259 4.31427 4.39273 4.44197 4.28518 4.33651 4.45936 4.30096 4.37818 4.32282 4.40675 4.34793 4.34937 4.27552 4.38208 4.306 4.31159 4.26724 4.32637 4.42933 4.27588 4.42616 4.47495 4.40138 4.33074 4.35766 4.31444 4.28131 4.34173
internal_weight=6688 4458 2230 2660 1798 966 1264 757 514 1305 575 1355 689 667 85 989 429 311 452 508 1041 221 746 246 781 372 320 136 174 347
internal_count=6688 4458 2230 2660 1798 966 1264 757 514 1305 575 1355 689 667 85 989 429 311 452 508 1041 221 746 246 781 372 320 136 174 347
cat_boundaries=0 1 2 3
cat_threshold=2 4 4
is_linear=0
shrinkage=1


Tree=1
num_leaves=31
num_cat=3
split_feature=16 16 22 16 16 7 22 16 23 27 22 16 7 15 15 23 15 19 16 14 27 22 15 23 16 27 16 24 16 16
split_gain=5193.1 823.204 676.042 154.29 147.298 130.323 84.9454 34.3967 25.1732 28.0097 20.2542 17.7027 17.5066 16.9145 16.0774 18.2376 10.7979 14.5589 10.4381 9.66756 9.54792 9.49922 10.1091 10.6155 9.17703 8.91292 8.50276 6.67637 5.92336 4.69258
threshold=694.50000000000011 2022.5000000000002 119.50000000000001 1159.5000000000002 3179.5000000000005 0 284.50000000000006 5032.5000000000009 3.5000000000000004 0.83115384615384624 43.500000000000007 1547.0000000000002 1 29.500000000000004 50.500000000000007 18.500000000000004 11.500000000000002 51433.594909277519 341.50000000000006 2 1.0000000180025095e-35 351.50000000000006 52.500000000000007 48.500000000000007 1024.5000000000002 0.14914285714285716 2321.5000000000005 6063.5958336585372 7069.5000000000009 117.50000000000001
decision_type=2 2 2 2 2 9 2 2 2 2 2 2 9 2 2 2 2 2 2 1 2 2 2 2 2 2 2 2 2 2
left_child=2 3 5 24 26 8 12 -6 9 13 19 -5 -4 -1 15 -14 -10 -18 -16 20 -7 -8 23 -23 -2 -12 -3 -21 -9 -27
right_child=1 4 6 11 7 10 21 28 16 -11 25 -13 14 -15 18 -17 17 -19 -20 27 -22 22 -24 -25 -26 29 -28 -29 -30 -31
leaf_value=-0.10265326756476001 -0.0036482993978673921 0.039854514671180105 -0.072986958183061626 0.019710208208450639 0.069057373186192192 -0.082231836781209836 -0.027961769364368855 0.088178705428585857 -0.087523036780503563 -0.1137358548377569 -0.062191436511392778 0.03090066002941444 0.0032986199122763448 -0.048533727860610401 -0.056260070788306651 -0.037889849270191414 -0.05832722290299 -0.077238432156456108 -0.039675968054992461 -0.12270798455828276 -0.11220994355349706 0.026399970613420011 -0.021865190750880479 -0.010729938144372269 0.0069969916150888854 -0.10656158253550529 0.049682115064307447 -0.10542090899985412 0.10864387787050672 -0.086204126304474438
leaf_weight=22 699 328 52 718 601 49 224 165 53 65 26 696 31 42 218 202 353 143 168 156 58 22 240 154 285 48 669 87 45 69
leaf_count=22 699 328 52 718 601 49 224 165 53 65 26 696 31 42 218 202 353 143 168 156 58 22 240 154 285 48 669 87 45 69
internal_value=-3.2389e-10 0.0338455 -0.0573547 0.0146384 0.0593206 -0.0849655 -0.0326924 0.0751442 -0.0707418 -0.0906172 -0.104527 0.0252184 -0.0451223 -0.0671373 -0.0427815 -0.0324098 -0.0660716 -0.0637794 -0.0490421 -0.111005 -0.0984817 -0.0196605 -0.0151905 -0.0060887 -0.00056506 -0.0886715 0.046449 -0.116519 0.0925641 -0.0945559
internal_weight=6688 4206 2482 2398 1808 1171 1311 811 678 129 493 1414 671 64 619 233 549 496 386 350 107 640 416 176 984 143 997 243 210 117
internal_count=6688 4206 2482 2398 1808 1171 1311 811 678 129 493 1414 671 64 619 233 549 496 386 350 107 640 416 176 984 143 997 243 210 117
cat_boundaries=0 1 2 3
cat_threshold=2 4 2
is_linear=0
shrinkage=0.05


Tree=2
num_leaves=31
num_cat=1
split_feature=16 16 22 16 16 7 16 16 20 15 15 26 26 16 16 15 15 20 18 21 22 15 23 23 16 16 16 22 22 16
split_gain=4686.77 742.942 610.128 139.246 132.937 117.617 76.9642 31.0431 29.6784 24.6256 18.9699 20.5789 17.012 16.0849 14.3989 14.1711 26.412 12.7779 12.5494 12.3884 10.2224 9.12344 9.58045 8.4128 8.28227 7.67374 6.94895 5.51448 5.12585 4.46023
threshold=694.50000000000011 2022.5000000000002 119.50000000000001 1159.5000000000002 3179.5000000000005 0 410.50000000000006 5032.5000000000009 -118.3 50.500000000000007 21.500000000000004 -1.0000000180025095e-35 1.0000000180025095e-35 1514.0000000000002 96.500000000000014 13.500000000000002 54.500000000000007 -1.0000000180025095e-35 -199.54807740500618 3314.4800000000005 351.50000000000006 52.500000000000007 48.500000000000007 39.500000000000007 1024.5000000000002 2321.5000000000005 313.50000000000006 7637.5000000000009 25.500000000000004 3880.5000000000005
decision_type=2 2 2 2 2 9 2 2 2 2 2 2 2 2 2 2 2 2 2 2 2 2 2 2 2 2 2 2 2 2
left_child=2 3 5 24 25 8 9 29 15 18 23 14 -13 -5 -12 28 -17 -10 -4 -20 -8 22 -22 -7 -2 -3 -11 -9 -1 -6
right_child=1 4 6 13 7 10 20 27 17 26 11 12 -14 -15 -16 16 -18 -19 19 -21 21 -23 -24 -25 -26 -27 -28 -29 -30 -31
leaf_value=-0.099818621575832378 -0.0034658844538102297 0.03786178956662941 -0.058116372634430195 0.018321923302460571 0.061472743206892534 -0.12434655046740245 -0.027099353077193335 0.085164202210750994 -0.10806242258384312 -0.057716985466526594 -0.11058411238765396 -0.06072546822639803 -0.10322057213102068 0.029003759491305438 -0.08504423827610233 -0.049854107636103269 -0.072730353567647593 -0.066422161951454159 -0.052421981272728825 -0.020909768335746023 0.025079972110688686 -0.020771931422168564 -0.010193441368708638 -0.10040530222468079 0.0066471420919978104 0.047198011501106162 -0.044312716975154182 0.11162126816131852 -0.073538233803754502 0.070094928026082928
leaf_weight=28 699 328 37 668 313 86 258 188 58 205 148 72 35 746 88 281 229 27 38 174 22 240 154 64 285 669 183 22 55 288
leaf_count=28 699 328 37 668 313 86 258 188 58 205 148 72 35 746 88 281 229 27 38 174 22 240 154 64 285 669 183 22 55 288
internal_value=7.46734e-11 0.0321533 -0.054487 0.0139064 0.0563545 -0.0807172 -0.0310578 0.071387 -0.0672047 -0.0435194 -0.0993003 -0.0928143 -0.0746257 0.0239575 -0.101061 -0.0632441 -0.060126 -0.0948355 -0.0312476 -0.0265582 -0.0192803 -0.014431 -0.00578426 -0.114132 -0.000536807 0.0441265 -0.0513949 0.0879359 -0.0824039 0.0656045
internal_weight=6688 4206 2482 2398 1808 1171 1311 811 678 637 493 343 107 1414 236 593 510 85 249 212 674 416 176 150 984 997 388 210 83 601
internal_count=6688 4206 2482 2398 1808 1171 1311 811 678 637 493 343 107 1414 236 593 510 85 249 212 674 416 176 150 984 997 388 210 83 601
cat_boundaries=0 1
cat_threshold=2
is_linear=0
shrinkage=0.05


Tree=3
num_leaves=31
num_cat=3
split_feature=16 16 22 16 16 16 7 7 16 20 18 16 22 3 26 26 20 17 22 22 16 22 23 16 27 16 22 22 21 20
split_gain=4229.81 670.505 553.311 125.67 120.013 93.7549 86.8056 26.943 24.7018 21.8579 16.4962 14.5216 12.9729 12.1622 19.6264 14.6668 11.7266 15.3919 11.6979 10.8405 10.2347 9.27749 7.94814 7.64055 6.79228 6.37403 5.77416 5.01342 4.62599 3.25986
threshold=694.50000000000011 2022.5000000000002 93.500000000000014 1159.5000000000002 3297.0000000000005 410.50000000000006 0 1 5032.5000000000009 -118.3 -153.01702113978038 1502.5000000000002 298.50000000000006 2 -1.0000000180025095e-35 1.0000000180025095e-35 -137452.84499999997 7429.5150000000021 2.5000000000000004 20.500000000000004 2621.0000000000005 351.50000000000006 39.500000000000007 931.50000000000011 0.14914285714285716 313.50000000000006 67.500000000000014 6301.0000000000009 66249.155000000013 -7861.8999999999987
decision_type=2 2 2 2 2 2 9 9 2 2 2 2 2 9 2 2 2 2 2 2 2 2 2 2 2 2 2 2 2 2
left_child=2 3 6 23 20 7 9 -4 -6 16 25 28 -12 22 19 -16 26 -18 -11 -15 -3 -7 -8 -2 -23 -9 -1 -10 -5 -26
right_child=1 4 5 11 8 21 13 10 27 18 12 -13 -14 14 15 -17 17 -19 -20 -21 -22 24 -24 -25 29 -27 -28 -29 -30 -31
leaf_value=-0.082362486223379772 -0.0049881003891581611 0.03857414236197429 -0.071444802295086512 0.031352136176922972 0.063270724425356417 -0.025763704455691358 -0.11811798983309643 -0.061054405300793327 0.079561695303902571 -0.069465094765550225 -0.03768323776439686 0.027380334049369178 0.0015593377111310308 -0.11970507185526041 -0.059645127858966585 -0.10095642632053746 -0.064425858175966494 -0.041037003898221736 -0.10677221905677876 -0.092958639606744234 0.048455337812597664 0.010541247402283328 -0.09445596938171695 0.0038248675798065964 -0.016854355836873506 -0.042505744261434303 -0.060261107981204987 0.098544764383272698 0.015930010607920302 -0.00105987233756524
leaf_weight=90 484 609 79 53 529 259 83 110 166 38 493 772 22 49 70 31 243 99 47 167 460 27 62 500 353 80 44 44 589 36
leaf_count=90 484 609 79 53 529 259 83 110 166 38 493 772 22 49 70 31 243 99 47 167 460 27 62 500 353 80 44 44 589 36
internal_value=-3.7741e-11 0.0305456 -0.0517626 0.0132111 0.0535368 -0.0319945 -0.0799558 -0.0437552 0.0690303 -0.0667384 -0.0406524 0.0227596 -0.0360069 -0.0960054 -0.0905188 -0.0723248 -0.0625678 -0.0576554 -0.0900937 -0.0990261 0.0428261 -0.0183347 -0.108 -0.000509966 -0.0137094 -0.0532444 -0.0751053 0.0835391 0.0172032 -0.0153927
internal_weight=6688 4206 2482 2398 1808 1459 1023 784 739 561 705 1414 515 462 317 101 476 342 85 216 1069 675 145 984 416 190 134 210 642 389
internal_count=6688 4206 2482 2398 1808 1459 1023 784 739 561 705 1414 515 462 317 101 476 342 85 216 1069 675 145 984 416 190 134 210 642 389
cat_boundaries=0 1 2 3
cat_threshold=2 4 8
is_linear=0
shrinkage=0.05


Tree=4
num_leaves=31
num_cat=2
split_feature=22 22 22 22 7 22 22 22 20 22 23 7 23 15 15 27 22 23 17 21 23 27 22 20 22 22 15 22 23 22
split_gain=3818.99 563.404 526.77 105.853 96.2743 93.7045 67.4895 24.3578 24.3491 16.2069 14.1881 13.8277 13.2214 13.1091 21.4098 12.6346 9.27985 8.52878 8.23593 7.87696 7.48676 7.12493 7.00782 6.61668 5.79409 5.77599 5.66002 5.34168 5.28614 4.56725
threshold=519.50000000000011 1636.5000000000002 119.50000000000001 2780.0000000000005 0 992.50000000000011 284.50000000000006 4214.5000000000009 -176.97999999999999 43.500000000000007 179.50000000000003 1 20.500000000000004 13.500000000000002 54.500000000000007 2.1915567765567769 1282.5000000000002 208.50000000000003 49.640000000000008 6377.1600000000008 380.50000000000006 0.14914285714285716 351.50000000000006 -9811.4149999999991 761.50000000000011 2029.5000000000002 13.500000000000002 6301.0000000000009 300.50000000000006 25.500000000000004
decision_type=2 2 2 2 9 2 2 2 2 2 2 9 2 2 2 2 2 2 2 2 2 2 2 2 2 2 2 2 2 2
left_child=2 5 4 20 8 10 11 -5 13 19 -2 -4 23 29 -15 18 28 -14 -10 -6 25 -11 -8 -13 -12 -3 -21 -9 -7 -1
right_child=1 3 6 7 9 16 22 27 15 21 24 12 17 14 -16 -17 -18 -19 -20 26 -22 -23 -24 -25 -26 -27 -28 -29 -30 -31
leaf_value=-0.091760903916188657 -0.001808946014632686 0.032831932857808985 -0.063263720663067388 0.058681274613697237 -0.1006767827397252 0.016237457816153916 -0.023529411694790614 0.074392177828467729 -0.041776105321478102 -0.051776594604150607 0.0036958727442726481 0.0051563846671746835 -0.039723719510004522 -0.044643601820384259 -0.065331607516360496 -0.10274712245198006 0.027996615667499683 -0.0072590128651687088 -0.085647511223088141 -0.10296644472306776 0.047075098263005079 -0.080713284359528473 -0.012857983031626531 -0.032264940538221883 0.013909934731512578 0.041670138408046439 -0.077968323296989273 0.093617529371245345 0.026788141093919617 -0.06695379731499336
leaf_weight=28 611 338 52 511 235 437 228 202 20 26 257 27 552 280 226 47 574 21 23 31 295 117 473 21 302 408 84 44 163 55
leaf_count=28 611 338 52 511 235 437 228 202 20 26 257 27 552 280 226 47 574 21 23 31 295 117 473 21 302 408 84 44 163 55
internal_value=6.98657e-13 0.0296224 -0.0481917 0.0506776 -0.0728169 0.0134717 -0.0271867 0.0649043 -0.060606 -0.0896349 0.00345758 -0.0384963 -0.0364223 -0.0569048 -0.0538837 -0.0848281 0.0234517 -0.0385339 -0.0652422 -0.0954296 0.0403321 -0.0754521 -0.0163289 -0.0112154 0.00921402 0.0376657 -0.0847069 0.0778309 0.0191037 -0.0753225
internal_weight=6688 4142 2546 1798 1172 2344 1374 757 679 493 1170 673 621 589 506 90 1174 573 43 350 1041 143 701 48 559 746 115 246 600 83
internal_count=6688 4142 2546 1798 1172 2344 1374 757 679 493 1170 673 621 589 506 90 1174 573 43 350 1041 143 701 48 559 746 115 246 600 83
cat_boundaries=0 1 2
cat_threshold=2 4
is_linear=0
shrinkage=0.05


Tree=5
num_leaves=31
num_cat=2
split_feature=16 16 22 16 16 7 22 16 24 22 23 16 7 15 15 16 15 26 26 15 22 16 23 18 23 27 23 15 23 16
split_gain=3449.17 621.284 376.938 135.417 92.3293 64.5112 56.1357 22.9337 14.535 13.8935 14.9241 13.8739 13.3592 12.0857 19.0382 11.1494 10.7102 15.876 11.6861 9.32563 8.50186 8.28353 7.22044 7.12432 6.3548 5.97922 6.79949 5.91978 5.79794 4.39784
threshold=611.50000000000011 1749.5000000000002 83.500000000000014 3179.5000000000005 1159.5000000000002 0 200.50000000000003 5032.5000000000009 -1.0000000180025095e-35 351.50000000000006 24.500000000000004 2321.5000000000005 1 57.500000000000007 13.500000000000002 796.50000000000011 21.500000000000004 -1.0000000180025095e-35 1.0000000180025095e-35 50.500000000000007 20.500000000000004 332.50000000000006 56.500000000000007 24.066231688763285 81.500000000000014 193.77573308270681 54.500000000000007 37.500000000000007 6.5000000000000009 8739.0000000000018
decision_type=2 2 2 2 2 9 2 2 2 2 2 2 9 2 2 2 2 2 2 2 2 2 2 2 2 2 2 2 2 2
left_child=2 4 5 11 15 8 12 -5 -1 10 -8 -3 -4 14 -10 27 22 20 -19 23 -18 -21 -7 -14 -12 26 -11 -2 -15 -9
right_child=1 3 6 7 -6 16 9 29 13 25 24 -13 19 28 -16 -17 17 18 -20 21 -22 -23 -24 -25 -26 -27 -28 -29 -30 -31
leaf_value=-0.093999709788477048 0.0068576483931392434 0.030270271559199598 -0.065195380507120454 0.056331790516311042 0.018151950301826675 -0.10303120803833009 0.013138608563513982 0.073050804991037291 -0.075693199018714963 0.017890350764187483 -0.035761121493772051 0.040472302206559459 -0.039947435100365324 -0.088491202665394869 -0.047898639494435062 0.0012496852912535928 -0.10867197750865117 -0.054145788609731842 -0.09244470042841775 -0.050319804663777036 -0.084298347223619507 -0.026635530569352386 -0.072547788464504742 -0.0202149636078892 -0.024357309424484417 -0.02000072142109275 -0.011996366504828191 -0.0116077789881813 -0.065416720486246055 0.096677827970548122
leaf_weight=32 50 664 67 601 1078 125 21 188 80 26 238 669 132 38 268 795 46 69 28 261 161 43 23 70 251 146 71 329 96 22
leaf_count=32 50 664 67 601 1078 125 21 188 80 26 238 669 132 38 268 795 46 69 28 261 161 43 23 70 251 146 71 329 96 22
internal_value=2.01345e-10 0.0259273 -0.049728 0.0451918 0.00758669 -0.0734844 -0.0324213 0.0613019 -0.0613676 -0.023447 -0.0281351 0.0353904 -0.0442147 -0.0592012 -0.0542882 -0.00211463 -0.0872632 -0.0818929 -0.0652011 -0.0414366 -0.0897147 -0.0469697 -0.0982939 -0.0331094 -0.0299076 -0.0136078 -0.00398549 -0.00917171 -0.0719602 0.075526
internal_weight=6688 4396 2292 2144 2252 966 1326 811 514 753 510 1333 573 482 348 1174 452 304 97 506 207 304 148 202 489 243 97 379 134 210
internal_count=6688 4396 2292 2144 2252 966 1326 811 514 753 510 1333 573 482 348 1174 452 304 97 506 207 304 148 202 489 243 97 379 134 210
cat_boundaries=0 1 2
cat_threshold=2 4
is_linear=0
shrinkage=0.05


Tree=6
num_leaves=31
num_cat=2
split_feature=16 16 22 16 16 7 16 7 22 15 20 15 15 22 16 16 15 26 26 20 22 23 16 27 23 23 15 26 16 16
split_gain=3112.88 560.709 340.186 122.213 83.3272 58.2214 51.05 21.4418 20.7862 20.1972 15.6121 14.7202 16.3251 14.4374 12.5212 10.3276 9.66685 14.0166 10.9755 9.23267 8.2135 6.66543 6.07939 5.96267 5.9673 4.92939 4.86494 5.64041 4.67501 4.5481
threshold=611.50000000000011 1749.5000000000002 83.500000000000014 3179.5000000000005 1159.5000000000002 0 410.50000000000006 1 4214.5000000000009 50.500000000000007 -118.3 57.500000000000007 13.500000000000002 275.50000000000006 2321.5000000000005 931.50000000000011 19.500000000000004 -1.0000000180025095e-35 1.0000000180025095e-35 -1.0000000180025095e-35 20.500000000000004 56.500000000000007 246.50000000000003 172.48626180836712 54.500000000000007 6.5000000000000009 45.500000000000007 -42.915322674418597 7069.5000000000009 530.50000000000011
decision_type=2 2 2 2 2 9 2 9 2 2 2 2 2 2 2 2 2 2 2 2 2 2 2 2 2 2 2 2 2 2
left_child=2 4 5 14 15 10 7 -4 -5 13 11 12 -1 -9 -3 26 21 20 -19 -12 -18 -7 -11 24 -8 -13 27 -2 -10 -25
right_child=1 3 6 8 -6 16 23 9 28 22 19 25 -14 -15 -16 -17 17 18 -20 -21 -22 -23 -24 29 -26 -27 -28 -29 -30 -31
leaf_value=-0.06919171096136173 -0.011705149412533502 0.028756757818670181 -0.062060153661843614 0.052954940425347444 0.017244352921558431 -0.09828396703093506 0.0099664803904791679 -0.029237229040959763 0.067106643929818077 -0.050505534353923347 -0.089119131015292535 -0.084994483224171052 -0.041910002125824464 0.0078174362729849494 0.038448686771838186 0.0034358848230331205 -0.10335284729177754 -0.051438499202249924 -0.088096674351856641 -0.053723703862892262 -0.079804213584205252 -0.068920399183812361 -0.038189467956742822 -0.026585269313016649 -0.014653985894431299 -0.062746661228518338 -0.0083013457446725388 0.0089323955721088821 0.084935534728897949 -0.014269184801450447
leaf_weight=72 50 664 85 565 1078 121 30 281 201 152 58 34 230 29 669 500 48 69 29 27 162 23 294 197 137 93 526 98 45 121
leaf_count=72 50 664 85 565 1078 121 30 281 201 152 58 34 230 29 669 500 48 69 29 27 162 23 294 197 137 93 526 98 45 121
internal_value=6.85237e-11 0.024631 -0.0472416 0.0429322 0.00720736 -0.0698102 -0.0308002 -0.0382504 0.0582368 -0.0355734 -0.0582992 -0.0544204 -0.0484143 -0.0257708 0.0336209 -0.0020089 -0.0829 -0.0779003 -0.0622863 -0.0778759 -0.0851868 -0.093594 -0.0423869 -0.0178814 -0.0102311 -0.0687028 -0.00604806 0.00196025 0.070368 -0.021899
internal_weight=6688 4396 2292 2144 2252 966 1326 841 811 756 514 429 302 310 1333 1174 452 308 98 85 210 144 446 485 167 127 674 148 246 318
internal_count=6688 4396 2292 2144 2252 966 1326 841 811 756 514 429 302 310 1333 1174 452 308 98 85 210 144 446 485 167 127 674 148 246 318
cat_boundaries=0 1 2
cat_threshold=2 4
is_linear=0
shrinkage=0.05


Tree=7
num_leaves=31
num_cat=1
split_feature=16 22 16 16 16 22 16 21 16 16 15 18 15 14 16 16 21 18 15 16 16 24 16 21 25 18 16 24 19 15
split_gain=2812.56 417.306 407.275 73.18 71.6469 53.9311 48.826 23.6646 16.8903 16.3612 16.304 15.6598 12.6195 12.9827 10.336 9.06232 8.88617 11.2306 7.25394 6.38224 6.09707 5.79767 5.33188 4.91703 4.91155 7.2151 4.70847 3.19893 10.5891 3.05826
threshold=771.50000000000011 131.50000000000003 2108.0000000000005 1219.0000000000002 3297.0000000000005 43.500000000000007 463.50000000000006 6377.1600000000008 5915.5000000000009 1.5000000000000002 50.500000000000007 -2.1500358929946137 13.500000000000002 0 1642.5000000000002 152.50000000000003 4050.4400000000005 -126.58010711385175 34.500000000000007 1024.5000000000002 341.50000000000006 10442.04013623149 2621.0000000000005 2970.7900000000004 59500.114711296985 147.59223518518533 4504.0000000000009 5763.6331644072206 4520.09169742633 38.500000000000007
decision_type=2 2 2 2 2 2 2 2 2 2 2 2 2 1 2 2 2 2 2 2 2 2 2 2 2 2 2 2 2 2
left_child=1 5 3 19 22 7 10 9 26 -1 16 15 -9 -14 -5 23 -3 -18 -8 27 -12 -20 29 -7 25 -13 -6 -2 -29 -4
right_child=2 6 4 14 8 11 18 12 -10 -11 20 24 13 -15 -16 -17 17 -19 21 -21 -22 -23 -24 -25 -26 -27 -28 28 -30 -31
leaf_value=-0.043070167502195673 0.0087945712349292906 -0.043229785293806347 0.019208688102662564 0.016001836346230494 0.050215430859708622 -0.08233657951762037 0.0016119539517197102 -0.081866072118282326 0.073953087872461132 -0.082105430931760995 -0.04273548087606964 -0.043698882552063861 -0.038291544126129 -0.063576836751511434 0.02462028719958341 -0.049092560025963412 -0.037400474426561102 -0.011844043350350615 -0.025617970162388554 0.0067801993933253729 -0.030882315270516072 -0.011896997407349411 0.039564258446815714 -0.061745647950605914 -0.053369670554995544 -0.0226740628618885 0.059639570358116671 -0.038563625589013106 -0.0014269128394173679 0.033297035002640342
leaf_weight=29 66 40 42 791 433 41 85 54 115 361 219 167 77 149 621 121 56 185 91 389 215 500 460 99 75 54 191 20 477 465
leaf_count=29 66 40 42 791 433 41 85 54 115 361 219 167 77 149 621 121 56 185 91 389 215 500 460 99 75 54 191 20 477 465
internal_value=3.98218e-11 -0.0404283 0.0260052 0.0125688 0.044624 -0.0616829 -0.0216795 -0.0712407 0.0563451 -0.0792028 -0.0307882 -0.0501861 -0.0601506 -0.0549619 0.0197922 -0.0591142 -0.0214049 -0.0177825 -0.0120454 0.00185507 -0.0368635 -0.0140097 0.0356664 -0.0677758 -0.0423136 -0.0385616 0.0531001 -0.0015479 -0.00292135 0.03213
internal_weight=6688 2618 4070 2364 1706 1227 1391 670 739 390 715 557 280 226 1412 261 281 241 676 952 434 591 967 140 296 221 624 563 497 507
internal_count=6688 2618 4070 2364 1706 1227 1391 670 739 390 715 557 280 226 1412 261 281 241 676 952 434 591 967 140 296 221 624 563 497 507
cat_boundaries=0 1
cat_threshold=2
is_linear=0
shrinkage=0.05


Tree=8
num_leaves=31
num_cat=0
split_feature=16 16 16 16 16 20 16 15 15 17 16 16 15 16 23 23 15 18 23 16 16 27 16 16 23 20 21 23 16 27
split_gain=2538.84 403.202 308.999 74.4162 72.4023 50.9291 40.6477 28.321 23.662 15.3452 15.3026 13.0874 17.2139 9.46489 9.36589 8.74477 8.24368 7.48855 9.2111 7.28468 6.28554 6.08716 5.10485 5.06178 4.54316 4.24687 4.08561 3.56886 3.50169 3.41753
threshold=694.50000000000011 2022.5000000000002 218.50000000000003 1159.5000000000002 3297.0000000000005 -804.78999999999985 410.50000000000006 12.500000000000002 57.500000000000007 2137.5599999999999 5423.5000000000009 3.5000000000000004 36.500000000000007 1502.5000000000002 6.5000000000000009 11.500000000000002 50.500000000000007 -199.54807740500618 34.500000000000007 117.50000000000001 2621.0000000000005 0.14914285714285716 1024.5000000000002 497.50000000000006 48.500000000000007 -176.97999999999999 66249.155000000013 80.500000000000014 26.500000000000004 68.414791666666687
decision_type=2 2 2 2 2 2 2 2 2 2 2 2 2 2 2 2 2 2 2 2 2 2 2 2 2 2 2 2 2 2
left_child=2 3 5 22 20 7 16 19 9 -9 -6 12 -7 26 -10 28 17 -4 -19 -1 -3 -8 -2 -23 -25 -17 -5 29 -13 -18
right_child=1 4 6 13 10 11 21 8 14 -11 -12 15 -14 -15 -16 25 27 18 -20 -21 -22 23 -24 24 -26 -27 -28 -29 -30 -31
leaf_value=-0.080175198069823692 -0.0026354484818509392 0.029842449697491537 -0.045026195067394942 0.026381507529086381 0.049715448274846918 -0.088642033562064182 0.0044356877444221114 -0.048516360205579707 -0.079470220704873418 -0.030361035171047074 0.067106661917986699 -0.088153793250233675 -0.031333884570784377 0.021300894002912088 -0.054978610425585939 -0.058471332070090476 -0.021694464913823389 0.0029300948871033537 -0.025875892226454811 -0.050673810462898539 0.037586045082577547 -0.022097249945795858 0.005304143962924157 0.010835250262171031 -0.013560068915091117 -0.081638201629674001 0.011888098036575864 -0.030141073409034765 -0.075610216390522358 -0.042380473310778918
leaf_weight=93 699 609 36 53 577 20 41 271 48 204 162 121 38 772 209 74 22 35 134 27 460 197 285 20 417 27 589 129 103 216
leaf_count=93 699 609 36 53 577 20 41 271 48 204 162 121 38 772 209 74 22 35 134 27 460 197 285 20 417 27 589 129 103 216
internal_value=5.32903e-12 0.023665 -0.0401027 0.0102227 0.0414938 -0.0578302 -0.0225458 -0.0510225 -0.0473315 -0.0407191 0.0535279 -0.0729742 -0.0510953 0.0175704 -0.0595529 -0.0768787 -0.0323521 -0.0243208 -0.0199102 -0.0735374 0.0331746 -0.0142358 -0.000335871 -0.0154432 -0.0124436 -0.0646645 0.0130846 -0.0368383 -0.082386 -0.0404683
internal_weight=6688 4206 2482 2398 1808 1235 1247 852 732 475 739 383 58 1414 257 325 572 205 169 120 1069 675 984 634 437 101 642 367 224 238
internal_count=6688 4206 2482 2398 1808 1235 1247 852 732 475 739 383 58 1414 257 325 572 205 169 120 1069 675 984 634 437 101 642 367 224 238
is_linear=0
shrinkage=0.05


Tree=9
num_leaves=31
num_cat=2
split_feature=22 16 22 16 16 16 7 7 15 22 11 23 25 23 16 24 16 16 15 26 15 22 16 23 16 22 15 18 19 26
split_gain=2292.51 348.563 320.016 66.7982 60.5452 59.2185 48.2492 18.2431 15.7768 12.3449 11.7007 12.783 11.2632 10.6317 9.90693 9.77882 9.24279 8.59519 7.64486 11.9676 9.44691 6.66751 6.34199 5.54055 5.10453 4.91196 4.8213 4.78631 4.63978 3.45718
threshold=519.50000000000011 2108.0000000000005 83.500000000000014 1219.0000000000002 410.50000000000006 3715.5000000000005 0 1 50.500000000000007 284.50000000000006 836423.06500000006 3.5000000000000004 119936.02416280688 10.500000000000002 5915.5000000000009 13053.127606507152 2959.5000000000005 1642.5000000000002 19.500000000000004 -1.0000000180025095e-35 53.500000000000007 20.500000000000004 1024.5000000000002 56.500000000000007 497.50000000000006 1.5000000000000002 19.500000000000004 12.994472796685018 3499.1375485751832 -1.0000000180025095e-35
decision_type=2 2 2 2 2 2 9 9 2 2 2 2 2 2 2 2 2 2 2 2 2 2 2 2 2 2 2 2 2 2
left_child=2 3 6 22 7 16 10 29 9 -9 11 25 -13 15 -7 -12 -3 -5 23 21 -21 -20 26 -8 -6 -1 -2 -10 -28 -4
right_child=1 5 4 17 24 14 18 8 27 -11 13 12 -14 -15 -16 -17 -18 -19 19 20 -22 -23 -24 -25 -26 -27 28 -29 -30 -31
leaf_value=-0.050061462167650464 0.016957216180162504 0.030746400362361342 -0.060573306762509875 0.014414663597536374 -0.019566323180647979 0.050382451826313263 -0.085711207628742736 -0.024344022343915205 -0.040545756794256343 0.013726579495098279 -0.036061673238873486 -0.04355684318560727 -0.068411453879837478 -0.049469096639097251 0.066900102342074011 0.009074267519172282 0.040224459929053082 0.022277464841627667 -0.090579289911935729 -0.039038393736161574 -0.070249175398864536 -0.069362312343753424 0.0061586828458417269 -0.058939805756444523 -0.01039172099357142 -0.074805060258278475 -0.022471541307609658 -0.030024242393024592 -0.0019764422793420691 -0.03755046989430081
leaf_weight=27 32 775 63 791 213 431 121 287 262 23 30 245 56 58 115 20 385 620 48 54 44 162 386 23 526 78 29 184 578 22
leaf_count=27 32 775 63 791 213 431 121 287 262 23 30 245 56 58 115 20 385 620 48 54 44 162 386 23 526 78 29 184 578 22
internal_value=9.58867e-11 0.022951 -0.0373382 0.0108127 -0.0234775 0.0402833 -0.060009 -0.0326524 -0.0301832 -0.0215194 -0.0495301 -0.053421 -0.048181 -0.0349034 0.0538614 -0.0180073 0.0338921 0.0178696 -0.0719252 -0.067479 -0.0530514 -0.0742119 0.00109837 -0.0814352 -0.0130361 -0.0684424 -0.00195842 -0.036205 -0.00295562 -0.0546145
internal_weight=6688 4142 2546 2436 1580 1706 966 841 756 310 514 406 301 108 546 50 1160 1411 452 308 98 210 1025 144 739 105 639 446 607 85
internal_count=6688 4142 2546 2436 1580 1706 966 841 756 310 514 406 301 108 546 50 1160 1411 452 308 98 210 1025 144 739 105 639 446 607 85
cat_boundaries=0 1 2
cat_threshold=2 4
is_linear=0
shrinkage=0.05


Tree=10
num_leaves=31
num_cat=6
split_feature=16 22 16 7 16 16 22 20 21 16 22 17 16 7 16 16 14 26 18 22 18 18 8 22 16 16 26 6 23 8
split_gain=2070.86 309.826 299.063 61.0784 53.4447 53.3817 35.3336 15.9656 11.386 11.0897 10.4552 9.90898 8.941 8.3545 8.34162 7.72109 6.60654 11.1654 6.55631 6.35923 5.96217 5.43851 4.70997 4.68035 4.67557 4.47318 3.09701 2.95341 6.27402 2.9084
threshold=771.50000000000011 131.50000000000003 2108.0000000000005 0 3715.5000000000005 1219.0000000000002 284.50000000000006 -681.83499999999992 517148.58000000007 189.50000000000003 43.500000000000007 14791.590000000006 5915.5000000000009 1 2959.5000000000005 1642.5000000000002 2 -1.0000000180025095e-35 -2.1500358929946137 67.500000000000014 22.990516766766792 3.9542664509169385 3 351.50000000000006 96.500000000000014 1024.5000000000002 -46.757987012987009 4 119.50000000000001 5
decision_type=2 2 2 9 2 2 2 2 2 2 2 2 2 9 2 2 1 2 2 2 2 2 9 2 2 2 2 9 2 9
left_child=1 3 5 7 14 25 9 8 11 -3 16 -1 -6 -11 -4 -7 17 -5 -9 -10 -12 -20 -15 -8 -18 27 -22 28 -2 -25
right_child=2 6 4 10 12 15 23 18 19 13 20 -13 -14 22 -16 -17 24 -19 21 -21 26 -23 -24 29 -26 -27 -28 -29 -30 -31
leaf_value=-0.040558365790084719 -0.015805368439760058 0.0091344561614096174 0.029209080238240745 -0.072063303800920644 0.047863329493218122 0.013693930430063454 -0.017537036728338406 -0.074761589722973962 -0.065437941663393381 -0.050216604219306085 -0.061957044224037187 -0.023674060756651065 0.063555096844616146 -0.028491563536939969 0.038213236817799805 0.021142837040061837 -0.078215664278629221 -0.037636295759252147 -0.038374385504942876 -0.04329380497771812 -0.051810498363696611 -0.060634574863840551 -0.011944634317757285 -0.010087755796202046 -0.056494038552045822 0.0057733778557189502 -0.025639592073857787 0.002844035797463658 -7.8441698347999915e-05 0.0027926754051198562
leaf_weight=315 88 20 775 72 431 791 224 42 56 42 107 120 115 506 385 621 215 35 46 77 26 68 47 504 28 389 20 248 227 48
leaf_count=315 88 20 775 72 431 791 224 42 56 42 107 120 115 506 385 621 215 35 46 77 26 68 47 504 28 389 20 248 227 48
internal_value=5.81796e-11 -0.0346904 0.0223144 -0.0530045 0.0382691 0.0108006 -0.0185356 -0.0437062 -0.039815 -0.0274871 -0.0663883 -0.0359006 0.0511684 -0.028718 0.0321975 0.01697 -0.0711544 -0.0608021 -0.0578741 -0.0526177 -0.0554854 -0.0516524 -0.0270852 -0.0114413 -0.0757128 0.00165013 -0.0404318 -0.00119879 -0.0043344 -0.00896772
internal_weight=6688 2618 4070 1227 1706 2364 1391 724 568 615 503 435 546 595 1160 1412 350 107 156 133 153 114 553 776 243 952 46 563 315 552
internal_count=6688 2618 4070 1227 1706 2364 1391 724 568 615 503 435 546 595 1160 1412 350 107 156 133 153 114 553 776 243 952 46 563 315 552
cat_boundaries=0 1 2 3 4 5 6
cat_threshold=2 4 2 2 36900 2
is_linear=0
shrinkage=0.05


Tree=11
num_leaves=31
num_cat=3
split_feature=16 16 22 16 16 7 22 22 23 11 23 15 7 22 25 27 23 7 27 16 15 27 15 16 16 16 16 15 26 23
split_gain=1869.04 337.004 207.03 73.7043 49.0094 39.1828 31.2932 13.3371 10.5483 10.2929 10.809 9.94249 9.60236 9.57032 9.48761 8.77962 11.976 10.3755 7.75569 7.68177 6.46653 8.33887 13.1648 6.25272 4.99723 4.94883 4.84897 4.13634 4.8116 4.13027
threshold=611.50000000000011 1749.5000000000002 83.500000000000014 3179.5000000000005 1159.5000000000002 0 200.50000000000003 4214.5000000000009 20.500000000000004 836423.06500000006 3.5000000000000004 45.500000000000007 1 284.50000000000006 106419.3878047281 0.14914285714285716 41.500000000000007 2 2.1915567765567769 2321.5000000000005 34.500000000000007 2.1915567765567769 57.500000000000007 931.50000000000011 67.500000000000014 341.50000000000006 22.500000000000004 45.500000000000007 -42.915322674418597 39.500000000000007
decision_type=2 2 2 2 2 9 2 2 2 2 2 2 9 2 2 2 2 9 2 2 2 2 2 2 2 2 2 2 2 2
left_child=2 4 5 19 23 9 15 -5 -8 10 18 -11 -10 -14 -12 16 -4 25 -1 -3 29 22 -22 27 -13 -17 -23 28 -2 -7
right_child=1 3 6 7 -6 20 8 -9 12 11 14 24 13 -15 -16 17 -18 -19 -20 -21 21 26 -24 -25 -26 -27 -28 -29 -30 -31
leaf_value=-0.047422852708647656 -0.0098700320180505514 0.022233376980910685 0.014784679822464983 0.040928663396630934 0.013275625323856491 -0.077709891759798311 0.017859663211164022 0.05487689319240853 -0.050614416294477209 -0.0086690668290590536 -0.039262673169098518 -0.020691648156692586 -0.024396292094747116 -0.012471688241183058 -0.061769517100062871 -0.033538435010852505 -0.030944485844271941 -0.052071037989210436 -0.074701114600164861 0.029824722440904967 -0.026806868539509796 -0.085108271572324978 -0.069234057798078563 0.0027466346036526378 -0.049512245906692634 -0.015287958993576468 -0.062279871221454376 -0.0067105250055867517 0.0091910610151268082 -0.061958416993729774
leaf_weight=48 50 664 22 565 1078 119 21 246 22 34 243 21 274 436 58 395 41 74 57 669 41 27 33 500 53 41 168 526 98 64
leaf_count=48 50 664 22 565 1078 119 21 246 22 34 243 21 274 436 58 395 41 74 57 669 41 27 33 500 53 41 168 526 98 64
internal_value=2.12704e-07 0.019086 -0.0366059 0.0332743 0.00557812 -0.0542119 -0.0237797 0.0451596 -0.0170793 -0.0447688 -0.048418 -0.0310502 -0.0180816 -0.0170736 -0.0435995 -0.032585 -0.0149756 -0.0347603 -0.0622311 0.0260433 -0.0649504 -0.0600176 -0.0457271 -0.00148995 -0.0413334 -0.0318222 -0.0654407 -0.00463281 0.0027515 -0.0722012
internal_weight=6688 4396 2292 2144 2252 966 1326 811 753 514 406 108 732 710 301 573 63 510 105 1333 452 269 74 1174 74 436 195 674 148 183
internal_count=6688 4396 2292 2144 2252 966 1326 811 753 514 406 108 732 710 301 573 63 510 105 1333 452 269 74 1174 74 436 195 674 148 183
cat_boundaries=0 1 2 3
cat_threshold=2 4 2
is_linear=0
shrinkage=0.05


Tree=12
num_leaves=31
num_cat=2
split_feature=16 22 16 7 16 16 16 20 19 17 15 23 19 22 16 27 16 22 23 15 22 15 14 26 24 27 16 17 23 16
split_gain=1688.8 252.453 243.581 49.5652 43.9934 43.3335 28.4227 13.7336 12.1927 12.766 11.8851 8.84675 15.0251 8.80109 8.04001 6.73471 6.70802 6.59282 6.27983 6.18171 6.02055 5.94417 5.77716 9.35224 5.7697 4.41033 4.38538 4.34757 4.17383 4.10291
threshold=771.50000000000011 131.50000000000003 2108.0000000000005 0 3880.5000000000005 1219.0000000000002 463.50000000000006 -681.83499999999992 28810.905500023113 14791.590000000006 50.500000000000007 39.500000000000007 1868.3756362258398 43.500000000000007 3179.5000000000005 2.1915567765567769 5915.5000000000009 1282.5000000000002 6.5000000000000009 13.500000000000002 67.500000000000014 36.500000000000007 1 -1.0000000180025095e-35 10442.04013623149 0.14914285714285716 322.00000000000006 3893.7249999999854 80.500000000000014 96.500000000000014
decision_type=2 2 2 9 2 2 2 2 2 2 2 2 2 2 2 2 2 2 2 2 2 2 1 2 2 2 2 2 2 2
left_child=1 3 5 7 14 -2 10 8 9 -1 11 12 -3 22 -4 19 -6 -7 -17 -9 -10 27 23 -5 -23 -15 -13 -8 -12 -24
right_child=2 6 4 13 16 17 21 15 20 -11 28 26 -14 25 -16 18 -18 -19 -20 -21 -22 24 29 -25 -26 -27 -28 -29 -30 -31
leaf_value=-0.035281185451121792 0.0015158679932540532 -0.038723326691736781 0.026982599420254456 -0.064913849170423227 0.043875640204696684 0.012039776458399019 -0.0059604900681733859 -0.062954154517501595 -0.053743323795497427 -0.012521030281204732 -0.032554379187519293 -0.030039184830247367 0.01011254418168276 -0.031150199472904205 0.03629256482072437 -0.071647297473330249 0.057645625329535946 0.018878657611099345 -0.040695367121826052 -0.032276373967313421 -0.037183501260638567 -0.023053525012572497 -0.070895466007465532 -0.033405942746571132 -0.0092083566956455368 -0.053753031461726969 -0.014976988306651557 0.015759111899792011 -0.022335628976594683 -0.050547516665288388
leaf_weight=268 952 21 895 72 383 735 64 24 105 80 278 85 63 26 313 57 115 677 23 52 115 89 215 35 487 127 112 36 156 28
leaf_count=268 952 21 895 72 383 735 64 24 105 80 278 85 63 26 313 57 115 677 23 52 115 89 215 35 487 127 112 36 156 28
internal_value=2.02008e-07 -0.0313271 0.0201513 -0.0478588 0.0345502 0.00976023 -0.0167446 -0.0394825 -0.0358736 -0.030049 -0.0236942 -0.0156828 -0.00209642 -0.0599153 0.0293949 -0.0526228 0.0470555 0.0153188 -0.0627486 -0.0419641 -0.0450871 -0.00939405 -0.0642882 -0.0546075 -0.0113476 -0.049912 -0.0214759 0.00185857 -0.0288813 -0.0685508
internal_weight=6688 2618 4070 1227 1706 2364 1391 724 568 348 715 281 84 503 1208 156 498 1412 80 76 220 676 350 107 576 153 197 100 434 243
internal_count=6688 2618 4070 1227 1706 2364 1391 724 568 348 715 281 84 503 1208 156 498 1412 80 76 220 676 350 107 576 153 197 100 434 243
cat_boundaries=0 1 2
cat_threshold=2 2
is_linear=0
shrinkage=0.05


Tree=13
num_leaves=31
num_cat=2
split_feature=22 16 22 16 16 16 7 7 15 20 15 15 16 18 21 15 26 16 20 18 16 27 15 19 24 27 16 20 22 21
split_gain=1524.82 231.266 213.937 43.7035 39.9133 35.5769 34.7308 12.3385 12.1291 10.1017 10.4384 12.8694 9.93166 9.75925 6.6866 6.40478 7.36143 6.23736 5.3527 4.654 4.29077 4.24259 3.99309 5.85874 5.47387 3.93773 6.13056 4.04916 3.67976 3.6442
threshold=519.50000000000011 2022.5000000000002 93.500000000000014 3297.0000000000005 1159.5000000000002 410.50000000000006 0 1 50.500000000000007 -118.3 57.500000000000007 13.500000000000002 5032.5000000000009 -153.01702113978038 2970.7900000000004 19.500000000000004 -1.0000000180025095e-35 1502.5000000000002 -1.0000000180025095e-35 14.285778462578682 2621.0000000000005 2.1915567765567769 19.500000000000004 5326.9047361244284 5026.5340361172903 193.77573308270681 530.50000000000011 -37002.384999999995 744.50000000000011 66249.155000000013
decision_type=2 2 2 2 2 2 9 9 2 2 2 2 2 2 2 2 2 2 2 2 2 2 2 2 2 2 2 2 2 2
left_child=2 4 6 20 22 7 9 -4 13 10 11 -1 -5 -9 -8 -16 -17 29 -11 -10 -3 -12 -2 24 -24 -7 27 -27 -25 -6
right_child=1 3 5 12 17 25 14 8 19 18 21 -13 -14 -15 15 16 -18 -19 -20 -21 -22 -23 23 28 -26 26 -28 -29 -30 -31
leaf_value=-0.050371251881084836 0.016313105902156313 0.022925200755382954 -0.044717571733495859 0.037839280507219859 0.022515941998165735 -0.0055962409075549936 -0.064266619934090261 -0.037898286057332919 -0.033652235094147429 -0.064213129527995294 -0.026619906201958657 -0.026697351954180704 0.050691131848309728 -0.012056414098881278 -0.064722190083752226 -0.054702975911398735 -0.032268694317654563 0.016629712044454063 -0.037262435698950734 -0.022920594612574754 0.029323125858968326 -0.051395689195212646 0.0036174258869520956 -0.0020922482160048023 -0.02744446981295541 -0.017647233029334422 -0.0087798264763570572 -0.040443688055331058 0.0047233816314336714 0.0088278388960290142
leaf_weight=74 37 609 79 529 53 251 232 43 249 58 20 256 210 243 71 102 57 771 27 170 460 127 23 493 37 170 295 22 331 589
leaf_count=74 37 609 79 529 53 251 232 43 249 58 20 256 210 243 71 102 57 771 27 170 460 127 23 493 37 170 295 22 331 589
internal_value=1.91938e-07 0.018718 -0.0304512 0.0321417 0.00831952 -0.0185627 -0.0481213 -0.0259795 -0.0238798 -0.0397724 -0.0369427 -0.032006 0.0414914 -0.0159417 -0.0582774 -0.0522361 -0.0466605 0.0135983 -0.0556523 -0.0292981 0.0256783 -0.0480248 0.00022074 -0.00045281 -0.0155374 -0.0106836 -0.0133056 -0.0202593 0.000645584 0.00995785
internal_weight=6688 4142 2546 1808 2334 1522 1024 784 705 562 477 330 739 286 462 230 159 1413 85 419 1069 147 921 884 60 738 487 192 824 642
internal_count=6688 4142 2546 1808 2334 1522 1024 784 705 562 477 330 739 286 462 230 159 1413 85 419 1069 147 921 884 60 738 487 192 824 642
cat_boundaries=0 1 2
cat_threshold=2 4
is_linear=0
shrinkage=0.05


Tree=14
num_leaves=31
num_cat=3
split_feature=22 22 22 22 22 22 7 22 27 15 23 22 18 23 22 7 23 23 7 24 23 22 23 15 24 21 23 15 26 26
split_gain=1376.4 251.825 143.65 62.6705 25.5211 23.9278 22.9859 9.74006 9.49031 16.1332 11.1672 8.88981 8.81068 9.01439 8.48974 8.11775 8.55823 7.08369 6.83431 6.7932 6.33989 6.22854 6.22693 6.74437 5.84434 5.19729 4.97031 4.64201 6.50023 4.30939
threshold=403.50000000000006 1282.5000000000002 67.500000000000014 2780.0000000000005 200.50000000000003 761.50000000000011 0 4214.5000000000009 0.14914285714285716 14.500000000000002 3.5000000000000004 10.500000000000002 -2.1500358929946137 18.500000000000004 1934.5000000000002 1 24.500000000000004 37.500000000000007 2 9659.9117175152242 102.50000000000001 284.50000000000006 140.50000000000003 45.500000000000007 2126.5724509803927 2970.7900000000004 290.50000000000006 13.500000000000002 -1.0000000180025095e-35 -1.0000000180025095e-35
decision_type=2 2 2 2 2 2 9 2 2 2 2 2 2 2 2 9 2 2 9 2 2 2 2 2 2 2 2 2 2 2
left_child=2 5 6 14 12 22 8 -5 9 11 -10 -1 18 19 -3 -6 -17 -11 -4 -14 -15 -18 23 29 -12 -8 -7 -27 -29 -2
right_child=1 3 4 7 15 26 25 -9 10 17 24 -13 13 20 -16 16 21 -19 -20 -21 -22 -23 -24 -25 -26 27 -28 28 -30 -31
leaf_value=-0.071885391662794132 -0.002893883555556055 0.018554718239645118 -0.03134515568737372 0.035122768156555774 -0.045185166800563989 0.0063482864045197032 -0.061939197224160851 0.047232116848169789 -0.06420578689329208 -0.009971742043335452 -0.053879520059402643 -0.032928408798761667 -0.019688498446881336 -0.030506954417961769 0.025906265352697883 0.016350618207996544 -0.021043334485274619 -0.042337735826996244 -0.049766063209502928 0.011422202376914877 -0.0088142864453868985 -0.011112737075346537 0.0011786632451844525 -0.010956191180199325 -0.035337591578352194 -0.063906343391165132 0.014011590924637857 -0.053704489514763865 -0.031400529584106135 0.018065421366276601
leaf_weight=27 88 941 268 511 22 866 219 246 63 73 58 32 47 247 674 22 276 22 62 28 39 369 512 306 159 50 280 98 49 34
leaf_count=27 88 941 268 511 22 866 219 246 63 73 58 32 47 247 674 22 276 22 62 28 39 369 512 306 159 50 280 98 49 34
internal_value=1.82318e-07 0.0160428 -0.0320707 0.027187 -0.0221112 0.00337071 -0.0482404 0.0390579 -0.0401904 -0.0302207 -0.0456738 -0.0507562 -0.0289009 -0.0235028 0.0216228 -0.0153018 -0.0143161 -0.017467 -0.0348061 -0.00807384 -0.0275489 -0.0153621 -0.00254208 -0.00699307 -0.0402935 -0.0566386 0.00822065 -0.0507461 -0.0462698 0.00294723
internal_weight=6688 4458 2230 2372 1380 2086 850 757 434 154 280 59 691 361 1615 689 667 95 330 75 286 645 940 428 217 416 1146 197 147 122
internal_count=6688 4458 2230 2372 1380 2086 850 757 434 154 280 59 691 361 1615 689 667 95 330 75 286 645 940 428 217 416 1146 197 147 122
cat_boundaries=0 1 2 3
cat_threshold=2 4 2
is_linear=0
shrinkage=0.05


Tree=15
num_leaves=31
num_cat=3
split_feature=16 22 16 7 16 16 22 15 27 23 27 7 11 16 16 21 15 23 26 15 16 15 16 23 6 16 16 27 22 26
split_gain=1244.13 187.053 180.304 40.5556 39.0332 25.8858 16.3487 10.9757 12.7995 19.25 7.89392 9.95709 7.65701 7.51814 7.44846 6.35162 6.07495 9.22732 5.7755 12.1238 5.25606 4.71063 3.76599 3.29992 2.97184 4.85013 2.58441 2.57223 2.4012 2.38553
threshold=771.50000000000011 149.50000000000003 2321.5000000000005 0 1219.0000000000002 3880.5000000000005 351.50000000000006 10.500000000000002 0.83115384615384624 3.5000000000000004 1.0000000180025095e-35 1 180475.67500000002 1749.5000000000002 96.500000000000014 4782.3050000000012 48.500000000000007 54.500000000000007 -1.0000000180025095e-35 21.500000000000004 5915.5000000000009 18.500000000000004 3179.5000000000005 109.50000000000001 2 853.50000000000011 31.500000000000004 3.6503947368421055 20.500000000000004 -34.820435897435893
decision_type=2 2 2 9 2 2 2 2 2 2 2 9 2 2 2 2 2 2 2 2 2 2 2 2 9 2 2 2 2 2
left_child=1 3 4 7 24 22 10 28 12 -10 21 -12 -9 -6 18 -13 17 -8 26 -20 -7 -3 -4 -18 25 -2 -5 -19 -1 -27
right_child=2 6 5 14 13 20 16 8 9 -11 11 15 -14 -15 -16 -17 23 27 19 -21 -22 -23 -24 -25 -26 29 -28 -29 -30 -31
leaf_value=-0.070443452261388304 -0.021759603284017156 -0.017861358027743256 0.024390902389460404 -0.067509023782233113 0.011223374988185243 0.037688755694970245 0.027436861947730734 -0.0272231372566294 -0.061166758502905184 -0.032255303396105155 -0.044625044163120423 -0.040777985459814474 -0.0054272107080484203 0.018122892781189351 -0.041900492938149056 -0.017228310445385132 -0.015564700596889983 0.0087451797879991994 -0.070431553678853176 -0.03514902829017956 0.049877712318430779 0.011437019245589481 0.031035671213391826 -0.0060657981845693909 0.0027040474565562357 0.003242848427448495 -0.056189459153108468 -0.007307148576273903 -0.046754862756832792 -0.0098564157839864507
leaf_weight=20 33 23 669 71 974 383 27 132 65 504 38 30 58 664 151 628 178 31 35 80 115 34 313 188 755 114 174 128 23 50
leaf_count=20 33 23 669 71 974 383 27 132 65 504 38 30 58 664 151 628 178 31 35 80 115 34 313 188 755 114 174 128 23 50
internal_value=1.73249e-07 -0.0268884 0.0172961 -0.0402126 0.00934076 0.0312178 -0.0134826 -0.0331982 -0.031806 -0.035558 -0.0182741 -0.0197392 -0.0205696 0.0140202 -0.0512213 -0.018302 -0.00694621 0.000411725 -0.0551309 -0.0458872 0.0405035 -0.000385133 0.0265088 -0.0106855 0.00128928 -0.00406378 -0.0594698 -0.00417745 -0.0577728 -0.00075083
internal_weight=6688 2618 4070 1313 2590 1480 1305 802 759 569 753 696 190 1638 511 658 552 186 360 115 498 57 982 366 952 197 245 159 43 164
internal_count=6688 2618 4070 1313 2590 1480 1305 802 759 569 753 696 190 1638 511 658 552 186 360 115 498 57 982 366 952 197 245 159 43 164
cat_boundaries=0 1 2 3
cat_threshold=2 4 36868
is_linear=0
shrinkage=0.05


Tree=16
num_leaves=31
num_cat=2
split_feature=16 22 16 16 7 16 16 20 15 19 15 26 24 23 16 15 27 15 16 16 23 27 20 22 23 16 8 23 26 27
split_gain=1122.85 169.002 162.716 35.2192 32.5232 23.362 18.726 10.2277 9.79317 8.3374 10.9547 8.17278 10.0954 10.0942 6.78512 6.40373 6.42297 12.9245 6.17128 4.82708 4.43854 4.06405 3.99207 3.7039 3.67125 3.3988 2.9835 3.74896 3.90684 2.94941
threshold=771.50000000000011 131.50000000000003 2321.5000000000005 1219.0000000000002 0 3880.5000000000005 497.50000000000006 -118.3 50.500000000000007 53776.008563071344 13.500000000000002 -1.0000000180025095e-35 773.18003342246004 46.500000000000007 1749.5000000000002 31.500000000000004 0.39530487804878051 53.500000000000007 117.50000000000001 7069.5000000000009 80.500000000000014 0.83115384615384624 -1.0000000180025095e-35 67.500000000000014 39.500000000000007 3179.5000000000005 1 119.50000000000001 -307.38117647058817 24.307143774069321
decision_type=2 2 2 2 9 2 2 2 2 2 2 2 2 2 2 2 2 2 2 2 2 2 2 2 2 2 9 2 2 2
left_child=1 4 3 26 7 25 8 9 11 10 -1 12 -3 -13 -5 24 17 -17 -18 -7 29 -8 -9 -11 -6 -4 27 28 -2 -10
right_child=2 6 5 14 15 19 21 22 20 23 -12 13 -14 -15 -16 16 18 -19 -20 -21 -22 -23 -24 -25 -26 -27 -28 -29 -30 -31
leaf_value=-0.043494505733251573 0.0027273899966442005 -0.050023213871754707 0.023171357254000727 0.010662206250863931 -0.062356073249166255 0.036926789911439183 0.0091270683780060834 -0.05597215928137303 -0.0092646461657502448 -0.047215214665842858 -0.023169603813812618 0.033466147314757111 -0.01292705851484815 -0.008812767793036377 0.01721674818383186 -0.013757717319179415 -0.053681695221938899 -0.053779209836533198 -0.036260743837961011 0.054096837010648519 -0.017063365502969087 -0.0079825995528491536 -0.032697534884533121 -0.03252474371964733 -0.047290252636258419 0.029483888019322637 0.011086160677131003 0.0021877628944386041 -0.011531290698370993 -0.028290230030363257
leaf_weight=80 82 20 669 974 107 453 37 58 22 82 387 20 221 48 664 43 179 38 71 45 188 560 27 90 65 313 71 683 116 275
leaf_count=80 82 20 669 974 107 453 37 58 22 82 387 20 221 48 664 43 179 38 71 45 188 560 27 90 65 313 71 683 116 275
internal_value=3.66723e-07 -0.025544 0.0164316 0.00887424 -0.0390701 0.029657 -0.0136126 -0.0322849 -0.0186431 -0.0301175 -0.0266514 -0.0116862 -0.0160056 0.00362221 0.0133192 -0.0488364 -0.0447696 -0.0325332 -0.0487341 0.0384783 -0.0230754 -0.0069222 -0.048579 -0.0395283 -0.0566626 0.0251834 0.00122624 0.000431621 -0.00562618 -0.0268809
internal_weight=6688 2618 4070 2590 1227 1480 1391 724 794 639 467 309 241 68 1638 503 331 81 250 498 485 597 85 172 172 982 952 881 198 297
internal_count=6688 2618 4070 2590 1227 1480 1391 724 794 639 467 309 241 68 1638 503 331 81 250 498 485 597 85 172 172 982 952 881 198 297
cat_boundaries=0 1 2
cat_threshold=2 2
is_linear=0
shrinkage=0.05


Tree=17
num_leaves=31
num_cat=3
split_feature=22 22 22 22 22 22 7 18 23 27 20 15 15 23 23 22 25 6 22 6 23 27 15 25 20 27 20 27 23 18
split_gain=1014.1 150.095 143.27 29.2112 25.6104 22.9061 22.7078 8.09593 8.17394 9.6393 7.41748 9.29723 9.68954 6.41147 5.55874 5.3706 4.84757 4.35189 4.30378 3.69049 5.71645 4.47799 4.42873 8.04454 3.60284 3.51924 3.44934 3.40873 3.14281 3.07525
threshold=519.50000000000011 1636.5000000000002 93.500000000000014 3399.0000000000005 1090.5000000000002 284.50000000000006 0 14.285778462578682 31.500000000000004 189.68177500000002 -118.3 57.500000000000007 13.500000000000002 80.500000000000014 215.50000000000003 2366.0000000000005 2770.6334295729034 1 7637.5000000000009 2 109.50000000000001 24.307143774069321 50.500000000000007 183128.93513692511 -1.0000000180025095e-35 0.59000000000000019 -226878.215 2.1915567765567769 96.500000000000014 163.41916815642847
decision_type=2 2 2 2 2 2 9 2 2 2 2 2 2 2 2 2 2 9 2 9 2 2 2 2 2 2 2 2 2 2
left_child=2 4 6 15 14 7 10 13 9 -9 11 12 -1 25 17 -3 29 -2 -5 20 21 -7 23 -21 -12 -4 -19 -13 -10 -8
right_child=1 3 5 18 -6 19 16 8 28 -11 24 27 -14 -15 -16 -17 -18 26 -20 22 -22 -23 -24 -25 -26 -27 -28 -29 -30 -31
leaf_value=-0.04139437043529659 0.0024709119552392272 0.019538494005484686 -0.014851780368813447 0.035681111362135746 0.013204137931688821 -0.0023700345115503299 -0.050427725438442497 0.014608894984915174 -0.022485038489874831 -0.026564201677129386 -0.053173552877430266 -0.021390171460807322 -0.020852372734407255 -0.016194491864366507 0.0068562597967268511 0.025984203747053326 -0.041967944123130735 -0.0011894601672427327 0.058323146538300952 0.01419127638978155 -0.0061357958906535217 -0.020974258171384482 -0.0084675082353294472 -0.018442785721988635 -0.03106265743435533 -0.03027745771860782 -0.013336561837786576 -0.043598106850532628 -0.010555717696594757 -0.069256093973914787
leaf_weight=74 632 755 42 456 960 40 225 44 169 21 58 20 256 154 490 565 213 174 22 69 243 169 154 26 27 309 88 127 82 24
leaf_count=74 632 755 42 456 960 40 225 44 169 21 58 20 256 154 490 565 213 174 22 69 243 169 154 26 27 309 88 127 82 24
internal_value=3.48287e-07 0.015265 -0.0248332 0.0261326 0.00692887 -0.0151043 -0.0392934 -0.0207723 -0.0144956 0.00130682 -0.0325425 -0.0301177 -0.0254588 -0.0246999 0.00257609 0.0222975 -0.0475055 0.000230136 0.0367232 -0.00846613 -0.0111049 -0.0174136 -0.00310545 0.00525985 -0.0461501 -0.0284317 -0.00507567 -0.0405766 -0.0185878 -0.0522425
internal_weight=6688 4142 2546 1798 2344 1522 1024 821 316 65 562 477 330 505 1384 1320 462 894 478 701 452 209 249 95 85 351 262 147 251 249
internal_count=6688 4142 2546 1798 2344 1522 1024 821 316 65 562 477 330 505 1384 1320 462 894 478 701 452 209 249 95 85 351 262 147 251 249
cat_boundaries=0 1 2 3
cat_threshold=2 132410 5157
is_linear=0
shrinkage=0.05


Tree=18
num_leaves=31
num_cat=6
split_feature=16 16 16 16 7 16 16 20 20 18 16 16 7 8 26 3 16 18 18 19 21 16 20 16 4 25 25 24 26 8
split_gain=915.704 133.138 127.957 28.8127 27.8657 19.0867 17.6339 9.50292 15.6283 10.1021 6.57444 6.4866 6.13681 6.2158 4.8234 9.90452 4.25024 4.08218 3.8902 3.36744 3.33241 2.84027 2.73144 2.72295 2.61616 8.35742 6.32978 4.51995 2.64392 2.57707
threshold=771.50000000000011 2321.5000000000005 218.50000000000003 1159.5000000000002 0 3880.5000000000005 410.50000000000006 -681.83499999999992 -137452.84499999997 1753.6731805159779 1642.5000000000002 96.500000000000014 1 2 -1.0000000180025095e-35 3 5915.5000000000009 -2.6900856950067475 3.9542664509169385 8108.9831215024014 3314.4800000000005 3179.5000000000005 -999850.85499999986 322.00000000000006 4 9672.216956825705 90003.261403437718 875.95682258064528 -4.5759523809523799 5
decision_type=2 2 2 2 9 2 2 2 2 2 2 2 9 9 2 9 2 2 2 2 2 2 2 2 1 2 2 2 2 9
left_child=2 3 4 29 7 21 12 8 22 -10 -5 14 19 20 -6 -16 -7 -9 -19 -4 -14 -3 -1 -15 26 28 27 -8 -26 -2
right_child=1 5 6 10 11 16 24 17 9 -11 -12 -13 13 23 15 -17 -18 18 -20 -21 -22 -23 -24 -25 25 -27 -28 -29 -30 -31
leaf_value=-0.045706893641215107 -0.00033652707688086098 0.020919126206198055 -0.049912110778192686 0.0086941834296588912 -0.051344071775674821 0.03224430887194079 -0.018082937460858376 -0.054112812773221067 -0.021837356759924084 0.011662850373735031 0.014839865631196629 -0.034914471280007138 -0.039507110193371775 -0.011438022390007973 -0.061579944806940415 -0.029424567529241798 0.043205135127772458 -0.025082495866174049 -0.042966834708075864 -0.02213252265006304 -0.018660436704307816 0.026689719027890187 -0.032961753770286421 0.012984432847726914 -0.043639118224382406 -0.007923849121036176 -0.019409326230510116 0.0078717617118784881 -0.018237488549202679 0.010174035396988667
leaf_weight=65 785 669 24 895 245 383 20 36 361 24 847 147 20 25 34 81 115 55 68 20 462 313 119 21 21 607 39 104 20 63
leaf_count=65 785 669 24 895 245 383 20 36 361 24 847 147 20 25 34 81 115 55 68 20 462 313 119 21 21 607 39 104 20 63
internal_value=5.15741e-07 0.0148389 -0.0230676 0.00800288 -0.0347651 0.026802 -0.0126218 -0.0284974 -0.0254776 -0.019749 0.0116824 -0.043765 -0.0193445 -0.0178495 -0.0473789 -0.0389314 0.0347754 -0.039304 -0.0349698 -0.037285 -0.0195254 0.0227584 -0.0374641 -0.000288641 -0.00788028 -0.00925676 -0.00173387 0.00368552 -0.0312481 0.000444328
internal_weight=6688 4070 2618 2590 1235 1480 1383 728 569 385 1742 507 572 528 360 115 498 159 123 44 482 982 184 46 811 648 163 124 41 848
internal_count=6688 4070 2618 2590 1235 1480 1383 728 569 385 1742 507 572 528 360 115 498 159 123 44 482 982 184 46 811 648 163 124 41 848
cat_boundaries=0 1 2 3 4 5 6
cat_threshold=2 4 2 8 4 2
is_linear=0
shrinkage=0.05


Tree=19
num_leaves=31
num_cat=3
split_feature=16 16 16 16 16 17 16 21 15 26 16 16 16 23 17 16 6 15 24 0 21 16 15 16 6 23 16 24 15 15
split_gain=826.843 149.933 82.3419 32.6745 22.4787 16.2403 15.4367 8.26628 9.03213 10.8855 7.34456 9.85278 6.80681 6.61132 6.51208 5.9273 4.99919 5.70726 6.95968 4.82105 4.20375 3.56824 3.93726 3.43634 3.40388 5.34351 4.60045 3.86304 2.70247 4.60393
threshold=611.50000000000011 1749.5000000000002 152.50000000000003 3179.5000000000005 1024.5000000000002 11306.335000000001 322.00000000000006 217433.47000000003 13.500000000000002 -44.79055263157894 26.500000000000004 1.5000000000000002 5032.5000000000009 20.500000000000004 -407.6749999999999 52.500000000000007 0 50.500000000000007 61581.637790261091 1 5119.4300000000012 472.50000000000006 17.500000000000004 2321.5000000000005 2 73.500000000000014 1502.5000000000002 19192.747298786013 19.500000000000004 16.500000000000004
decision_type=2 2 2 2 2 2 2 2 2 2 2 2 2 2 2 2 9 2 2 9 2 2 2 2 9 2 2 2 2 2
left_child=2 4 5 23 -2 10 13 8 -7 -10 11 -1 -5 19 20 -16 21 18 -18 -4 -12 22 -8 -3 25 -6 27 -26 29 -15
right_child=1 3 6 12 24 7 16 -9 9 -11 14 -13 -14 28 15 -17 17 -19 -20 -21 -22 -23 -24 -25 26 -27 -28 -29 -30 -31
leaf_value=-0.019427480918044845 -0.0025003817102463139 0.014795833051236943 -0.017649795320865354 0.027364340571286824 0.034214021967702804 -0.043802761659026149 0.001120543330097976 -0.037237647503836832 -0.024154127151649891 0.0065937773728708057 -0.049409292209329027 -0.050186226967258885 0.037821294923640038 -0.023128866958186816 -0.040229853868339827 -0.025453852493685661 0.015303766001658193 -0.011020602553272786 -0.011240891629808345 0.011353684508282206 -0.036169357628463523 -0.0097965800239049432 -0.020547286153882488 0.019873169853761447 -0.0097491354244994 0.0092323449086644839 0.011427349568269615 0.0037109693878809823 -0.025689670766364532 0.0037988242862576787
leaf_weight=30 889 664 38 601 22 24 23 67 63 53 99 197 210 57 103 199 58 169 43 23 152 204 237 669 64 792 166 319 431 22
leaf_count=30 889 664 38 601 22 24 23 67 63 53 99 197 210 57 103 199 58 169 43 23 152 204 237 669 64 792 166 319 431 22
internal_value=4.89916e-07 0.0126949 -0.024347 0.0221586 0.00368503 -0.0352444 -0.0161052 -0.0227943 -0.0158822 -0.0101055 -0.0385484 -0.0461212 0.0300721 -0.0222707 -0.0354399 -0.0304933 -0.0113088 -0.00520793 0.00400258 -0.00671406 -0.0413915 -0.0144355 -0.0186305 0.017344 0.00771938 0.00978729 0.00439498 0.00146176 -0.0241314 -0.01563
internal_weight=6688 4396 2292 2144 2252 987 1305 207 140 116 780 227 811 571 553 302 734 270 101 61 251 464 260 1333 1363 814 549 383 510 79
internal_count=6688 4396 2292 2144 2252 987 1305 207 140 116 780 227 811 571 553 302 734 270 101 61 251 464 260 1333 1363 814 549 383 510 79
cat_boundaries=0 1 2 3
cat_threshold=39968 2 133552
is_linear=0
shrinkage=0.05


Tree=20
num_leaves=31
num_cat=4
split_feature=22 16 22 16 16 7 7 22 27 15 27 16 27 22 16 16 16 16 23 6 23 27 23 16 21 15 7 19 22 16
split_gain=747.197 140.758 81.1869 29.4887 21.807 14.9985 12.6283 10.2973 7.56025 11.9349 8.3685 10.6774 7.36223 7.30665 6.61386 6.29929 5.78432 5.16902 4.45422 4.16599 5.13436 6.76906 4.02619 3.78701 3.73471 3.36965 4.34989 3.27211 3.23867 3.14884
threshold=403.50000000000006 1749.5000000000002 67.500000000000014 3179.5000000000005 1024.5000000000002 0 1 200.50000000000003 0.14914285714285716 14.500000000000002 18.763095238095239 71.500000000000014 172.48626180836712 10.500000000000002 75.500000000000014 4504.0000000000009 112.50000000000001 63.500000000000007 104.50000000000001 2 119.50000000000001 2.9450000000000003 76.500000000000014 530.50000000000011 2970.7900000000004 13.500000000000002 3 16.110695958084026 1090.5000000000002 2475.5000000000005
decision_type=2 2 2 2 2 9 9 2 2 2 2 2 2 2 2 2 2 2 2 9 2 2 2 2 2 2 9 2 2 2
left_child=2 4 6 29 19 -4 8 16 9 13 17 -12 -9 -1 -11 -5 -7 -10 -18 22 21 -21 -2 -14 27 -26 -27 -8 -6 -3
right_child=1 3 5 15 28 7 24 12 10 14 11 -13 23 -15 -16 -17 18 -19 -20 20 -22 -23 -24 -25 25 26 -28 -29 -30 -31
leaf_value=-0.05773826860995205 0.019406471868483901 0.014554696768430337 -0.033348517917931593 0.025138250617494824 0.0050912986772461187 0.00038878567649849828 -0.033574506822042167 -0.003263457112819855 -0.052794372320175177 -0.0031379626933485272 -0.01514335552997449 -0.040676377252734541 -0.01683243030987663 -0.022420093248365448 -0.035498353093862532 0.03422941903089511 -0.022400892565074174 -0.030715308362254647 -0.0097914355239126748 0.016819172119721584 -0.00079833476831769792 -0.011375467807959791 0.00069394956509675337 -0.0057558608815387489 -0.048227500624954706 -0.039755194748361269 -0.021913772247110806 -0.049392434682010274 0.009986053175840174 0.01954922634467381
leaf_weight=27 34 820 116 505 740 35 40 239 75 75 85 79 327 32 20 306 480 41 82 23 423 286 186 101 50 93 54 179 622 513
leaf_count=27 34 820 116 505 740 35 40 239 75 75 85 79 327 32 20 306 480 41 82 23 423 286 186 101 50 93 54 179 622 513
internal_value=4.65448e-07 0.0118206 -0.0236292 0.0210507 0.0032686 -0.0161418 -0.0357852 -0.0145627 -0.0298185 -0.0209201 -0.0347126 -0.0274428 -0.0102931 -0.0385826 -0.00995068 0.0285685 -0.0193329 -0.0449906 -0.0205611 -0.00253713 -0.00431838 -0.00927684 0.00342998 -0.0142186 -0.04201 -0.037015 -0.0332012 -0.0465033 0.00732664 0.0164768
internal_weight=6688 4458 2230 2144 2314 1380 850 1264 434 154 280 164 667 59 95 811 597 116 562 952 732 309 220 428 416 197 147 219 1362 1333
internal_count=6688 4458 2230 2144 2314 1380 850 1264 434 154 280 164 667 59 95 811 597 116 562 952 732 309 220 428 416 197 147 219 1362 1333
cat_boundaries=0 1 2 3 4
cat_threshold=4 2 131354 4
is_linear=0
shrinkage=0.05


Tree=21
num_leaves=31
num_cat=6
split_feature=22 16 22 16 16 16 7 27 23 7 27 3 23 22 18 19 19 16 16 27 6 16 21 23 27 20 16 6 14 26
split_gain=675.091 103.215 96.85 19.878 17.9563 16.9789 14.5855 9.11185 18.4089 8.77754 6.33214 10.6611 8.90809 7.67468 5.13841 5.12839 4.46016 3.84797 3.76116 3.44858 3.37866 4.03115 3.32112 3.07208 2.90977 4.01959 2.79694 3.82975 2.78493 4.26648
threshold=519.50000000000011 2022.5000000000002 83.500000000000014 3715.5000000000005 1159.5000000000002 410.50000000000006 0 1.0000000180025095e-35 41.500000000000007 1 0.39530487804878051 2 3.5000000000000004 8.5000000000000018 -153.01702113978038 25898.482776085995 104119.12768626191 8739.0000000000018 2673.5000000000005 134.68482692307694 3 853.50000000000011 2970.7900000000004 64.500000000000014 334.14787500000006 -55478.619999999988 1502.5000000000002 4 5 -77.085813829787227
decision_type=2 2 2 2 2 2 9 2 2 9 2 9 2 2 2 2 2 2 2 2 9 2 2 2 2 2 2 9 1 2
left_child=2 4 6 18 20 7 10 8 -4 14 11 15 -12 -13 -9 -1 -14 -5 -3 -11 21 -2 -8 -10 -7 -26 27 -6 29 -22
right_child=1 3 5 17 26 24 22 9 23 19 12 13 16 -15 -16 -17 -18 -19 -20 -21 28 -23 -24 -25 25 -27 -28 -29 -30 -31
leaf_value=0.0028415510981259023 -0.016329547213310185 0.015359148435173615 0.03036402575671673 0.028533312135806149 0.010538109587966728 -0.0045925745880878019 -0.043477077912781152 -0.024188696973213047 -0.033618865119801326 -0.048738784591356915 -0.047889144316552182 -0.049388780488687403 -0.02394030284901549 -0.019743365583727596 -0.014458576365293678 -0.025722071875564079 -0.0398309676586227 0.049878744781017309 0.020823381005912411 -0.027430962747894229 0.0015383828998126678 -0.0015047631902911501 -0.034903152575305497 -0.0088411703236112062 -0.0087275227753490035 -0.026176945056374135 0.011078770549837427 0.0025964095481762089 0.0035916228057507786 -0.019558856161311269
leaf_weight=55 58 658 29 524 308 450 231 189 22 27 63 34 224 61 481 22 55 22 604 64 76 219 221 29 251 38 771 334 533 35
leaf_count=55 58 658 29 524 308 450 231 189 22 27 63 34 224 61 481 22 55 22 604 64 76 219 221 29 251 38 771 334 533 35
internal_value=4.42154e-07 0.012455 -0.0202614 0.0214228 0.00550816 -0.0126362 -0.0327332 -0.0174949 -0.00144315 -0.0191823 -0.0269718 -0.0191463 -0.0309074 -0.0303533 -0.0172033 -0.00531948 -0.0270729 0.0293934 0.0179744 -0.0337531 7.60426e-05 -0.00444828 -0.039285 -0.0195296 -0.00710689 -0.0110219 0.00904884 0.00661103 0.00205916 -0.0051139
internal_weight=6688 4142 2546 1808 2334 1580 966 841 80 761 514 172 342 95 670 77 279 546 1262 91 921 277 452 51 739 289 1413 642 644 111
internal_count=6688 4142 2546 1808 2334 1580 966 841 80 761 514 172 342 95 670 77 279 546 1262 91 921 277 452 51 739 289 1413 642 644 111
cat_boundaries=0 1 2 3 4 5 6
cat_threshold=2 2 4 39109 48 1
is_linear=0
shrinkage=0.05


Tree=22
num_leaves=31
num_cat=3
split_feature=16 16 16 7 16 16 16 15 15 20 7 27 20 15 27 15 17 15 16 20 16 19 15 17 16 16 6 17 15 25
split_gain=609.654 88.4801 85.2444 19.415 16.4675 15.7451 11.4532 8.7853 10.677 9.64859 6.45574 7.27191 5.37121 4.99605 7.83525 14.3634 4.29785 5.16799 4.26264 3.50203 3.31538 3.29333 3.20597 4.02017 3.145 3.028 3.49418 2.9394 2.79444 2.78743
threshold=771.50000000000011 2108.0000000000005 218.50000000000003 0 3880.5000000000005 1159.5000000000002 497.50000000000006 55.500000000000007 12.500000000000002 -118.3 1 176.54710714285719 -12466.239999999998 31.500000000000004 0.39530487804878051 53.500000000000007 308.90999999999997 74.500000000000014 22.500000000000004 -22490.159999999996 6572.5000000000009 8108.9831215024014 34.500000000000007 3236.9750000000008 2673.5000000000005 1502.5000000000002 2 -119798.26000000005 39.500000000000007 9672.216956825705
decision_type=2 2 2 9 2 2 2 2 2 2 9 2 2 2 2 2 2 2 2 2 2 2 2 2 2 2 9 2 2 2
left_child=2 5 3 7 24 -2 10 8 -1 -10 21 19 -13 -5 15 -15 27 -18 -16 -12 -6 -4 23 -8 28 26 -7 -9 -3 -24
right_child=1 4 6 13 20 25 22 16 9 -11 11 12 -14 14 18 -17 17 -19 -20 -21 -22 -23 29 -25 -26 -27 -28 -29 -30 -31
leaf_value=-0.036302171734710918 0.00039016548917042535 0.0034680913411536994 -0.044649924740195274 -0.042807751568711125 0.026815582534926403 0.0015496760417322364 -0.003540993461986849 -0.023032163387095489 -0.01302388636972493 -0.034859324345696656 -0.011467061822178666 -0.015743223929612821 -0.042224185392260555 0.00011335422129680713 -0.054075839442591513 -0.041635040093311357 -0.028997969245934424 -0.0010078685963526368 -0.034277319375476144 9.3653074081725732e-05 0.038696843259693949 -0.018124919316985393 -0.021786611879776634 0.021521952428156511 0.019988832333049471 0.010813169250388572 0.0092549221934327148 -0.041727608046249337 0.015972195940135374 -0.0055733289340759691
leaf_weight=78 848 49 25 172 430 261 48 27 355 59 154 450 20 45 31 38 94 20 221 114 68 22 28 24 652 874 381 95 507 498
leaf_count=78 848 49 25 172 430 261 48 27 355 59 154 450 20 45 31 38 94 20 221 114 68 22 28 24 652 874 381 95 507 498
internal_value=1.40197e-06 0.0121088 -0.018821 -0.0283687 0.020787 0.00584611 -0.0102951 -0.023137 -0.0193328 -0.0161357 -0.0142665 -0.0131222 -0.0168701 -0.0358809 -0.0323244 -0.0190004 -0.0310676 -0.0240874 -0.0367129 -0.00654944 0.0284379 -0.032234 -0.00508191 0.00481332 0.0176329 0.00889799 0.00629071 -0.0375901 0.0148702 -0.00643639
internal_weight=6688 4070 2618 1235 1706 2364 1383 728 492 414 785 738 470 507 335 83 236 114 252 268 498 47 598 72 1208 1516 642 122 556 526
internal_count=6688 4070 2618 1235 1706 2364 1383 728 492 414 785 738 470 507 335 83 236 114 252 268 498 47 598 72 1208 1516 642 122 556 526
cat_boundaries=0 1 2 3
cat_threshold=2 4 38028
is_linear=0
shrinkage=0.05


Tree=23
num_leaves=31
num_cat=3
split_feature=22 22 22 22 7 22 7 22 27 15 27 21 18 20 22 18 27 22 22 15 26 20 14 26 22 24 27 22 18 27
split_gain=550.424 101.304 60.974 25.3128 10.8896 9.51007 9.1117 7.84381 6.22522 9.58823 7.39084 6.35743 6.16981 12.7873 5.96615 5.77892 5.26811 4.95338 4.7198 4.50271 3.65578 3.1515 4.01178 4.81228 4.14223 3.10347 3.86308 3.08168 3.03237 2.90209
threshold=403.50000000000006 1282.5000000000002 67.500000000000014 2780.0000000000005 0 761.50000000000011 1 215.50000000000003 0.14914285714285716 14.500000000000002 34.378690476190478 507677.37500000006 34.851665944773941 -78081.349999999991 10.500000000000002 1475.5277529579764 172.48626180836712 14.500000000000002 4214.5000000000009 45.500000000000007 772.91358409321185 -1044.9899999999998 2 -1.3637499999999998 43.500000000000007 110982.09215387965 3.6503947368421055 2029.5000000000002 163.41916815642847 5.4644642857142864
decision_type=2 2 2 2 9 2 9 2 2 2 2 2 2 2 2 2 2 2 2 2 2 2 1 2 2 2 2 2 2 2
left_child=2 5 6 27 -4 19 8 12 9 14 17 -12 29 -14 -1 -11 28 -10 -5 25 -18 22 23 -8 -24 26 -2 -3 -9 -6
right_child=1 3 4 18 7 -7 21 16 10 15 11 -13 13 -15 -16 -17 20 -19 -20 -21 -22 -23 24 -25 -26 -27 -28 -29 -30 -31
leaf_value=-0.050811272556031198 0.021008996933845708 0.01205076264845948 -0.028451684560498288 0.022020477155798048 -0.012190135918393895 0.005167351491443214 -0.034052126459551579 -0.0043489244064513714 -0.052686325170446274 -0.014407919128299565 -0.016101737373571619 -0.039465760753955692 -0.018998242522482889 0.0048198524412218034 -0.0188969071401516 0.015310769927288807 -0.013078300157275076 -0.032056714407582253 0.030449978732390377 -0.0035023370357732102 0.0074611647864398752 -0.04024854929468364 -0.040982263537018365 -0.0061340478441581645 -0.019937557131052018 -0.01352170148775691 0.0032309579480333459 0.016608645567735836 0.014131455790251494 -0.022327200539986648
leaf_weight=27 38 1038 116 511 91 1146 33 198 43 74 107 40 148 91 32 21 373 90 246 725 23 218 106 29 30 21 156 577 25 315
leaf_count=27 38 1038 116 511 91 1146 33 198 43 74 107 40 148 91 32 21 373 90 246 725 23 218 106 29 30 21 156 577 25 315
internal_value=2.13964e-06 0.0101472 -0.0202788 0.0172154 -0.0137901 0.00210978 -0.0308135 -0.0124445 -0.0257452 -0.0176706 -0.0301862 -0.0224593 -0.0163031 -0.00992943 -0.0335018 -0.00783852 -0.00842391 -0.0387264 0.0247598 -0.00161785 -0.0118854 -0.0361011 -0.0315346 -0.0209937 -0.03634 0.00473682 0.00671325 0.0136792 -0.00227713 -0.0200551
internal_weight=6688 4458 2230 2372 1380 2086 850 1264 434 154 280 147 645 239 59 95 619 133 757 940 396 416 198 62 136 215 194 1615 223 406
internal_count=6688 4458 2230 2372 1380 2086 850 1264 434 154 280 147 645 239 59 95 619 133 757 940 396 416 198 62 136 215 194 1615 223 406
cat_boundaries=0 1 2 3
cat_threshold=4 2 2
is_linear=0
shrinkage=0.05


Tree=24
num_leaves=31
num_cat=3
split_feature=16 22 16 7 16 16 6 23 7 15 27 23 23 16 27 15 26 26 23 16 22 23 16 15 27 20 17 23 26 15
split_gain=498.182 77.2708 72.3244 16.4412 14.7242 11.6952 9.04704 15.6305 10.695 6.83745 9.05859 10.3634 6.2129 6.00512 4.10627 4.06838 5.08148 8.42818 4.74262 3.33627 3.19741 3.09991 2.72662 2.57271 2.44811 2.27454 2.85729 2.76687 2.45984 2.15916
threshold=771.50000000000011 149.50000000000003 2022.5000000000002 0 3715.5000000000005 1159.5000000000002 1 33.500000000000007 2 10.500000000000002 0.83115384615384624 3.5000000000000004 35.500000000000007 463.50000000000006 168.77025000000003 19.500000000000004 -1.0000000180025095e-35 1.0000000180025095e-35 11.500000000000002 341.50000000000006 7637.5000000000009 36.500000000000007 2673.5000000000005 31.500000000000004 324.07365508365518 -144570.99999999997 -41150.434999999969 213.50000000000003 -155.41738095238091 39.500000000000007
decision_type=2 2 2 9 2 2 9 2 9 2 2 2 2 2 2 2 2 2 2 2 2 2 2 2 2 2 2 2 2 2
left_child=1 3 5 9 22 25 8 -8 -3 -1 12 -12 -11 14 -10 21 18 -18 -17 -9 -6 -5 29 -15 -24 26 -2 28 -27 -4
right_child=2 6 4 15 20 -7 7 19 13 10 11 -13 -14 23 -16 16 17 -19 -20 -21 -22 -23 24 -25 -26 27 -28 -29 -30 -31
leaf_value=-0.040506723486320229 -0.00090582243207817719 -0.03680249395486164 0.0039952169991387381 -0.046925739617380384 0.024477915559547203 0.0077720053647522963 0.03557792937865964 -0.017059981851123795 -0.0083760820137488545 -0.0032572372585697022 -0.041957992956113938 -0.020744826148346343 -0.021754790800313156 0.0034742680688699089 -0.017987117613010369 -0.040089825940904794 -0.010872189326918276 -0.03966288101883271 -0.026367375173991237 -0.0019459213292772675 0.043935479901053689 -0.032354439543687726 0.020789564664358849 -0.0073335759552569692 0.014401197299198743 0.004397695196959644 0.0059469286671510954 0.0081635410566569169 -0.009812292210563428 0.014097868288964189
leaf_weight=43 377 38 58 73 524 1414 27 43 193 115 65 504 75 63 262 135 73 39 118 242 22 73 327 437 277 39 255 38 139 600
leaf_count=43 377 38 58 73 524 1414 27 43 193 115 65 504 75 63 262 135 73 39 118 242 22 73 327 437 277 39 255 38 139 600
internal_value=2.03269e-06 -0.0170128 0.0109467 -0.0255766 0.018402 0.0049878 -0.00839654 -0.000757416 -0.0106816 -0.0211105 -0.0200117 -0.0231681 -0.0105589 -0.00975403 -0.0139103 -0.032586 -0.0297644 -0.0208975 -0.0336896 -0.00422629 0.0252619 -0.0396401 0.015434 -0.00597179 0.0178598 0.000345269 0.00185913 -0.00408418 -0.00669887 0.0132074
internal_weight=6688 2618 4070 1313 1808 2262 1305 312 993 802 759 569 190 955 455 511 365 112 253 285 546 146 1262 500 604 848 632 216 178 658
internal_count=6688 2618 4070 1313 1808 2262 1305 312 993 802 759 569 190 955 455 511 365 112 253 285 546 146 1262 500 604 848 632 216 178 658
cat_boundaries=0 1 2 3
cat_threshold=2 40101 4
is_linear=0
shrinkage=0.05


Tree=25
num_leaves=31
num_cat=5
split_feature=16 16 16 16 7 16 16 17 20 25 1 26 11 8 27 17 16 16 26 27 21 17 25 14 16 9 16 20 20 26
split_gain=449.609 65.33 62.8105 14.3949 14.1192 9.9782 8.50514 7.44021 7.46863 9.72296 4.73882 4.7007 4.59477 4.48726 4.5053 4.21909 4.1667 5.84788 4.06241 3.25223 3.22326 2.95368 2.71476 2.67376 2.6693 2.56032 2.45624 2.34435 2.2492 2.2224
threshold=771.50000000000011 2321.5000000000005 218.50000000000003 1257.5000000000002 0 4504.0000000000009 410.50000000000006 698.01999999999896 -137452.84499999997 5568.1322354181912 1 -9.482954545454545 604034.41500000015 2 0.83115384615384624 11306.335000000001 26.500000000000004 3.5000000000000004 -1.0000000180025095e-35 0.14914285714285716 2528.1100000000001 -62858.299999999952 41944.188492255984 3 3179.5000000000005 4 1749.5000000000002 -56745.419999999991 -960.00499999999988 -41.10382894736842
decision_type=2 2 2 2 9 2 2 2 2 2 1 2 2 9 2 2 2 2 2 2 2 2 2 1 2 9 2 2 2 2
left_child=2 3 4 25 7 24 10 13 23 -10 20 -12 -13 14 -1 16 17 -6 -18 22 -4 -22 -8 -9 -3 -2 -5 -28 29 -17
right_child=1 5 6 26 15 -7 19 8 9 -11 11 12 -14 -15 -16 28 18 -19 -20 -21 21 -23 -24 -25 -26 -27 27 -29 -30 -31
leaf_value=-0.010356519533177982 0.0078243025425882625 0.014612046574237933 -0.035662239719004861 0.0069317084133071402 -0.017488286200733411 0.02682099688502966 0.018494161426089704 -0.033758495436632077 -0.021409867138115574 -0.0019329859591970169 -0.011222055877613671 0.021482260632156223 -0.0089294630953151259 -0.035397300592187465 -0.025264621414244178 -0.022260993172324474 -0.032875452492386104 -0.046885887114866374 -0.019538754806853832 -0.0063271117166256892 -0.022283931997411983 -0.012810308580219337 -0.0058915389701724059 -0.016437317697784386 0.019427579224137313 0.00010720486119962831 0.010087398792063244 0.02124445201262978 -0.032439341582357888 -0.0008828219771385194
leaf_weight=65 112 669 21 896 21 306 25 56 113 148 102 27 23 79 230 31 250 87 74 765 116 283 21 37 505 918 613 51 24 20
leaf_count=65 112 669 21 896 21 306 25 56 113 148 102 27 23 79 230 31 250 87 74 765 116 283 21 37 505 918 613 51 24 20
internal_value=1.93107e-06 0.0103994 -0.0161622 0.00561077 -0.0243578 0.0187795 -0.00884366 -0.0198963 -0.0147007 -0.0103655 -0.0135125 -0.00475313 0.00749287 -0.024814 -0.0219798 -0.030764 -0.0326645 -0.0411697 -0.0298294 -0.00555069 -0.0161841 -0.0155645 0.00736156 -0.0268673 0.0166835 0.00102335 0.00863965 0.0109443 -0.0198172 -0.0138774
internal_weight=6688 4070 2618 2590 1235 1480 1383 728 354 261 572 152 50 374 295 507 432 108 324 811 420 399 46 93 1174 1030 1560 664 75 51
internal_count=6688 4070 2618 2590 1235 1480 1383 728 354 261 572 152 50 374 295 507 432 108 324 811 420 399 46 93 1174 1030 1560 664 75 51
cat_boundaries=0 1 2 3 4 15
cat_threshold=2 154 2 4 67108864 262144 67108864 0 134217728 0 0 0 0 0 4
is_linear=0
shrinkage=0.05


Tree=26
num_leaves=31
num_cat=6
split_feature=16 16 22 16 16 22 23 7 18 23 7 27 3 27 16 22 18 27 16 22 23 23 5 20 27 20 0 16 16 14
split_gain=406.136 64.7731 58.0245 12.1235 11.9902 11.6023 6.49594 6.36358 5.42561 7.09485 5.22824 4.87 6.62672 6.47233 9.53307 6.26908 5.25119 4.71686 3.86937 3.86385 3.7784 3.385 3.16378 3.22779 3.48189 3.16308 4.02565 3.03554 4.54611 3.75409
threshold=694.50000000000011 2022.5000000000002 67.500000000000014 3880.5000000000005 1159.5000000000002 200.50000000000003 20.500000000000004 0 -2.1500358929946137 18.500000000000004 1 0.14914285714285716 2 18.763095238095239 71.500000000000014 8.5000000000000018 1256.6091783249392 6.4501322751322752 63.500000000000007 284.50000000000006 45.500000000000007 102.50000000000001 3 -11010.319999999998 27.845119047619054 -224153.75999999998 4 3.5000000000000004 26.500000000000004 5
decision_type=2 2 2 2 2 2 2 9 2 2 9 2 9 2 2 2 2 2 2 2 2 2 9 2 2 2 9 2 2 1
left_child=2 4 7 -3 22 8 -7 11 20 17 -8 12 16 18 -15 -14 -1 -10 -13 -12 -4 -11 25 24 -24 -2 -27 -9 29 -29
right_child=1 3 5 -5 -6 6 10 27 9 21 19 13 15 14 -16 -17 -18 -19 -20 -21 -22 -23 23 -25 -26 26 -28 28 -30 -31
leaf_value=-0.012558326863039 -0.00082888753256864028 0.014088983352770158 -0.026318937929879344 0.02325399241084794 0.00702913893765586 0.020581119986517089 -0.030573634322111805 -0.013787600436868767 0.021934973050586202 -0.016948394755444487 -0.011850588110172649 -0.042113379120826723 -0.041398320095065763 -0.0083076398206107759 -0.032433643333519564 -0.013336313430530331 0.017588982447050511 -0.0056059068455448693 -0.023010604387921532 -0.0047422464057961123 -0.015481491908264748 -0.00091845947317779073 0.014857913511029134 -0.017605295752450314 0.00094969507546516577 -0.025765194392737906 -0.0028827453340636569 -0.030377763562666422 -0.028954874993938225 -0.049894262331404857
leaf_weight=52 117 1310 140 498 1414 21 24 24 22 247 276 75 34 85 79 48 20 53 41 622 189 38 48 22 720 37 40 44 292 56
leaf_count=52 117 1310 140 498 1414 21 24 24 22 247 276 75 34 85 79 48 20 53 41 622 189 38 48 22 720 37 40 44 292 56
internal_value=2.42744e-06 0.0094675 -0.0160371 0.0166134 0.00407975 -0.0105198 -0.00691623 -0.0266302 -0.0154519 -0.0112103 -0.00754252 -0.0223947 -0.0152529 -0.0263227 -0.0199293 -0.0249718 -0.00418407 0.00247275 -0.0353615 -0.00692699 -0.0200932 -0.0148111 -0.000158494 0.00126205 0.00181896 -0.00571373 -0.0138782 -0.0310491 -0.0321059 -0.041307
internal_weight=6688 4206 2482 1808 2398 1632 943 850 689 360 922 434 154 280 164 82 72 75 116 898 329 285 984 790 768 194 77 416 392 100
internal_count=6688 4206 2482 1808 2398 1632 943 850 689 360 922 434 154 280 164 82 72 75 116 898 329 285 984 790 768 194 77 416 392 100
cat_boundaries=0 1 2 3 4 5 6
cat_threshold=2 4 4 69928 2 2
is_linear=0
shrinkage=0.05


Tree=27
num_leaves=31
num_cat=3
split_feature=22 16 22 22 22 16 25 20 20 23 11 6 23 18 23 0 23 18 16 16 23 27 23 6 16 17 11 20 23 16
split_gain=366.815 56.0272 54.8392 13.2014 10.8463 8.30276 6.07791 8.17003 8.44139 10.4656 5.50232 5.00932 7.67325 4.81284 6.32093 4.56286 4.02014 3.98396 6.52172 5.2903 3.59324 3.32673 3.32457 3.30014 4.14762 3.29582 2.88371 2.7021 2.34575 2.22905
threshold=519.50000000000011 2321.5000000000005 67.500000000000014 1090.5000000000002 200.50000000000003 4504.0000000000009 2770.6334295729034 -20028.949999999993 -1520.3599999999999 15.500000000000002 1485473.3350000002 0 34.500000000000007 -2.1500358929946137 18.500000000000004 1 92.500000000000014 284.65487155408744 3.5000000000000004 6.5000000000000009 45.500000000000007 144.18014925373137 102.50000000000001 2 853.50000000000011 14791.590000000006 97774.85500000001 -9811.4149999999991 447.50000000000006 3179.5000000000005
decision_type=2 2 2 2 2 2 2 2 2 2 2 9 2 2 2 9 2 2 2 2 2 2 2 9 2 2 2 2 2 2
left_child=2 3 6 23 13 29 17 10 9 -9 25 12 -6 20 15 -15 21 18 26 -20 -4 -13 -16 24 -2 -8 -1 -18 -25 -3
right_child=1 5 4 -5 11 -7 7 8 -10 -11 -12 16 -14 14 22 -17 27 -19 19 -21 -22 -23 -24 28 -26 -27 -28 -29 -30 -31
leaf_value=-0.024109297494093577 -0.014891784219888219 0.013176995009799545 -0.025002991227000688 0.0085082950930963422 0.029188194684684279 0.024317247119771769 -0.034436250255602145 0.010339071968633493 -0.025197758000588995 -0.024488947804852883 -0.0079317050054669384 -0.0063692534422501923 -0.002916877933755281 -0.0088815463661420634 -0.016100975105667163 0.015891968054861271 -0.0063739228839716638 -0.047357108212750534 -0.055437638573348526 -0.02897006028118676 -0.014446270402588293 -0.016727990391989488 -0.00039227502181743965 0.0025633184202253408 -0.00032663907341213774 -0.021849541620022672 0.0010237285494804382 0.010620760060846807 0.01574434049805859 0.017577524895729075
leaf_weight=21 57 669 140 1279 20 306 134 59 72 34 34 125 268 41 247 34 363 29 20 337 190 204 39 948 343 85 25 25 35 505
leaf_count=21 57 669 140 1279 20 306 134 59 72 34 34 125 268 41 247 34 363 29 20 337 190 204 39 948 343 85 25 25 35 505
internal_value=2.30607e-06 0.00918287 -0.0149332 0.00484685 -0.00973827 0.0169818 -0.0252987 -0.0210005 -0.0123446 -0.00239375 -0.0266456 -0.00642273 -0.000664293 -0.0145604 -0.0105708 0.00234911 -0.00860644 -0.0294577 -0.0281696 -0.0304528 -0.0189249 -0.0127923 -0.0139589 0.00146074 -0.00234358 -0.029551 -0.01045 -0.0052789 0.00300209 0.0150699
internal_weight=6688 4142 2546 2662 1696 1480 850 418 165 93 253 1005 288 691 361 75 717 432 403 357 330 329 286 1383 400 219 46 388 983 1174
internal_count=6688 4142 2546 2662 1696 1480 850 418 165 93 253 1005 288 691 361 75 717 432 403 357 330 329 286 1383 400 219 46 388 983 1174
cat_boundaries=0 1 2 3
cat_threshold=8602 2 39108
is_linear=0
shrinkage=0.05


Tree=28
num_leaves=31
num_cat=6
split_feature=22 16 22 16 16 7 9 23 25 20 7 26 22 18 11 16 6 19 6 23 27 23 27 22 24 6 23 24 26 27
split_gain=331.33 63.2683 37.8575 13.3223 10.1774 7.39871 6.13168 5.65023 5.53638 9.67495 10.3363 6.43057 5.4604 4.77806 4.6441 3.74629 3.5679 3.55405 3.41289 4.12439 5.09454 3.74095 3.21117 6.71701 5.63107 2.67376 4.88083 3.56305 2.59858 2.3379
threshold=403.50000000000006 1749.5000000000002 67.500000000000014 3179.5000000000005 1024.5000000000002 0 1 33.500000000000007 5157.1117338434678 -20028.949999999993 2 -5.1552941176470588 215.50000000000003 -0.50422461179057154 1425292.7750000001 5915.5000000000009 3 167000.3659781726 4 119.50000000000001 2.9450000000000003 76.500000000000014 0.14914285714285716 43.500000000000007 459.28841105354064 5 73.500000000000014 38238.724064326052 -1.0000000180025095e-35 235.00299390243907
decision_type=2 2 2 2 2 9 9 2 2 2 9 2 2 2 2 2 9 2 9 2 2 2 2 2 2 9 2 2 2 2
left_child=2 4 8 -3 18 -4 7 -7 22 14 11 -11 13 -8 17 -5 -14 -10 21 20 -20 -2 23 24 -1 26 -6 28 -27 -21
right_child=1 3 5 15 25 6 12 -9 9 10 -12 -13 16 -15 -16 -17 -18 -19 19 29 -22 -23 -24 -25 -26 27 -28 -29 -30 -31
leaf_value=-0.01526988141615934 0.01896434308111887 0.01098717877256879 -0.022705243883156701 0.017733125430019977 0.02935474354814252 0.026092714627739044 -0.018673174515310757 -0.0031741768644349849 -0.024119115927905749 -0.0050271329111777827 -0.020749245441772722 0.032684196401387457 -0.0097605382128639357 -0.0096748572880165362 -0.0074470054851297068 0.027474659896739154 -0.00096814596601298662 -0.040567817348169118 0.014756247101823924 0.0048093852369260476 -0.0097036578248102731 0.00092684431345782861 -0.03100006975907408 0.0026268645351671654 -0.032147305270314751 -0.010612647454878998 0.006012061441247437 0.0045668898373705082 0.0031472356074442303 -0.0029968201424049189
leaf_weight=79 34 1333 116 696 23 20 284 94 165 26 55 20 378 307 34 115 181 41 23 147 286 186 275 23 132 82 850 348 59 276
leaf_count=79 34 1333 116 696 23 20 284 94 165 26 55 20 378 307 34 115 181 41 23 147 286 186 275 23 132 82 850 348 59 276
internal_value=2.19074e-06 0.00787328 -0.0157329 0.0140615 0.00213973 -0.0106201 -0.00951099 0.00180227 -0.0240338 -0.0191037 -0.00612109 0.0113691 -0.0105564 -0.0139989 -0.0245672 0.0191145 -0.00710555 -0.0273929 -0.00182649 -0.00344474 -0.00788302 0.00355296 -0.0273367 -0.0230314 -0.0258283 0.004912 0.00655199 0.00181308 -0.00485497 -0.000284025
internal_weight=6688 4458 2230 2144 2314 1380 1264 114 850 341 101 46 1150 591 240 811 559 206 952 732 309 220 509 234 211 1362 873 489 141 423
internal_count=6688 4458 2230 2144 2314 1380 1264 114 850 341 101 46 1150 591 240 811 559 206 952 732 309 220 509 234 211 1362 873 489 141 423
cat_boundaries=0 1 13 14 15 16 17
cat_threshold=4 0 67108864 0 268435456 8192 0 0 524288 0 268435456 4194304 262144 2 39976 131354 133560
is_linear=0
shrinkage=0.05


Tree=29
num_leaves=31
num_cat=5
split_feature=16 16 16 16 16 17 15 15 27 6 15 7 18 15 15 27 0 27 19 16 15 16 16 15 9 18 9 15 17 25
split_gain=299.357 61.7798 23.4093 12.0234 10.7464 9.21961 5.68884 7.09018 6.4685 5.11903 5.84656 5.61045 4.90565 4.64042 9.94726 10.0965 3.85813 3.80724 5.81372 4.07698 3.70127 3.65788 3.38102 3.36905 3.22015 3.04884 2.62507 2.49154 2.48349 5.13069
threshold=530.50000000000011 1749.5000000000002 152.50000000000003 3179.5000000000005 1024.5000000000002 3893.7249999999854 13.500000000000002 56.500000000000007 0.14914285714285716 0 55.500000000000007 1 -3.4137678144640162 54.500000000000007 30.500000000000004 2.1915567765567769 2 168.77025000000003 4154.4592200814195 388.50000000000006 49.500000000000007 9.5000000000000018 5915.5000000000009 52.500000000000007 3 113.58637164219864 4 82.500000000000014 25292.979999999934 68418.984006642728
decision_type=2 2 2 2 2 2 2 2 2 9 2 9 2 2 2 2 9 2 2 2 2 2 2 2 9 2 9 2 2 2
left_child=2 4 5 27 24 6 -1 8 -8 11 12 23 16 14 25 -16 -11 19 -19 -13 -14 -9 -5 -4 -2 -7 -6 -3 -15 -30
right_child=1 3 9 22 26 13 7 21 -10 10 -12 17 20 28 15 -17 -18 18 -20 -21 -22 -23 -24 -25 -26 -27 -28 -29 29 -31
leaf_value=-0.033681443633373685 -0.0096286484481373086 0.010711303568336362 -0.042871305759510273 0.016846469365304203 0.0087241492620757175 -0.006340233869208344 -0.0085371018486877538 -0.048570807961126172 -0.022799728228804477 -0.012970048016656868 -0.012863565171221104 -0.011137660399701698 0.013717585840236602 -0.032469280416844416 0.029975287771473333 -0.0073451901433637017 0.0073036475398112095 -0.036403533079816648 -0.01345831733686524 0.0026668323216856357 -0.0055702665183497112 -0.027575600910414423 0.026100927448791007 -0.018855337758432143 -0.0010014059161558414 -0.025295792799885093 0.0033800125474390628 -0.0066484001952977411 -0.001981116455769347 -0.03030874791244666
leaf_weight=135 113 1312 23 696 308 29 117 24 248 88 167 208 72 40 24 74 32 30 346 72 38 153 115 40 965 79 1055 21 31 33
leaf_count=135 113 1312 23 696 308 29 117 24 248 88 167 208 72 40 24 74 32 30 346 72 38 153 115 40 965 79 1055 21 31 33
internal_value=1.27917e-06 0.00716547 -0.0156182 0.0133584 0.00172605 -0.0212276 -0.0244977 -0.0222102 -0.0182279 -0.0106572 -0.00560164 -0.0131873 -0.000572398 -0.0140863 -0.00973967 0.00179452 -0.00756373 -0.012002 -0.0152891 -0.00758793 0.00705451 -0.0304224 0.0181588 -0.0276231 -0.00200435 -0.0202059 0.00467644 0.0104378 -0.0226959 -0.0165876
internal_weight=6688 4585 2103 2144 2441 987 677 542 365 1116 397 719 230 310 206 98 120 656 376 280 110 177 811 63 1078 108 1363 1333 104 64
internal_count=6688 4585 2103 2144 2441 987 677 542 365 1116 397 719 230 310 206 98 120 656 376 280 110 177 811 63 1078 108 1363 1333 104 64
cat_boundaries=0 1 2 3 13 26
cat_threshold=5153 4 2 67108864 67108864 33554432 268435456 0 0 0 1048576 0 262144 67108872 262144 0 268500992 8192 0 0 1048576 0 272761088 4 0 2147483648
is_linear=0
shrinkage=0.05


Tree=30
num_leaves=31
num_cat=4
split_feature=22 22 22 22 22 22 15 15 21 19 21 6 23 23 15 23 15 23 15 23 23 11 1 5 24 23 6 22 20 23
split_gain=270.488 40.7709 40.3674 8.57353 7.87314 7.37548 5.45262 5.96831 7.19009 7.84485 7.38468 4.77586 9.9011 4.72803 4.14485 4.71037 4.31264 6.38107 4.93607 3.93506 3.68517 3.40744 3.01039 2.8681 5.68349 2.69458 2.60257 2.27285 2.22254 2.19233
threshold=519.50000000000011 67.500000000000014 1636.5000000000002 3528.0000000000005 200.50000000000003 1090.5000000000002 11.500000000000002 57.500000000000007 4460.3850000000011 1.0000000180025095e-35 101785.06500000002 0 33.500000000000007 109.50000000000001 44.500000000000007 126.50000000000001 28.500000000000004 33.500000000000007 19.500000000000004 6.5000000000000009 6.5000000000000009 795798.61500000011 1 2 14536.184765540316 715.00000000000011 3 103.50000000000001 -29011.304999999997 145.50000000000003
decision_type=2 2 2 2 2 2 2 2 2 2 2 9 2 2 2 2 2 2 2 2 2 2 1 9 2 2 9 2 2 2
left_child=1 6 5 29 14 23 20 8 9 -8 -10 13 -13 22 16 27 18 -18 -3 28 -1 -21 -6 24 -2 -5 -25 -16 -9 -4
right_child=2 4 3 25 11 -7 7 19 10 -11 -12 12 -14 -15 15 -17 17 -19 -20 21 -22 -23 -24 26 -26 -27 -28 -29 -30 -31
leaf_value=-0.046290233091761668 -0.03071887345984578 -0.0080190210447131493 0.0055304366150974405 0.01780672209017705 -0.015640098356722861 0.0069293228168256366 0.0056761774319139396 -0.047964410788633609 -0.0046860136663072682 -0.025600639225791963 -0.023644340443114441 0.029525729134678842 -0.0030700770099184407 -0.0034313599097958061 -0.02193533499980832 0.0018100492309665577 0.011199784115888178 -0.014779445445403839 -0.033424778952030464 -0.014174818565860683 -0.026539372287791324 -0.031787132116597755 -0.0048557800650275472 -0.0037483482983352691 -0.0014963128013686852 0.028072899730222374 0.0028181674119704134 -0.014127170417474836 -0.030066893965278459 0.01224244542368701
leaf_weight=30 20 94 135 354 217 960 22 22 163 226 75 25 342 286 135 38 60 39 24 76 111 43 135 167 99 78 1098 301 82 1231
leaf_count=30 20 94 135 354 217 960 22 22 163 226 75 25 342 286 135 38 60 39 24 76 111 43 135 167 99 78 1098 301 82 1231
internal_value=1.32541e-06 -0.0128241 0.00788485 0.0135208 -0.00834478 0.00356174 -0.0217617 -0.0199758 -0.0168683 -0.0228261 -0.0106603 -0.00551998 -0.000827117 -0.00807988 -0.0124532 -0.0150733 -0.00672993 0.000965542 -0.0131863 -0.0267481 -0.0307417 -0.0205389 -0.0120863 0.00122584 -0.00591095 0.0196603 0.00192868 -0.0165448 -0.0338529 0.0115791
internal_weight=6688 2546 4142 1798 1696 2344 850 709 486 248 238 1005 367 638 691 474 217 99 118 223 141 119 352 1384 119 432 1265 436 104 1366
internal_count=6688 2546 4142 1798 1696 2344 850 709 486 248 238 1005 367 638 691 474 217 99 118 223 141 119 352 1384 119 432 1265 436 104 1366
cat_boundaries=0 1 2 3 4
cat_threshold=37921 216 65832 32964
is_linear=0
shrinkage=0.05


Tree=31
num_leaves=31
num_cat=6
split_feature=22 16 22 16 7 9 23 16 17 15 17 16 15 23 16 22 20 21 8 16 1 23 22 9 19 6 15 19 15 23
split_gain=244.968 51.3499 23.5715 11.5053 7.81969 6.7901 7.1772 6.76766 5.91757 4.92099 5.55713 5.19467 4.84668 4.80807 4.27763 6.63656 4.19175 3.95811 3.78871 3.37235 3.05531 2.96578 2.91739 2.68565 2.38203 2.32754 3.71967 2.95298 2.26955 2.02725
threshold=351.50000000000006 1642.5000000000002 67.500000000000014 3179.5000000000005 0 1 34.500000000000007 1024.5000000000002 5962.1800000000012 11.500000000000002 974.24499999999944 3.5000000000000004 49.500000000000007 81.500000000000014 80.500000000000014 43.500000000000007 -94031.39999999998 4460.3850000000011 2 6.5000000000000009 3 33.500000000000007 6301.0000000000009 4 10414.725436571607 5 50.500000000000007 12299.621846893113 82.500000000000014 56.500000000000007
decision_type=2 2 2 2 9 9 2 2 2 2 2 2 2 2 2 2 2 2 9 2 1 2 2 9 2 9 2 2 2 2
left_child=2 4 9 25 -2 6 -4 18 13 19 11 -11 16 20 15 -12 -10 -13 23 -1 -7 -16 -5 -6 -14 26 27 -3 -27 -21
right_child=1 3 5 22 7 8 -8 -9 12 10 14 17 24 -15 21 -17 -18 -19 -20 29 -22 -23 -24 -25 -26 28 -28 -29 -30 -31
leaf_value=-0.048224346530623741 -0.027296100735353931 -0.02108650812879205 0.029830492166802287 0.015731447678778172 -0.0096305842099744573 -0.0101019495007947 -0.0035756029972306841 0.0040432207585320004 -0.0083428275771439079 -0.0062360920358535861 -0.012836342384306983 -0.028513404977028419 -0.0013561688157515453 -0.0077595134265720849 -0.035428228639066216 0.015732409116690573 0.010045504215186541 -0.01782895444627226 0.0083425580912812082 -0.029026632237713786 -0.020205654707558043 -0.016422514686217676 0.028970393174412575 -0.001363068893956507 -0.012466212640402305 0.010382275425849831 0.0083297208268487948 0.0009657874396662154 -0.0051441604426751535 -0.011938013069863831
leaf_weight=20 24 20 20 767 102 212 82 1168 55 43 175 236 63 233 30 23 71 137 91 100 281 65 44 903 206 1218 191 63 24 21
leaf_count=20 24 20 20 767 102 212 82 1168 55 43 175 236 63 233 30 23 71 137 91 100 281 65 44 903 206 1218 191 63 24 21
internal_value=-3.42695e-07 0.00641309 -0.0142782 0.0116429 0.00109416 -0.00983331 0.00270902 0.00139512 -0.0109015 -0.0206736 -0.018977 -0.022692 -0.00607368 -0.0136783 -0.0137025 -0.00951775 0.00201885 -0.0245891 -0.00142695 -0.0292046 -0.0164756 -0.0224243 0.0164497 -0.00231155 -0.00986423 0.0090714 0.00433131 -0.00434802 0.0100017 -0.0260608
internal_weight=6688 4615 2073 2327 2288 1223 102 2264 1121 850 709 416 395 726 293 198 126 373 1096 141 493 95 811 1005 269 1516 274 83 1242 121
internal_count=6688 4615 2073 2327 2288 1223 102 2264 1121 850 709 416 395 726 293 198 126 373 1096 141 493 95 811 1005 269 1516 274 83 1242 121
cat_boundaries=0 1 12 13 14 24 25
cat_threshold=4 67108864 67108864 0 268435456 8192 0 0 524288 0 268435456 4194304 2 39 67108864 262144 33554432 268435456 0 0 0 524288 0 262144 57797
is_linear=0
shrinkage=0.05


Tree=32
num_leaves=31
num_cat=5
split_feature=16 16 16 21 6 15 16 27 15 16 18 16 15 23 14 27 6 23 15 26 24 11 16 25 16 9 6 21 16 23
split_gain=221.495 33.1305 30.8678 10.3815 10.3924 10.0903 7.08696 6.20264 5.58681 5.31385 4.69751 3.60457 6.1855 5.10584 4.91886 3.13588 2.97629 4.30601 4.20295 4.25721 3.51031 2.8542 2.81933 2.72037 2.30175 2.29516 2.11845 2.78349 2.52494 1.87074
threshold=771.50000000000011 2321.5000000000005 322.00000000000006 2970.7900000000004 0 56.500000000000007 1257.5000000000002 2.9450000000000003 11.500000000000002 4504.0000000000009 -106.6338584187496 3.5000000000000004 37.500000000000007 9.5000000000000018 1 1.0000000180025095e-35 2 85.500000000000014 44.500000000000007 -7.3210651629072681 10061.902733268986 1634480.7550000001 6.5000000000000009 41944.188492255984 117.50000000000001 3 4 201471.78000000003 1502.5000000000002 100.50000000000001
decision_type=2 2 2 2 9 2 2 2 2 2 2 2 2 2 1 2 9 2 2 2 2 2 2 2 2 9 9 2 2 2
left_child=2 6 3 11 5 7 25 -5 24 -3 -10 12 -1 22 -15 23 17 21 19 -18 -20 -17 -13 -4 -6 -2 27 -8 -28 -27
right_child=1 9 15 4 8 -7 26 -9 10 -11 -12 13 -14 14 -16 16 18 -19 20 -21 -22 -23 -24 -25 -26 29 28 -29 -30 -31
leaf_value=-0.031513733137398962 0.00710494440491693 0.011732482166909123 0.016296229543513618 0.023149272322189066 -0.033001005799779971 -0.019390388444931572 0.013196545704524535 -0.0013875495067402497 -0.021043318525577587 0.019130422484496416 -0.012214050784234588 -0.045515437533512067 0.0039324166486039763 -0.0026508452570331948 -0.021968259812827091 -0.010674519960571041 0.00048509323279614805 -0.0045239808406761436 -0.017136094759663809 0.025111093142857921 -0.0020055504747806879 -0.026206097642758067 -0.026996032436682305 -0.0057166174687445165 -0.013493810478248634 -0.0061619427244421904 -0.00087283802840381567 0.0062895551525335687 0.0057489082963215286 0.00065660304390936027
leaf_weight=20 112 1174 32 32 62 69 186 132 204 306 576 23 32 42 153 191 54 421 46 26 230 35 193 25 20 115 203 676 495 803
leaf_count=20 112 1174 32 32 62 69 186 132 204 306 576 23 32 42 153 191 54 421 46 26 230 35 193 25 20 115 203 676 495 803
internal_value=-3.41327e-06 0.00729437 -0.0113487 -0.015827 -0.013173 -0.00321118 0.00388427 0.00340012 -0.0156469 0.0132621 -0.0145232 -0.0221037 -0.00970072 -0.0236729 -0.0178076 -0.00476654 -0.00541485 -0.00739824 -0.00155862 0.00848854 -0.00452731 -0.0130799 -0.028968 0.00664147 -0.0282432 0.000665468 0.0060095 0.00769071 0.0037691 -0.000195443
internal_weight=6688 4070 2618 1558 1095 233 2590 164 862 1480 780 463 52 411 195 1060 1003 647 356 80 276 226 216 57 82 1030 1560 862 698 918
internal_count=6688 4070 2618 1558 1095 233 2590 164 862 1480 780 463 52 411 195 1060 1003 647 356 80 276 226 216 57 82 1030 1560 862 698 918
cat_boundaries=0 1 2 3 14 15
cat_threshold=172312 2 138273 67108864 262144 67108864 0 134217728 0 0 0 0 0 4 133426
is_linear=0
shrinkage=0.05


Tree=33
num_leaves=31
num_cat=5
split_feature=16 16 20 9 15 7 16 16 15 15 20 26 26 15 16 16 18 9 17 24 24 16 11 26 9 20 15 24 15 6
split_gain=200.21 42.5457 16.6898 12.2022 9.41728 9.3048 8.31477 7.76109 6.80802 6.79652 5.95586 4.13433 4.10446 4.03506 5.9434 3.89197 3.60515 2.96635 4.78747 3.21385 3.07131 2.63482 2.50149 2.38028 2.31543 2.62067 2.64426 2.27177 2.03848 2.2202
threshold=508.50000000000006 1749.5000000000002 -804.78999999999985 0 13.500000000000002 1 3179.5000000000005 1024.5000000000002 44.500000000000007 36.500000000000007 -32541.799999999999 -1.0000000180025095e-35 -1.0000000180025095e-35 7.5000000000000009 3.5000000000000004 313.50000000000006 -20.392762844702478 2 200.34 17982.750180369294 26001.229928084522 8739.0000000000018 153446.68500000003 -1.0992272727272725 3 -480833.48999999993 39.500000000000007 -47916.486003780235 82.500000000000014 4
decision_type=2 2 2 9 2 9 2 2 2 2 2 2 2 2 2 2 2 9 2 2 2 2 2 2 9 2 2 2 2 9
left_child=2 7 3 4 -1 8 28 17 9 -5 -6 -12 23 -4 -15 -10 -14 -2 19 -19 -20 -8 -16 -7 25 -9 -27 -26 29 -3
right_child=1 6 13 5 10 12 21 24 15 -11 11 -13 16 14 22 -17 -18 18 20 -21 -22 -23 -24 -25 27 26 -28 -29 -30 -31
leaf_value=-0.022768906574260367 -0.0047352039650710755 0.0096889744364854809 -0.04413125194609166 -0.0098894627799891791 -0.0039091612657992754 -0.023420164363226623 0.014425145887181929 0.003500169053182213 -0.016935947193752653 0.005224107342116811 0.0056655114737351421 0.029823648038765662 -0.02534896355542925 -0.0053917386891463633 -0.02089792949008815 -0.009407646427846722 -0.0036465328633785246 -0.011492222967155448 0.012153853845747763 -0.0006536789735493248 0.0012379872161972468 0.031968225479464644 -0.030740605779201464 -0.041286743928988776 -0.01286892052486782 0.025968539117214581 0.0093149090225904656 0.0030192652616617211 -0.0069745263173466637 0.003750397408103727
leaf_weight=47 470 1077 20 239 186 166 789 162 405 108 77 23 31 52 235 298 50 88 107 307 162 22 89 21 23 30 116 1032 21 235
leaf_count=47 470 1077 20 239 186 166 789 162 405 108 77 23 31 52 235 298 50 88 107 307 162 22 89 21 23 30 116 1032 21 235
internal_value=-2.71147e-06 0.00574266 -0.0130287 -0.0108176 -0.00196809 -0.0129404 0.0109091 0.00130662 -0.0109161 -0.00518553 0.00138141 0.0112219 -0.0213542 -0.0222473 -0.0210832 -0.0137447 -0.0119524 -0.00174945 0.000428815 -0.00306834 0.00557999 0.014901 -0.0236016 -0.0254266 0.00384924 0.00763086 0.0127369 0.00264779 0.00848034 0.00872772
internal_weight=6688 4641 2047 1651 333 1318 2144 2497 1050 347 286 100 268 396 376 703 81 1134 664 395 269 811 324 187 1363 308 146 1055 1333 1312
internal_count=6688 4641 2047 1651 333 1318 2144 2497 1050 347 286 100 268 396 376 703 81 1134 664 395 269 811 324 187 1363 308 146 1055 1333 1312
cat_boundaries=0 14 15 23 36 37
cat_threshold=67117056 67108864 0 0 134225920 2097152 2 524288 134217728 268436480 4198400 0 0 256 2 67108864 71303168 33554432 268435456 0 8192 0 1572864 67108872 262144 0 268500992 8192 0 0 1048576 0 272761088 4 0 2147483648 138298
is_linear=0
shrinkage=0.05


Tree=34
num_leaves=31
num_cat=3
split_feature=22 16 22 16 7 27 23 7 16 7 21 24 26 16 11 15 23 16 17 26 16 21 27 27 20 23 15 11 16 16
split_gain=180.995 37.9334 18.3132 9.8286 7.18701 5.04828 14.5967 4.69168 4.05986 4.0584 4.2009 11.1905 8.39393 3.741 3.6513 3.58217 7.25838 3.21366 3.14972 4.73683 4.30543 3.12569 3.08307 2.86371 2.63704 2.61072 2.57684 3.21717 2.46499 3.632
threshold=351.50000000000006 1547.0000000000002 67.500000000000014 2673.5000000000005 0 1.0000000180025095e-35 22.500000000000004 1 931.50000000000011 2 83771.985000000015 13053.127606507152 -59.277636363636368 91.500000000000014 1508412.7750000001 45.500000000000007 52.500000000000007 5423.5000000000009 5962.1800000000012 -7.3210651629072681 137.50000000000003 44253.470000000008 134.68482692307694 321.9431055900622 -38029.014999999992 140.50000000000003 16.500000000000004 23279.430000000004 3.5000000000000004 26.500000000000004
decision_type=2 2 2 2 9 2 2 9 2 9 2 2 2 2 2 2 2 2 2 2 2 2 2 2 2 2 2 2 2 2
left_child=2 4 9 -3 -2 6 -4 18 15 10 11 13 -13 -1 -12 16 -6 23 19 -7 -20 -10 -9 -5 -23 -17 -8 -28 -11 -30
