tree
version=v4
num_class=1
num_tree_per_iteration=1
label_index=0
max_feature_idx=321
objective=regression
feature_names=Gender IncomeCategory CustomerStatus ClientType MaritalStatus OccupationCategory IndustryCategory CustomerBankingType CustomerOnboardingChannel ResidentialCityName CountryCodeNationality AnnualGrossIncome LowIncomeFlag CertificationTypeDescription ContactPreference Age age_at_prediction_start birthdate_missing birthdate_after_cutoff birthdate_age_under_18 birthdate_age_over_100 birthdate_age_was_clipped birthday_in_pred_window birthday_pred_month_index days_to_birthday_in_pred_window txn_count_all txn_amount_sum_all txn_amount_mean_all txn_amount_std_all txn_debit_count txn_credit_count txn_debit_sum txn_credit_sum public_holiday_txn_count school_holiday_txn_count black_friday_txn_count festive_season_txn_count stmt_balance_mean txn_count_last_1m txn_amount_sum_last_1m stmt_balance_mean_1m txn_count_last_3m txn_amount_sum_last_3m stmt_balance_mean_3m txn_count_last_6m txn_count_last_12m active_days_all active_days_last_1m active_days_last_3m active_days_last_6m active_days_last_12m target_lag_1yr target_lag_2yr txn_count_m1 txn_count_m2 txn_count_m3 txn_count_m4 txn_count_m5 txn_count_m6 txn_count_m7 txn_count_m8 txn_count_m9 txn_count_m10 txn_count_m11 txn_count_m12 txn_count_m13 recency_days days_since_last_active_day lifespan_days unique_account_count transfer_txn_count reversal_txn_count returned_txn_count card_txn_count cash_txn_count weekend_txn_count_all weekend_txn_count_3m early_month_txn_count_all early_month_txn_count_3m mid_month_txn_count_all mid_month_txn_count_3m late_month_txn_count_all late_month_txn_count_3m month_end_txn_count_all month_end_txn_count_3m payday_window_txn_count_all payday_window_txn_count_3m txn_type_transfers_payments_count_all txn_type_charges_fees_count_all txn_type_interest_investments_count_all txn_type_other_unclassified_count_all txn_type_debit_orders_standing_orders_count_all txn_type_withdrawals_count_all txn_type_foreign_exchange_count_all txn_type_teller_branch_transactions_count_all txn_type_card_transactions_count_all txn_type_unpaid_returned_items_count_all txn_type_reversals_adjustments_count_all txn_type_deposits_count_all txn_type_account_maintenance_count_all txn_type_transfers_payments_count_3m txn_type_charges_fees_count_3m txn_type_interest_investments_count_3m txn_type_other_unclassified_count_3m txn_type_debit_orders_standing_orders_count_3m txn_type_withdrawals_count_3m txn_type_foreign_exchange_count_3m txn_type_teller_branch_transactions_count_3m txn_type_card_transactions_count_3m txn_type_unpaid_returned_items_count_3m txn_type_reversals_adjustments_count_3m txn_type_deposits_count_3m txn_type_account_maintenance_count_3m txn_batch_system_defined_count_all txn_batch_other_charges_count_all txn_batch_not_disclosed_unknown_count_all txn_batch_digital_banking_fees_count_all txn_batch_transaction_service_fees_count_all txn_batch_credit_debit_service_count_all txn_batch_unallocated_count_all txn_batch_other_unclassified_count_all txn_batch_system_defined_count_3m txn_batch_other_charges_count_3m txn_batch_not_disclosed_unknown_count_3m txn_batch_digital_banking_fees_count_3m txn_batch_transaction_service_fees_count_3m txn_batch_credit_debit_service_count_3m txn_batch_unallocated_count_3m txn_batch_other_unclassified_count_3m reversal_type_manual_count_all reversal_type_sytem_count_all reversal_type_not_applicable_count_all reversal_type_manual_count_3m reversal_type_sytem_count_3m reversal_type_not_applicable_count_3m txn_velocity spend_velocity yoy_growth_ratio mom_accel_1 mom_accel_2 mom_accel_3 mom_jerk txn_count_6m_avg transfer_txn_ratio txns_per_account debit_credit_ratio debit_txn_share public_holiday_txn_share school_holiday_txn_share festive_season_txn_share reversal_ratio bounced_ratio credit_to_debit_ratio card_to_cash_ratio balance_velocity active_day_rate_last_1m active_day_rate_last_3m active_day_rate_last_6m active_day_rate_last_12m txns_per_active_day_all txns_per_active_day_last_1m txns_per_active_day_last_3m txns_per_active_day_last_6m txns_per_active_day_last_12m active_rate_accel_1m_vs_3m active_rate_accel_3m_vs_12m weekend_txn_share_all weekend_txn_share_3m early_month_txn_share_all early_month_txn_share_3m mid_month_txn_share_all mid_month_txn_share_3m late_month_txn_share_all late_month_txn_share_3m month_end_txn_share_all month_end_txn_share_3m payday_window_txn_share_all payday_window_txn_share_3m txn_type_transfers_payments_share_all txn_type_charges_fees_share_all txn_type_interest_investments_share_all txn_type_other_unclassified_share_all txn_type_debit_orders_standing_orders_share_all txn_type_withdrawals_share_all txn_type_foreign_exchange_share_all txn_type_teller_branch_transactions_share_all txn_type_card_transactions_share_all txn_type_unpaid_returned_items_share_all txn_type_reversals_adjustments_share_all txn_type_deposits_share_all txn_type_account_maintenance_share_all txn_type_transfers_payments_share_3m txn_type_charges_fees_share_3m txn_type_interest_investments_share_3m txn_type_other_unclassified_share_3m txn_type_debit_orders_standing_orders_share_3m txn_type_withdrawals_share_3m txn_type_foreign_exchange_share_3m txn_type_teller_branch_transactions_share_3m txn_type_card_transactions_share_3m txn_type_unpaid_returned_items_share_3m txn_type_reversals_adjustments_share_3m txn_type_deposits_share_3m txn_type_account_maintenance_share_3m txn_batch_system_defined_share_all txn_batch_other_charges_share_all txn_batch_not_disclosed_unknown_share_all txn_batch_digital_banking_fees_share_all txn_batch_transaction_service_fees_share_all txn_batch_credit_debit_service_share_all txn_batch_unallocated_share_all txn_batch_other_unclassified_share_all txn_batch_system_defined_share_3m txn_batch_other_charges_share_3m txn_batch_not_disclosed_unknown_share_3m txn_batch_digital_banking_fees_share_3m txn_batch_transaction_service_fees_share_3m txn_batch_credit_debit_service_share_3m txn_batch_unallocated_share_3m txn_batch_other_unclassified_share_3m reversal_type_manual_share_all reversal_type_sytem_share_all reversal_type_not_applicable_share_all reversal_type_manual_share_3m reversal_type_sytem_share_3m reversal_type_not_applicable_share_3m fees_per_transfer_3m debit_orders_per_active_day_3m system_defined_share_3m recent_vs_trend daily_txn_count_sum_all daily_txn_count_mean_all daily_txn_count_std_all daily_txn_count_max_all daily_txn_count_p90_all high_volume_days_5_all high_volume_days_10_all top3_daily_txn_count_all daily_abs_amount_mean_all daily_abs_amount_max_all top3_daily_txn_share_all daily_txn_count_cv_all daily_txn_count_sum_3m daily_txn_count_mean_3m daily_txn_count_std_3m daily_txn_count_max_3m daily_txn_count_p90_3m high_volume_days_5_3m high_volume_days_10_3m top3_daily_txn_count_3m daily_abs_amount_mean_3m daily_abs_amount_max_3m top3_daily_txn_share_3m daily_txn_count_cv_3m active_gap_mean_all active_gap_median_all longest_inactive_gap_all active_gap_mean_3m active_gap_median_3m longest_inactive_gap_3m account_txn_count_mean_all account_txn_count_std_all primary_account_txn_count_all account_txn_count_sum_all account_txn_count_mean_3m account_txn_count_std_3m primary_account_txn_count_3m account_txn_count_sum_3m primary_account_abs_amount_sum_all account_abs_amount_sum_all primary_account_abs_amount_sum_3m account_abs_amount_sum_3m primary_account_txn_share_all primary_account_txn_share_3m primary_account_amount_share_all primary_account_amount_share_3m account_activity_cv_all account_activity_cv_3m fin_interest_income_mean fin_interest_revenue_mean fin_interest_income_std fin_interest_revenue_std fin_interest_income_min fin_interest_income_max fin_interest_revenue_min fin_interest_revenue_max fin_interest_income_mean_3m fin_interest_revenue_mean_3m fin_interest_income_first fin_interest_income_last fin_interest_revenue_first fin_interest_revenue_last fin_product_count fin_account_count fin_snapshot_count fin_transactional_snapshot_count fin_investments_snapshot_count fin_mortgages_snapshot_count fin_transactional_interest_income_mean fin_investments_interest_income_mean fin_mortgages_interest_income_mean fin_transactional_interest_revenue_mean fin_investments_interest_revenue_mean fin_mortgages_interest_revenue_mean fin_transactional_interest_income_mean_3m fin_investments_interest_income_mean_3m fin_mortgages_interest_income_mean_3m fin_transactional_interest_revenue_mean_3m fin_investments_interest_revenue_mean_3m fin_mortgages_interest_revenue_mean_3m fin_interest_income_trend fin_interest_revenue_trend fin_interest_income_trend_per_snapshot fin_interest_revenue_trend_per_snapshot fin_interest_income_recent_ratio fin_interest_revenue_recent_ratio month_end_vol_cluster_3m throughput_ratio_3m ticket_size_drift_1m_3m month_end_vs_early_diff_3m seasonal_recent_gap txn_friction_score
feature_infos=-1:1:0 -1:7:1:3:6:0:4:5 -1:0:2 -1:2:1:3 -1:0:2:1:3 -1:9:11:12:4:8:5:3:16:0:2:13:14:1:7:17:6:10 -1:5:4:12:10:7:3:2:8:1:15:11:17:0:6:13:14:9 -1:1:2:0 -1:1:2 -1:173:54:322:283:141:89:306:50:58:370:309:124:26:342:243:193:415:316:296:270:94:244:90:112:382:32:424:354:155:310:305:3:332:348:425:255:181:357:187:259:37:24:298:313:13:92:239:113:70:256:65:167:241:20:48:106:110:164:216:233:242:389:111:144:156:260:454:463:6:376:162:176:338:423:115:126:43:121:200:279:380:434:455:130:185:208:254:319:419:432:93:127:138:161:186:201:257:281:400:88:103:146:158:205:251:263:355:362:363:388:460:462:466:469:40:49:85:122:147:183:184:194:297:312:317:340:347:372:375:393:411:8:27:34:73:108:136:178:195:199:206:207:230:231:273:274:275:291:304:315:323:329:333:368:381:421:456:42:59:64:71:117:123:133:139:145:152:159:171:177:182:237:320:328:337:341:345:359:360:404:435:447 -1:59:23:61:18:44:30:4:57:22:3:34:52:9:28:33:48:60:2:11:42:43:46:0:14:26:29 [0:548044978.5] -1:0:1 -1:0:4:1:3 -1:2:1:0 [0:100] [0:100] none none [0:1] none none [0:1] [-1:2] [0:999] [1:18728] [-40620489.189999998:52406406.049999997] [-75941.460000000006:114419.91857142858] [0:590052.83448541572] [0:12696] [0:11867] [0:257680635.50999999] [0:263457622.47] [0:584] [0:3028] [0:54] [0:1826] [-889164.41829896905:1000000] [0:613] [-6633399.8399999999:3899218.2800000003] [-998822.31920000003:1000000] [0:1800] [-9016234.4800000004:4863829.6399999997] [-999560.56686567154:1000000] [0:3427] [0:6771] [1:1039] [0:31] [0:92] [0:184] [0:365] [0:1798] [0:1812] [0:613] [0:579] [0:611] [0:595] [0:533] [0:652] [0:564] [0:573] [0:546] [0:635] [0:520] [0:643] [0:645] [1:977] [1:977] [0:1038] [1:6] [0:18009] [0:54] [0:201] [0:517] [0:1254] [0:5381] [0:562] [0:3155] [0:301] [0:2840] [0:253] [0:4170] [0:434] [0:2252] [0:255] [0:7325] [0:715] [0:18009] [0:1857] [0:374] [0:630] [0:555] [0:1254] [0:1438] [0:1191] [0:517] [0:201] [0:54] [0:300] [0:35] [0:1748] [0:216] [0:38] [0:102] [0:53] [0:91] [0:328] [0:88] [0:44] [0:23] [0:19] [0:29] [0:4] [0:17944] [0:1150] [0:1801] [0:1459] [0:996] [0:478] [0:233] none [0:1703] [0:112] [0:210] [0:159] [0:104] [0:39] none none [0:14820] [0:7892] [0:554] [0:1309] [0:754] [0:159] [-2.0794415416798357:1.0650895966294667] [-10.273941976939037:7.5793827092502086] [-5.4424177105217932:6.4052284580308418] [-2.6741486494265287:3.8286413964890951] [-2.6855773452501515:3.713572066704308] [-2.6390573296152589:4.0775374439057197] [-6.0414444794130029:4.219507705176107] [0:571.16666666666663] [0:0.99998809537981681] [1:15085] [0:75941.460000000006] [0:0.9999848487144134] [0:0.33322225924691773] [0:0.99950024987506247] [0:0.5473665004684195] [0:0.20967403751552396] [0:0.49999468090764987] [0:113674900] [0:381000] [-317.96715549874187:691.73471336359398] [0:1] [0:1] [0:1] [0:1] [0.99900099900099915:18.042371828158164] [0:19.773555691751877] [0:19.565004728209473] [0:18.624898777724034] [0:18.55063410785176] [-0.53366058906030855:0.60939691444600275] [-0.47698034544371654:0.70711733174508629] [0:0.99966677774075308] [0:0.99980003999200151] [0:0.99900099900099915] [0:0.99966677774075308] [0:0.99966677774075308] [0:0.99966677774075308] [0:0.99990000999900019] [0:0.99990000999900019] [0:0.99900099900099915] [0:0.99950024987506247] [0:0.99990000999900019] [0:0.99990909917280257] [0:0.99998809537981681] [0:0.99998529433390682] [0:0.80950453560629509] [0:0.38547270685638629] [0:0.59988002399520091] [0:0.51273722058210014] [0:0.38460552293530936] [0:0.99900099900099915] [0:0.26573380116468331] [0:0.49999468090764987] [0:0.20967403751552396] [0:0.28570918376457566] [0:0.1999600079984003] [0:0.99999107150829003] [0:0.9998889012331964] [0:0.99975006248437881] [0:0.57134695043565198] [0:0.57134695043565198] [0:0.54836940743846974] [0:0.42377206230999703] [0:0.99900099900099915] [0:0.28813070964898901] [0:0.4998750312421894] [0:0.4998750312421894] [0:0.53331555614812842] [0:0.33322225924691773] [0:0.99999939540544414] [0:0.99900099900099915] [0:0.99900099900099915] [0:0.49999264716695341] [0:0.28567347521782599] [0:0.22916507524253302] [0:0.47101278618555736] none [0:0.99999586778567029] [0:0.99975006248437881] [0:0.99900099900099915] [0:0.746475368660241] [0:0.28567347521782599] [0:0.33330555787017752] none none [0:0.99999637682472176] [0:0.99999666667777787] [0:0.45152662479863909] [0:0.99999431821410101] [0:0.99997674472686682] [0:0.746475368660241] [0:20000] [0:0.78046876905441331] [0:0.99999586778567029] [-3.4122472178487406:1.725801501436258] [1:18728] [1:18.04238921001927] [0:6.8271962865824207] [1:38] [1:25] [0:1032] [0:995] [1:106] [0:510919.86076470593] [0:4613745.3799999999] [0.0056599740677074932:0.99975006248437881] [0:1.2706262564940558] [0:1800] [0:19.565217391304348] [0:6.7468383705324415] [0:34] [0:26] [0:92] [0:91] [0:91] [0:545217.78312499996] [0:3177654.6299999999] [0:0.99975006248437881] [0:1.0033822647234893] [0:181.5] [0:181.5] [1:1000] [0:73] [0:73] [1:92] [1:15085] [0:8191.8134947844928] [1:15651] [1:18728] [0:1363] [0:895.90429176335567] [0:1495] [0:1800] [0:521138257.98000002] [0:521138257.98000002] [0:45550392.270000003] [0:45550392.270000003] [0.33666554444818519:0.99999993370898677] [0:0.99999926632482294] [0:0.9999999999980812] [0:0.99999999997804623] [0:2.1327742098946096] [0:2.448673518277086] [-58504.588571428569:35985.627209302322] [-0.089999999999999789:16911.705500000004] [0:53282.587822061527] [0:73624.91051612336] [-244024.03:7576.9099999999999] [-45662.199999999997:418378] [-5250.7200000000003:822.69000000000005] [0:329709.20000000001] [-57234.41333333333:28286.747500000001] [-10.48:25043.645] [-94773.660000000003:54024.910000000003] [-51880.860000000001:56551.199999999997] [-107.13:28110.82] [-10.48:49879.669999999998] [0:3] [0:41] [0:691] [0:116] [0:669] [0:22] [-58504.588571428569:35985.627209302322] [-23308.900526315789:17335.984999999997] [-9188.8299999999999:48309.779090909084] [-0.089999999999999789:18727.693333333333] none [-124.06105263157896:21464.314999999999] [-57234.41333333333:18004.666666666668] [-41422.294999999998:14279.988000000001] [-10903.064999999999:56915.854999999996] [-10.48:28090.490000000002] none [0:26885.285] [-56954.800000000003:94425.529999999999] [-27414.599999999999:49700.619999999995] [-5286.9906018796237:4291.8744602518063] [-1305.3949811913717:2484.9067546622664] [-828.82565959655165:2984.4597598932223] [-18.036500943989932:43.857677902621823] [0:1404] [-29117.261388301427:1023.6932559799293] [-97222.281888888901:301669.57238095242] [0:4294967295] [-195:1198] [0:0.49999468090764987]
tree_sizes=2202 2335 2345 2358 2348 2353 2340 2348 2345 2352 2357 2345 2345 2333 2342 2348 2343 2356 2348 2372 2338 2340 2371 2358 2367 2352 2365 2351 2344 2359 2361 2363 2350 2351 2363 2361 2351 2347 2367 2355 2370 2348 2360 2360 2371 2354 2372 2365 2390 2364 2371 2363 2362 2371 2403 2391 2366 2347 2386 2396 2383 2392 2385 2384 2385 2382 2387 2390 2394 2403 2394 2379 2375 2391 2382 2363 2439 2470 2369 2390 2397 2380 2390 2384 2373 2454 2390 2463 2460 2396 2493 2531 2549 2403 2391 2379 2474 2480 2466 2390 2422 2531 2396 2454 2392 2401 2554 2573 2393 2407 2409 2494 2455 2476 2459 2384 2375 2387 2519 2541 2463 2411 2517 2408 2376 2211 2471 2476 2468 2596 2356 2502 2553 2561 2485 2434 2399 2557 2515 2495 2481 2404 2446 2489 1999 2467 2495 2542 2543 2547 1964 2492 2476 1599 2515 2390 2519 2128 2470 1861 2617 2125 2486 1775 2424 1753 2083 2533 2656 1621 2314 2364 2478 2542 2546 2511 2141 2642 2389 2702 2523 2229 2026 2532 2532 2650 2239 1415 1978 2434 2654 2389 2012 2486 2402 2395 1245 2535 1854 1844 2228 1861 2403 2502 2240 1600 2470 2527 1326 2378 2492 2117 2660 2269 2541 2417 1262 1528 2079 2399 1734 2489 2151 1317 2455 2511 2491 1602 1983 2458 2622 2427 2053 1650 1060 2308 2507 2400 1600 2162 2631 2602 1523 1632 2128 2419 1579 2440 2403 1128 2062 1810 1720 1407 2611 2158 1488 2507 1779 1397 2444 1810 1879 2504 2087 2569 2219 1996 2629 1859 2429 2645 2497 2110 1861 2026 2243 1599 2622 1976 2121 2437 2582 1663 2406 2540 1760 2397 1702 2291 2550 2026 2171 2418 2571 2535 2501 2137 2394 1791 2409 2521 2315 2482 2018 2501 1333 2479 2352 2130 1395 2543 2194

Tree=0
num_leaves=25
num_cat=0
split_feature=41 41 38 41 142 156 41 247 274 41 38 254 121 100 38 142 50 136 251 49 129 45 121 163
split_gain=6642.73 1127.65 731.419 195.484 156.643 124.899 74.0613 37.65 36.9131 30.0532 26.9538 24.0853 21.6373 20.3998 17.8157 13.0376 12.642 11.9068 10.6077 10.31 8.40312 8.0963 6.98614 6.77125
threshold=54.500000000000007 168.50000000000003 6.5000000000000009 324.50000000000006 34.083333333333336 0.11413043478260872 36.500000000000007 55.500000000000007 0.99903374435883829 240.50000000000003 25.500000000000004 10.244897959183676 1.5000000000000002 10.500000000000002 26.500000000000004 46.583333333333336 66.500000000000014 1.0000000180025095e-35 18086.150000000001 77.500000000000014 27.500000000000004 181.50000000000003 593.50000000000011 2.4109078906888182
decision_type=2 2 2 2 2 2 2 2 2 2 2 2 2 2 2 2 2 10 2 2 2 2 2 2
left_child=2 4 5 9 10 8 13 -5 -1 23 19 17 -13 -4 -6 -16 -7 -10 -14 -2 -15 -8 -9 -3
right_child=1 3 6 7 14 16 21 22 11 -11 -12 12 18 20 15 -17 -18 -19 -20 -21 -22 -23 -24 -25
leaf_value=4.3506222697270296 4.3709862519350242 4.4107232602904096 4.3486820876891663 4.433328803103409 4.3866403503943801 4.337322609138722 4.3679864695032107 4.4438253188817143 4.3236724036183176 4.4237873125925127 4.3910278735292669 4.2997316171514646 4.3167863757314677 4.3759666255610581 4.4002987895490255 4.4067864937176546 4.3477547668069034 4.3395323687278236 4.3362683442294694 4.3834080734389245 4.3591331149330825 4.3757838090927663 4.4556862460763123 4.416629588684045
leaf_weight=38 69 272 212 484 64 263 232 121 224 550 603 70 318 30 718 463 186 57 30 478 320 256 85 545
leaf_count=38 69 272 212 484 64 263 232 121 224 550 603 70 318 30 718 463 186 57 30 478 320 256 85 545
internal_value=4.38744 4.40863 4.34526 4.42492 4.39464 4.32911 4.3635 4.43795 4.3215 4.41834 4.38666 4.31992 4.31528 4.35607 4.40201 4.40285 4.34163 4.32686 4.31844 4.38183 4.36056 4.37207 4.44876 4.41467
internal_weight=6688 4452 2236 2057 2395 1186 1050 690 737 1367 1150 699 418 562 1245 1181 449 281 348 547 350 488 206 817
internal_count=6688 4452 2236 2057 2395 1186 1050 690 737 1367 1150 699 418 562 1245 1181 449 281 348 547 350 488 206 817
is_linear=0
shrinkage=1


Tree=1
num_leaves=25
num_cat=0
split_feature=242 242 38 242 38 254 242 247 163 242 45 121 121 274 50 34 38 254 142 163 121 50 157 38
split_gain=6250.58 1102.05 643.084 188.652 157.271 91.4451 83.9127 35.4725 33.7585 29.7675 25.2758 22.5437 22.2036 19.8752 15.5767 20.2712 10.4235 9.06994 7.80451 7.26784 7.08023 7.05477 6.50819 6.17102
threshold=52.500000000000007 166.50000000000003 5.5000000000000009 324.50000000000006 30.500000000000004 10.244897959183676 33.500000000000007 54.500000000000007 1.8857557322708975 240.50000000000003 287.50000000000006 6.5000000000000009 1.5000000000000002 0.99999310765371874 85.500000000000014 6.5000000000000009 3.5000000000000004 3.1227225977079054 34.083333333333336 2.3895129653719374 593.50000000000011 66.500000000000014 0.40489130434782611 18.500000000000004
decision_type=2 2 2 2 2 2 2 2 2 2 2 2 2 2 2 2 2 2 2 2 2 2 2 2
left_child=2 4 5 9 10 11 14 -5 18 19 22 13 -7 -1 15 -4 -14 -8 -6 -3 -9 -13 -2 -12
right_child=1 3 6 7 8 12 17 20 -10 -11 23 21 16 -15 -16 -17 -18 -19 -20 -21 -22 -23 -24 -25
leaf_value=-0.036191128691620139 -0.016262592113629376 0.022185242233756904 -0.019966130030492715 0.044350976762930518 0.0041364533547555522 -0.084527592578517746 -0.014174422392504528 0.054487833897636472 0.016624594020154253 0.035253959024598262 -0.0078078401409307574 -0.049142704013227123 -0.067751330258138523 -0.061277983724826117 -0.027658266189830794 -0.040636762679885571 -0.051696150546063344 -0.022742667571394235 0.010863388244833454 0.028211306169207861 0.066198134178560575 -0.040012527072678626 -0.0066073238193617928 0.0025409781126520827
leaf_weight=34 77 277 51 474 325 71 353 131 827 550 58 250 325 219 249 295 45 166 301 569 85 122 358 476
leaf_count=34 77 277 51 474 325 71 353 131 827 550 58 250 325 219 249 295 45 166 301 569 85 122 358 476
internal_value=0 0.020168 -0.041705 0.0361509 0.00640028 -0.0583638 -0.0257575 0.0489923 0.0126433 0.0297986 -0.00295821 -0.0509442 -0.0688582 -0.0579341 -0.033453 -0.0376053 -0.0658213 -0.0169246 0.00737698 0.0262446 0.0591384 -0.046168 -0.00832666 0.00141008
internal_weight=6688 4508 2180 2086 2422 1066 1114 690 1453 1396 969 625 441 253 595 346 370 519 626 846 216 372 435 534
internal_count=6688 4508 2180 2086 2422 1066 1114 690 1453 1396 969 625 441 253 595 346 370 519 626 846 216 372 435 534
is_linear=0
shrinkage=0.03


Tree=2
num_leaves=25
num_cat=1
split_feature=53 242 53 44 44 48 49 7 242 86 136 231 66 44 170 100 257 272 33 49 62 47 45 27
split_gain=5883.55 936.935 735.624 161.205 139.302 110.489 90.6332 33.4541 29.4019 27.1271 26.1409 22.7039 20.9528 16.9283 14.504 13.8346 13.0936 15.0362 11.413 11.3473 11.1756 10.4662 8.44778 6.95888
threshold=19.500000000000004 174.50000000000003 6.5000000000000009 670.50000000000011 204.50000000000003 10.500000000000002 56.500000000000007 0 240.50000000000003 249.50000000000003 -4.387924636368056 1.4573498406860805 34.500000000000007 279.50000000000006 0.11204974624370949 10.500000000000002 19.708333333333339 0.9997048248140098 2.5000000000000004 75.500000000000014 6.5000000000000009 2.5000000000000004 317.50000000000006 58.156684341348658
decision_type=2 2 2 2 2 2 2 9 2 2 10 2 2 2 2 2 2 2 2 2 2 2 2 2
left_child=2 4 5 8 11 7 15 10 -3 -5 21 -2 16 -6 23 -4 17 -9 -13 -8 -7 -1 -20 -12
right_child=1 3 6 9 13 20 19 12 -10 -11 14 18 -14 -15 -16 -17 -18 -19 22 -21 -22 -23 -24 -25
leaf_value=-0.064735555092528124 -0.0078930900084132997 0.026088743676092156 -0.036570948613996498 0.045477828409470122 0.011604459941829803 -0.047068720724082767 -0.017093571870513885 -0.041736851007835404 0.034948518989636093 0.061157354743419733 -0.040557368785477339 0.020204499358149584 -0.087742541782607514 0.018549721246426495 -0.025701298238796605 -0.026460103149333933 -0.076880163840959331 -0.064833829289623487 -0.0023147964441009405 -0.0088868988931728957 -0.037242367802752523 -0.049252330472762569 0.0040831790228144458 -0.058875959432908215
leaf_weight=173 254 733 202 474 756 277 339 30 636 129 40 31 45 549 32 324 76 244 298 279 179 56 491 41
leaf_count=173 254 733 202 474 756 277 339 30 636 129 40 31 45 549 32 324 76 244 298 279 179 56 491 41
internal_value=0 0.0206214 -0.038393 0.0359119 0.00794448 -0.0548762 -0.0211979 -0.0620729 0.0302092 0.0488467 -0.0551065 -5.4991e-05 -0.0680815 0.0145298 -0.0431226 -0.0303549 -0.0655207 -0.0623321 0.00236992 -0.0133955 -0.043227 -0.0609855 0.00166292 -0.0499279
internal_weight=6688 4351 2337 1972 2379 1193 1144 737 1369 603 342 1074 395 1305 113 526 350 274 820 618 456 229 789 81
internal_count=6688 4351 2337 1972 2379 1193 1144 737 1369 603 342 1074 395 1305 113 526 350 274 820 618 456 229 789 81
cat_boundaries=0 1
cat_threshold=2
is_linear=0
shrinkage=0.03


Tree=3
num_leaves=25
num_cat=1
split_feature=41 41 38 41 38 254 41 41 163 41 100 121 121 45 166 7 254 162 204 44 129 192 136 49
split_gain=5537.99 975.723 568.889 176.161 132.984 81.8199 74.41 36.3142 30.6735 21.6791 21.1683 20.1966 19.9617 19.3333 14.6089 9.96737 8.18584 7.79663 7.60866 7.58861 7.06855 6.4633 13.3555 6.26535
threshold=52.500000000000007 162.50000000000003 5.5000000000000009 306.50000000000006 29.500000000000004 10.244897959183676 34.500000000000007 530.00000000000011 1.8857557322708975 220.50000000000003 10.500000000000002 1.5000000000000002 6.5000000000000009 287.50000000000006 1.0000000180025095e-35 0 3.1227225977079054 4.2106455336483393 0.74889228378231543 204.50000000000003 30.500000000000004 0.22102177945727527 2.2415784146392888 74.500000000000014
decision_type=2 2 2 2 2 2 2 2 2 2 2 2 2 2 2 9 2 2 2 2 2 2 8 2
left_child=2 4 5 9 13 12 10 17 19 -3 -4 -7 14 23 -1 18 -8 -5 -13 -6 -12 -16 -23 -2
right_child=1 3 6 7 8 11 16 -9 -10 -11 20 15 -14 -15 21 -17 -18 -19 -20 -21 -22 22 -24 -25
leaf_value=-0.034744074262717549 -0.015825545643065646 0.02348226197860144 -0.037142462193175851 0.038309930166959202 0.0036762843385302457 -0.079797632140952326 -0.012931916539752241 0.05725420444043551 0.015368437738502381 0.031120503138848381 -0.012783365675037905 -0.061689914210976048 -0.043409171693589661 0.00081694147901857075 -0.067880278709458133 -0.065793640848339136 -0.021437747073318913 0.045309748697942444 -0.046649140354794297 0.010099837199776626 -0.027445358024796879 -0.036090998628515135 -0.058295774733995748 -0.00623310311075757
leaf_weight=31 75 712 288 330 364 71 343 172 785 645 34 75 372 486 45 236 148 281 59 307 301 31 146 351
leaf_count=31 75 712 288 330 364 71 343 172 785 645 34 75 372 486 45 236 148 281 59 307 301 31 146 351
internal_value=-2.71535e-07 0.0189831 -0.0392563 0.0336646 0.00571307 -0.0549248 -0.0242566 0.0450034 0.0113399 0.0271171 -0.031145 -0.0648523 -0.0479058 -0.00326699 -0.0544859 -0.0619556 -0.0155057 0.041541 -0.0551296 0.00662076 -0.0259705 -0.0572123 -0.0544463 -0.00793227
internal_weight=6688 4508 2180 2140 2368 1066 1114 783 1456 1357 623 441 625 912 253 370 491 611 134 671 335 222 177 426
internal_count=6688 4508 2180 2140 2368 1066 1114 783 1456 1357 623 441 625 912 253 370 491 611 134 671 335 222 177 426
cat_boundaries=0 1
cat_threshold=2
is_linear=0
shrinkage=0.03


Tree=4
num_leaves=25
num_cat=0
split_feature=38 242 38 44 44 156 49 274 242 82 163 254 44 121 121 121 136 62 251 88 50 34 224 121
split_gain=5215.33 829.271 651.595 142.919 122.642 97.7344 80.0935 31.5223 26.1499 24.2513 23.8216 19.0722 15.2084 14.8644 11.0038 10.4716 10.4199 10.308 10.0359 9.56331 8.77052 13.3624 6.66963 4.5242
threshold=19.500000000000004 174.50000000000003 6.5000000000000009 670.50000000000011 204.50000000000003 0.11413043478260872 56.500000000000007 0.99903374435883829 240.50000000000003 145.50000000000003 1.5864299942663906 11.005434782608697 276.50000000000006 1.5000000000000002 51.500000000000007 44.500000000000007 1.0000000180025095e-35 6.5000000000000009 15875.280000000001 25.500000000000004 85.500000000000014 5.5000000000000009 0.36263437389525982 14.500000000000002
decision_type=2 2 2 2 2 2 2 2 2 2 2 2 2 2 2 2 10 2 2 2 2 2 2 2
left_child=2 4 5 8 10 7 20 -1 -3 -5 14 16 -6 -13 -2 -8 22 -7 -15 -12 21 -4 -9 -23
right_child=1 3 6 9 12 17 15 11 -10 -11 19 13 -14 18 -16 -17 -18 -19 -20 -21 -22 23 -24 -25
leaf_value=-0.031522823302295264 -0.011456411693767557 0.024543052658605354 -0.015288348269951339 0.04273040599288952 0.010765511844963757 -0.044392629371238751 -0.015801996815669107 -0.07033771389380683 0.032900095363897909 0.057396984696836059 0.021018072261267718 -0.077935767404494746 0.017308765706733314 -0.063573753854802531 -0.0018241132221915395 -0.0077813409809011731 -0.043072372447764247 -0.03495621557280397 -0.045146194902535908 0.0035677238390311619 -0.024395645331172444 -0.04057342381842876 -0.055132897949414693 -0.031656311576252871
leaf_weight=38 145 733 37 470 727 277 373 33 636 133 30 65 578 281 408 245 63 179 32 491 248 86 225 155
leaf_count=38 145 733 37 470 727 277 373 33 636 133 30 65 578 281 408 245 63 179 32 491 248 86 225 155
internal_value=-5.24899e-07 0.0194144 -0.0361477 0.0337997 0.00748805 -0.051661 -0.0199641 -0.0584302 0.0284298 0.0459793 -1.76825e-05 -0.0598839 0.013667 -0.0645316 -0.0043568 -0.0126289 -0.0543832 -0.0407035 -0.0617144 0.00458214 -0.0285726 -0.0322778 -0.0571158 -0.0348663
internal_weight=6688 4351 2337 1972 2379 1193 1144 737 1369 603 1074 699 1305 378 553 618 321 456 313 521 526 278 258 241
internal_count=6688 4351 2337 1972 2379 1193 1144 737 1369 603 1074 699 1305 378 553 618 321 456 313 521 526 278 258 241
is_linear=0
shrinkage=0.03


Tree=5
num_leaves=25
num_cat=1
split_feature=38 41 38 41 163 48 41 274 163 41 247 7 41 66 45 158 34 136 258 170 62 68 41 38
split_gain=4907.39 780.275 613.12 134.497 115.034 91.9653 75.969 29.6473 25.0307 25.0177 22.9423 18.1768 17.8739 17.8337 13.0928 11.2058 11.2393 10.4449 10.0727 9.92109 9.69071 7.72436 6.2443 6.1376
threshold=19.500000000000004 174.50000000000003 6.5000000000000009 346.50000000000006 1.6869670997167476 10.500000000000002 36.500000000000007 0.99903374435883829 1.9600217841756291 240.50000000000003 55.500000000000007 0 75.500000000000014 43.500000000000007 181.50000000000003 0.25342465753424664 5.5000000000000009 -3.615046276170427 19.250000000000004 0.098838128634770733 6.5000000000000009 450.00000000000006 104.50000000000001 28.500000000000004
decision_type=2 2 2 2 2 2 2 2 2 2 2 9 2 2 2 2 2 10 2 2 2 2 2 2
left_child=2 4 5 9 12 7 15 -1 22 -3 -5 17 -2 18 -8 16 -4 21 -13 -19 -7 -9 -6 -10
right_child=1 3 6 10 8 20 14 11 23 -11 -12 13 -14 -15 -16 -17 -18 19 -20 -21 -22 -23 -24 -25
leaf_value=-0.030579621087847727 -0.0061265071161852808 0.023803500956357131 -0.014837704129739957 0.04035263274677308 0.0047581746713310077 -0.043061330389911695 -0.018172231975090113 -0.063203680524367409 0.0038504813083513516 0.031961592403903234 0.052854850410200445 -0.057368597196559318 0.0026535276276915768 -0.083399873177210496 -0.008695613468038375 -0.02234376758365543 -0.033089054103267901 -0.050816713024278315 -0.069661056920626449 -0.029246332403829324 -0.033908114659925999 -0.051363841951293433 0.010410393705966281 0.016316070634076262
leaf_weight=38 415 734 35 392 303 277 199 91 38 640 206 262 419 35 393 235 282 61 86 30 179 134 429 775
leaf_count=38 415 734 35 392 303 277 199 91 38 640 206 262 419 35 393 235 282 61 86 30 179 134 429 775
internal_value=-7.98143e-07 0.0188322 -0.0350645 0.0327861 0.00726349 -0.0501129 -0.0193659 -0.0566796 0.0121103 0.0276077 0.0446725 -0.0580896 -0.00171205 -0.0625619 -0.0118888 -0.0273759 -0.0310887 -0.0526414 -0.0604341 -0.0437784 -0.0394831 -0.0561917 0.00807581 0.0157377
internal_weight=6688 4351 2337 1972 2379 1193 1144 737 1545 1374 598 699 834 383 592 552 317 316 348 91 456 225 732 813
internal_count=6688 4351 2337 1972 2379 1193 1144 737 1545 1374 598 699 834 383 592 552 317 316 348 91 456 225 732 813
cat_boundaries=0 1
cat_threshold=2
is_linear=0
shrinkage=0.03


Tree=6
num_leaves=25
num_cat=0
split_feature=41 41 38 41 38 48 41 247 274 163 142 254 162 100 257 62 15 280 258 241 129 38 45 100
split_gain=4617.69 782.839 507.737 140.699 107.156 86.9376 51.5881 31.881 27.8843 22.9593 18.7763 17.3738 16.4524 15.2993 13.5758 9.87027 9.33081 13.5841 8.26892 7.09981 7.06056 6.50268 6.39075 6.06693
threshold=54.500000000000007 166.50000000000003 6.5000000000000009 306.50000000000006 31.500000000000004 10.500000000000002 36.500000000000007 54.500000000000007 0.99903374435883829 1.8857557322708975 24.083333333333336 10.244897959183676 2.9033048376486108 10.500000000000002 5.0277777777777786 6.5000000000000009 12.500000000000002 1.0000000180025095e-35 17.250000000000004 0.64605618048492464 27.500000000000004 20.500000000000004 181.50000000000003 575.50000000000011
decision_type=2 2 2 2 2 2 2 2 2 2 2 2 2 2 2 2 2 2 2 2 2 2 2 2
left_child=2 4 5 12 10 8 13 -5 -1 -6 -2 16 -3 -4 -13 -7 -10 -18 -16 22 -15 -12 -8 -9
right_child=1 3 6 7 9 15 19 23 11 -11 21 14 -14 20 18 -17 17 -19 -20 -21 -22 -23 -24 -25
leaf_value=-0.029664640442182227 -0.006605694393536715 0.022462809467651355 -0.032575933291106529 0.03734820042226579 0.0066288471922101057 -0.041794316838286466 -0.017419961064541314 0.047484691716991934 -0.06467579656698573 0.014478190546301088 -0.0056287219001902172 -0.079900863109294243 0.029535687900976413 -0.0081773015264533094 -0.055279240110060156 -0.032485790795629056 -0.033383016564473976 -0.051703290757416823 -0.064865853328021389 0.00097884397941770261 -0.023592422993957557 0.0031908534506737232 -0.010261855563644156 0.058993056029218685
leaf_weight=38 413 834 212 567 576 274 223 151 38 810 89 31 469 30 250 175 47 196 137 31 320 478 234 65
leaf_count=38 413 834 212 567 576 274 223 151 38 810 89 31 469 30 250 175 47 196 137 31 320 478 234 65
internal_value=-1.04746e-06 0.0176647 -0.035175 0.0310623 0.0058505 -0.0486276 -0.019974 0.0411206 -0.0549818 0.011219 -0.0017394 -0.0563494 0.025013 -0.0261758 -0.0602951 -0.038181 -0.05045 -0.0481874 -0.0586966 -0.0128217 -0.0222824 0.00180044 -0.0137644 0.0509874
internal_weight=6688 4452 2236 2086 2366 1186 1050 783 737 1386 980 699 1303 562 418 449 281 243 387 488 350 567 457 216
internal_count=6688 4452 2236 2086 2366 1186 1050 783 737 1386 980 699 1303 562 418 449 281 243 387 488 350 567 457 216
is_linear=0
shrinkage=0.03


Tree=7
num_leaves=25
num_cat=0
split_feature=38 242 38 163 44 242 157 272 15 163 38 242 161 254 62 242 45 157 164 50 34 258 154 165
split_gain=4348.35 690.895 542.43 120.524 103.057 80.6074 67.429 25.993 27.1575 24.9161 22.0391 20.6096 18.1544 10.5359 10.3122 9.48121 9.21922 8.52705 8.29283 7.66759 11.708 7.04155 5.24091 4.68212
threshold=19.500000000000004 174.50000000000003 6.5000000000000009 3.7496331518843822 217.50000000000003 10.500000000000002 0.30706521739130438 0.9997048248140098 34.500000000000007 1.5864299942663906 182.50000000000003 240.50000000000003 0.99984526218443681 5.0253205128205138 6.5000000000000009 57.500000000000007 574.50000000000011 0.38858695652173919 0.22107293127629735 85.500000000000014 5.5000000000000009 2.7500000000000004 0.63939834063631629 -0.14999999999999999
decision_type=2 2 2 2 2 2 2 2 2 2 2 2 2 2 2 2 2 2 2 2 2 2 2 2
left_child=2 4 5 11 9 7 19 8 -1 15 -5 -3 13 -9 22 -2 -6 -8 -11 20 -4 -15 -7 -19
right_child=1 3 6 10 16 14 17 12 -10 18 -12 -13 -14 21 -16 -17 -18 23 -20 -21 -22 -23 -24 -25
leaf_value=-0.061634529289415103 -0.011418145749330347 0.022352362331564745 -0.013698767185050521 0.038168110184856316 0.010954506321724938 -0.047439364125769976 -0.015332334716472757 -0.044333258196015218 -0.026254651569625084 0.0038835456307683325 0.050792730429211334 0.029830744899755637 -0.050629223750049822 -0.077669072333364397 -0.032211481310196508 -0.001910800030006066 0.016400005246026094 -0.01848475358371527 0.019554268759240125 -0.022233392099974884 -0.032028299809144962 -0.061380770747276978 -0.038669468306074817 -0.0069671735051613096
leaf_weight=30 121 726 37 444 698 95 285 32 58 618 178 624 294 30 184 434 476 36 32 248 241 246 224 297
leaf_count=30 121 726 37 444 698 95 285 32 58 618 178 624 294 30 184 434 476 36 32 248 241 246 224 297
internal_value=-1.24785e-06 0.0177266 -0.0330074 0.030857 0.00684052 -0.0471619 -0.0182413 -0.0538362 -0.0384063 0.000674546 0.0417933 0.0258132 -0.0560801 -0.0612553 -0.0379913 -0.00399066 0.0131662 -0.0115103 0.00466253 -0.0261402 -0.0296053 -0.0631896 -0.0413046 -0.0082265
internal_weight=6688 4351 2337 1972 2379 1193 1144 690 88 1205 622 1350 602 308 503 555 1174 618 650 526 278 276 319 333
internal_count=6688 4351 2337 1972 2379 1193 1144 690 88 1205 622 1350 602 308 503 555 1174 618 650 526 278 276 319 333
is_linear=0
shrinkage=0.03


Tree=8
num_leaves=25
num_cat=0
split_feature=38 162 38 44 160 121 41 162 274 162 62 254 100 44 41 34 121 133 136 42 49 42 162 34
split_gain=4091.6 658.066 510.404 106.394 105.594 77.3299 63.5848 27.12 21.2486 20.9144 14.514 13.2203 12.1368 11.5217 10.9036 10.2521 10.1557 7.06359 10.5786 5.88726 5.79475 5.59953 5.40244 5.32608
threshold=19.500000000000004 2.3733601055997524 6.5000000000000009 217.50000000000003 3.6250300059957019 6.5000000000000009 36.500000000000007 5.563156246394251 0.99903374435883829 1.5296491122268121 6.5000000000000009 11.005434782608697 10.500000000000002 474.50000000000006 138.50000000000003 88.500000000000014 1.5000000000000002 1.0000000180025095e-35 -1.5559103846509899 7517.1900000000005 79.500000000000014 2310.8100000000009 1.2368176944411415 727.50000000000011
decision_type=2 2 2 2 2 2 2 2 2 2 2 2 2 2 2 2 2 2 10 2 2 2 2 2
left_child=2 3 5 9 13 8 12 23 -1 20 19 17 22 -3 -5 -8 -13 -10 -19 -7 -2 -18 -4 -6
right_child=1 4 6 14 7 10 15 -9 11 -11 -12 16 -14 -15 -16 -17 21 18 -20 -21 -22 -23 -24 -25
leaf_value=-0.029279588456307831 -0.010125485235032384 0.021867675700473398 -0.033371991435354798 0.010091854943215716 0.033651574708302052 -0.042774433326796597 -0.015434324748522308 0.048996688898835038 -0.062506970976454773 0.003419269265549486 -0.030807551130345105 -0.069470754317973629 -0.021480386344709401 0.027958714180988005 0.015733771732114953 -0.0074220909222310104 -0.057384468089420007 -0.050648032057336576 -0.0345547104695937 -0.032072104990936171 -0.0024942968905794618 -0.04277472481329575 -0.021607860006748265 0.040026517127577349
leaf_weight=33 131 621 163 598 377 320 253 190 34 780 189 65 341 527 649 339 231 183 49 59 288 30 48 190
leaf_count=33 131 621 163 598 377 320 253 190 34 780 189 65 341 527 649 339 231 183 49 59 288 30 48 190
internal_value=-1.4843e-06 0.0171951 -0.0320185 0.00689671 0.0304154 -0.0457487 -0.0176947 0.0391221 -0.0530484 0.000513146 -0.0377033 -0.0543631 -0.0250231 0.0246686 0.0130316 -0.0108533 -0.0585023 -0.0492588 -0.0472783 -0.0411252 -0.00488919 -0.0557337 -0.0307215 0.0357998
internal_weight=6688 4351 2337 2446 1905 1193 1144 757 625 1199 568 592 552 1148 1247 592 326 266 232 379 419 261 211 567
internal_count=6688 4351 2337 2446 1905 1193 1144 757 625 1199 568 592 552 1148 1247 592 326 266 232 379 419 261 211 567
is_linear=0
shrinkage=0.03


Tree=9
num_leaves=25
num_cat=0
split_feature=41 41 38 41 38 254 121 38 162 121 41 49 50 100 166 121 193 121 146 254 38 50 240 49
split_gain=3850.19 679.109 395.572 123.732 94.6038 58.4381 52.7686 26.3515 20.3494 15.2316 15.0587 14.9496 13.1612 12.7517 12.0395 8.88772 8.39062 7.86321 7.49184 6.50981 5.72112 5.46422 9.84396 4.71867
threshold=52.500000000000007 162.50000000000003 5.5000000000000009 306.50000000000006 29.500000000000004 10.244897959183676 26.500000000000004 155.50000000000003 1.8102674931106202 2.5000000000000004 220.50000000000003 25.500000000000004 181.50000000000003 10.500000000000002 0.14284863998214961 6.5000000000000009 0.49989585589771529 593.50000000000011 0.85417517346396687 3.1227225977079054 3.5000000000000004 74.500000000000014 0.17032591966492644 74.500000000000014
decision_type=2 2 2 2 2 2 2 2 2 2 2 2 2 2 2 2 2 2 2 2 2 2 2 2
left_child=2 4 5 10 12 11 13 -5 -6 -7 -3 14 23 21 -1 -16 20 -9 19 -8 -11 22 -4 -2
right_child=1 3 6 7 8 9 18 17 -10 16 -12 -13 -14 -15 15 -17 -18 -19 -20 -21 -22 -23 -24 -25
leaf_value=-0.026330166587707121 -0.013934423982627132 0.01955460909868344 -0.038103679658953539 0.033363249195255129 0.0047608976941393146 -0.064114989599197633 -0.011883135921647392 0.041512750392823233 0.012162923616338261 -0.049831122818179245 0.025925806308833038 -0.034089619735481497 9.3800443187599334e-05 -0.021985575439816274 -0.049652508547248904 -0.039560843394483687 -0.058147916890801309 0.052747468853108895 0.00066753350060516994 -0.018980451375549573 -0.036865133698757761 -0.025906346121550013 -0.019789323089671622 -0.0054777726429942183
leaf_weight=34 76 712 139 497 524 109 332 201 932 186 645 250 551 277 197 144 105 85 31 184 41 117 34 285
leaf_count=34 76 712 139 497 524 109 332 201 932 186 645 250 551 277 197 144 105 85 31 184 41 117 34 285
internal_value=-1.7099e-06 0.0158267 -0.0327337 0.0280751 0.00475563 -0.0457996 -0.0202251 0.0375787 0.00950158 -0.0541918 0.0225868 -0.0398655 -0.00281814 -0.0266441 -0.0436979 -0.0454126 -0.0509066 0.0448795 -0.0135623 -0.014423 -0.0475197 -0.0310744 -0.0345352 -0.00726979
internal_weight=6688 4508 2180 2140 2368 1066 1114 783 1456 441 1357 625 912 567 375 341 332 286 547 516 227 290 173 361
internal_count=6688 4508 2180 2140 2368 1066 1114 783 1456 441 1357 625 912 567 375 341 332 286 547 516 227 290 173 361
is_linear=0
shrinkage=0.03


Tree=10
num_leaves=25
num_cat=1
split_feature=38 162 38 44 162 48 49 7 136 82 38 66 162 242 15 15 257 100 155 50 50 68 162 48
split_gain=3626.95 583.447 451.82 94.1928 94.0464 68.1719 56.538 25.3058 20.0079 17.6166 15.77 15.5228 14.9507 13.3564 11.8296 19.5667 9.44224 8.7763 8.64567 7.09425 7.05448 6.5743 5.36913 5.16871
threshold=19.500000000000004 2.3733601055997524 6.5000000000000009 204.50000000000003 3.8437119996618998 10.500000000000002 56.500000000000007 0 -4.387924636368056 145.50000000000003 89.500000000000014 34.500000000000007 1.5296491122268121 138.50000000000003 16.500000000000004 53.500000000000007 19.708333333333339 10.500000000000002 0.080645161290322592 139.50000000000003 66.500000000000014 154.50000000000003 1.2368176944411415 42.500000000000007
decision_type=2 2 2 2 2 2 2 9 10 2 2 2 2 2 2 2 2 2 2 2 2 2 2 2
left_child=2 3 5 12 10 7 17 8 18 -6 -3 16 23 -5 -10 -16 21 22 -1 -8 -7 -9 -4 -2
right_child=1 4 6 13 9 20 19 11 14 -11 -12 -13 -14 -15 15 -17 -18 -19 -20 -21 -22 -23 -24 -25
leaf_value=-0.05119473137620003 -0.0087915963515728373 0.021487673632593639 -0.031365228401604529 0.0088627633300615398 0.035657435324113258 -0.037141393131338636 -0.014568538693933184 -0.035191368516101385 -0.046222740310542985 0.048161246426386736 0.028353716878486854 -0.070845269670507596 0.002656243047607931 0.014798471313519773 -0.010305204261713625 -0.040905060459661351 -0.061377270417520467 -0.020794237918590863 -0.037201550531992936 -0.0079314769094427136 -0.029392849411201349 -0.050707696815727545 -0.018899521520973121 -0.0019370859776714395
leaf_weight=173 163 810 161 726 472 265 239 30 37 133 490 45 649 652 39 37 76 324 56 379 191 244 41 256
leaf_count=173 163 810 161 726 472 265 239 30 37 133 490 45 649 652 39 37 76 324 56 379 191 244 41 256
internal_value=-1.88473e-06 0.0161888 -0.0301462 0.00649176 0.0286371 -0.0430645 -0.0166692 -0.0487195 -0.0426664 0.0384187 0.0240799 -0.0539406 -0.000192706 0.0116743 -0.0321961 -0.0252761 -0.051739 -0.0239025 -0.0478036 -0.010505 -0.0339096 -0.0490332 -0.0288605 -0.00461226
internal_weight=6688 4351 2337 2446 1905 1193 1144 737 342 605 1300 395 1068 1378 113 76 350 526 229 618 456 274 202 419
internal_count=6688 4351 2337 2446 1905 1193 1144 737 342 605 1300 395 1068 1378 113 76 350 526 229 618 456 274 202 419
cat_boundaries=0 1
cat_threshold=2
is_linear=0
shrinkage=0.03


Tree=11
num_leaves=25
num_cat=0
split_feature=53 41 53 44 163 121 41 247 272 15 163 44 50 50 100 53 49 121 193 53 257 160 208 15
split_gain=3412.82 543.118 425.157 95.8338 81.9627 64.914 53.2651 23.6011 18.8659 22.7874 17.9059 13.3587 12.8511 11.9171 9.98137 9.79118 8.82582 8.04857 5.40011 5.07409 5.03077 5.01382 4.93408 4.3972
threshold=19.500000000000004 174.50000000000003 6.5000000000000009 595.50000000000011 1.6869670997167476 6.5000000000000009 36.500000000000007 54.500000000000007 0.9997048248140098 36.500000000000007 1.9600217841756291 144.50000000000003 66.500000000000014 31.500000000000004 10.500000000000002 73.500000000000014 71.500000000000014 2.5000000000000004 0.3999400099982004 262.00000000000006 1.4959016393442626 2.0783800008331963 0.022762990898195199 11.500000000000002
decision_type=2 2 2 2 2 2 2 2 2 2 2 2 2 2 2 2 2 2 2 2 2 2 2 2
left_child=2 4 5 15 11 8 14 -5 9 -1 20 -2 23 17 22 -3 -8 -10 -19 -9 -6 -12 -4 -7
right_child=1 3 6 7 10 12 16 19 13 -11 21 -13 -14 -15 -16 -17 -18 18 -20 -21 -22 -23 -24 -25
leaf_value=-0.056205499161319478 -0.0055095477326286687 0.018798566705068475 -0.029978928205571128 0.032242700476078502 0.0094972725252208783 -0.046109985558176678 -0.013876647386972389 0.041158767679567179 -0.060591623957778173 -0.023484034676192676 0.010780573230366514 0.0020891069897842705 -0.028014719841634284 -0.043765709335650833 -0.019661577920197598 0.024354597636319895 -0.0064977231913521142 -0.046736181263904962 -0.056035135009174189 0.052287602085282749 0.0044721379737319928 0.015542853144221269 -0.016684204454015684 -0.036291310023533703
leaf_weight=30 397 514 180 570 328 52 273 162 112 55 399 437 193 169 341 672 319 153 106 54 404 414 31 323
leaf_count=30 397 514 180 570 328 52 273 162 112 55 399 437 193 169 341 672 319 153 106 54 404 414 31 323
internal_value=-2.1488e-06 0.0157033 -0.0292431 0.0273451 0.00605119 -0.0417745 -0.0161697 0.0354766 -0.0484634 -0.0351205 0.0101424 -0.00152463 -0.0344019 -0.0505513 -0.0228775 0.021951 -0.00990734 -0.0536216 -0.0505737 0.0439778 0.00672893 0.0132109 -0.0280487 -0.0376728
internal_weight=6688 4351 2337 1972 2379 1193 1144 786 625 85 1545 834 568 540 552 1186 592 371 259 216 732 813 211 375
internal_count=6688 4351 2337 1972 2379 1193 1144 786 625 85 1545 834 568 540 552 1186 592 371 259 216 732 813 211 375
is_linear=0
shrinkage=0.03


Tree=12
num_leaves=25
num_cat=0
split_feature=53 162 53 162 44 121 45 274 162 121 162 41 62 256 34 66 100 162 41 82 229 53 275 122
split_gain=3211.47 543.964 368.423 91.4196 84.5322 61.0802 42.9418 17.7602 17.2695 15.8668 13.1696 12.2637 12.1636 11.6757 12.5108 11.6041 9.2488 5.48182 5.04787 5.03959 4.38752 4.26842 4.3862 5.42573
threshold=18.500000000000004 2.3167662268152474 6.5000000000000009 3.8437119996618998 195.50000000000003 6.5000000000000009 150.50000000000003 0.99903374435883829 2.9634159540478797 593.50000000000011 1.4466828126691629 129.50000000000003 6.5000000000000009 18.500000000000004 16.500000000000004 49.500000000000007 10.500000000000002 1.2368176944411415 39.500000000000007 115.50000000000001 0.51620589718186582 3.5000000000000004 0.99999984374086581 2.5000000000000004
decision_type=2 2 2 2 2 2 2 2 2 2 2 2 2 2 2 2 2 2 2 2 2 2 2 2
left_child=2 4 5 8 10 7 16 -1 -3 19 -2 -6 21 -9 15 -15 17 -4 -8 -5 -18 -7 -23 -24
right_child=1 3 6 9 11 12 18 13 -10 -11 -12 -13 -14 14 -16 -17 20 -19 -20 -21 -22 22 23 -25
leaf_value=-0.025279964982923061 -0.0069216751146967091 0.019301700713599497 -0.029863721164812489 0.031630283462966424 0.0071924879079623511 -0.040483304068763208 -0.015519500391766188 -0.029550519977569377 0.026071740610115607 0.048320740798945716 0.00079598141885840073 0.012857505412192542 -0.027056867105256923 -0.050246020829638152 -0.041040180347981188 -0.068988106016539402 -0.020236633295917333 -0.016735329411903799 -0.0083772306277949491 0.037848596239233284 -0.0085630716606299329 -0.039373110980333408 -0.02162146559667949 -0.034509212669890016
leaf_weight=33 269 801 157 308 669 155 117 30 600 85 762 717 189 393 135 34 331 37 397 212 33 83 46 95
leaf_count=33 269 801 157 308 669 155 117 30 600 85 762 717 189 393 135 34 331 37 397 212 33 83 46 95
internal_value=-2.26287e-06 0.0148737 -0.0290522 0.0264221 0.00528716 -0.0405229 -0.0162813 -0.0470116 0.0222049 0.0361776 -0.00121521 0.010126 -0.0333707 -0.0482135 -0.049199 -0.0517612 -0.0220485 -0.0273852 -0.0100115 0.034178 -0.0191892 -0.0365034 -0.0337192 -0.0303443
internal_weight=6688 4423 2265 2006 2417 1193 1072 625 1401 605 1031 1386 568 592 562 427 558 194 514 520 364 379 224 141
internal_count=6688 4423 2265 2006 2417 1193 1072 625 1401 605 1031 1386 568 592 562 427 558 194 514 520 364 379 224 141
is_linear=0
shrinkage=0.03


Tree=13
num_leaves=25
num_cat=0
split_feature=242 242 38 86 38 254 121 247 162 45 16 295 121 270 45 136 45 262 38 254 44 135 159 45
split_gain=3023.5 533.449 309.498 98.3184 75.4907 46.843 41.632 17.5035 16.1183 16.0383 13.7072 13.3727 17.2706 12.9829 11.0944 9.1517 8.59528 14.5269 6.09954 6.07418 5.9538 5.56452 4.82897 4.588
threshold=52.500000000000007 162.50000000000003 5.5000000000000009 146.50000000000003 29.500000000000004 10.244897959183676 26.500000000000004 54.500000000000007 2.9033048376486108 432.50000000000006 11.500000000000002 2.5000000000000004 5.5000000000000009 982.83000000000004 287.50000000000006 1.0945975098177232 96.500000000000014 38.500000000000007 3.5000000000000004 3.1227225977079054 8.5000000000000018 -0.32277339226305074 2.4718928535015334 2503.5000000000005
decision_type=2 2 2 2 2 2 2 2 2 2 2 2 2 2 2 8 2 2 2 2 2 2 2 2
left_child=2 4 5 8 14 10 16 -5 22 -6 -1 15 -13 20 -2 -12 17 -4 -15 -8 -7 -10 -3 -9
right_child=1 3 6 7 9 13 19 23 21 -11 11 12 -14 18 -16 -17 -18 -19 -20 -21 -22 -23 -24 -25
leaf_value=-0.051583744530775112 -0.0060877801285325189 0.015687588532602447 -0.012494383897639509 0.030978814379947463 0.0042477863424168864 -0.058735847170469549 -0.0097108180271796157 0.038105693789398147 0.012031871342909671 0.010817700370035635 -0.01257109462285874 -0.045871057182574643 -0.03270548321474763 -0.044583831665178236 0.00053866045300827124 -0.031362350887150933 -0.019572358978428846 -0.030034139140832899 -0.030171605710290431 -0.016418118950995535 -0.048770532251565725 0.025150198066009453 0.020184809486249747 0.047802028293974917
leaf_weight=44 426 446 52 465 525 96 359 143 32 931 40 123 359 151 486 59 260 255 35 188 159 540 441 73
leaf_count=44 426 446 52 465 525 96 359 143 32 931 40 123 359 151 486 59 260 255 35 188 159 540 441 73
internal_value=-2.43736e-06 0.014024 -0.0290084 0.0248797 0.00421169 -0.0405659 -0.0179435 0.0342997 0.0204788 0.00845126 -0.0352515 -0.0340008 -0.0360802 -0.048081 -0.00255362 -0.0238205 -0.0236456 -0.027078 -0.0419056 -0.0120241 -0.0525555 0.0244238 0.0179289 0.0414172
internal_weight=6688 4508 2180 2140 2368 1066 1114 681 1459 1456 625 581 482 441 912 99 567 307 186 547 255 572 887 216
internal_count=6688 4508 2180 2140 2368 1066 1114 681 1459 1456 625 581 482 441 912 99 567 307 186 547 255 572 887 216
is_linear=0
shrinkage=0.03


Tree=14
num_leaves=25
num_cat=0
split_feature=38 162 38 160 41 121 45 162 229 231 50 62 100 45 44 166 44 48 162 38 179 82 42 252
split_gain=2847.3 458.891 354.074 75.6237 74.41 54.3386 45.4699 19.0196 16.3343 14.2859 14.2575 11.1494 9.18844 9.07528 8.0751 7.2554 6.09167 5.5581 5.17465 5.09787 4.9953 6.31457 4.97461 4.5084
threshold=19.500000000000004 2.3733601055997524 6.5000000000000009 3.6250300059957019 105.50000000000001 6.5000000000000009 155.50000000000003 5.563156246394251 0.49302443035811333 1.5801145110324899 31.500000000000004 6.5000000000000009 10.500000000000002 574.50000000000011 523.50000000000011 0.19234300759161196 101.50000000000001 36.500000000000007 1.2368176944411415 27.500000000000004 0.89870657106779894 2.5000000000000004 8998.0550000000003 0.16666373461962644
decision_type=2 2 2 2 2 2 2 2 2 2 2 2 2 2 2 2 2 2 2 2 2 2 2 2
left_child=2 4 5 14 9 8 12 -5 10 16 20 22 18 -6 -3 -10 -2 -8 -4 -11 21 -1 -7 -21
right_child=1 3 6 7 13 11 17 -9 15 19 -12 -13 -14 -15 -16 -17 -18 -19 -20 23 -22 -23 -24 -25
leaf_value=-0.053534240000911087 -0.010706441770059296 0.018880650591260536 -0.028360018661736992 0.029966308695154618 0.008600038382121325 -0.035881024977178974 -0.011616803889747791 0.041028098776575955 -0.021988909683187903 -8.0648295293927471e-05 -0.03908293199996845 -0.025354986651364708 -0.017923129545550184 0.013742306603189865 0.024477263501475933 -0.040129051231810826 -0.0020299071370006821 -0.0055835358480069526 -0.01561594888126111 0.0043878268244482927 -0.037221773368773664 -0.044097093671083928 -0.025931059375483602 0.016028899948402474
leaf_weight=234 88 813 158 567 778 322 279 190 39 252 178 189 393 520 335 44 430 277 37 345 30 100 57 33
leaf_count=234 88 813 158 567 778 322 279 190 39 252 178 189 393 520 335 44 430 277 37 345 30 100 57 33
internal_value=-2.52802e-06 0.0143428 -0.0267112 0.0253827 0.0057427 -0.0381473 -0.0147803 0.0327517 -0.0442681 0.000176085 -0.0461843 -0.0314004 -0.0205996 0.0106633 0.0205184 -0.0316782 -0.00351149 -0.00861796 -0.0259665 0.00321293 -0.0496371 -0.0507318 -0.0343997 0.00541602
internal_weight=6688 4351 2337 1905 2446 1193 1144 757 625 1148 542 568 588 1298 1148 83 518 556 195 630 364 334 379 378
internal_count=6688 4351 2337 1905 2446 1193 1144 757 625 1148 542 568 588 1298 1148 83 518 556 195 630 364 334 379 378
is_linear=0
shrinkage=0.03


Tree=15
num_leaves=25
num_cat=0
split_feature=38 162 38 44 41 48 49 274 82 163 271 50 38 68 41 100 41 62 316 41 83 254 272 154
split_gain=2679.19 431.895 333.17 77.1321 63.8822 51.2318 42.5471 19.2647 18.8072 14.9793 11.8344 11.9019 8.85393 6.94967 6.72715 6.53243 6.08918 5.64502 5.50225 5.42982 4.77377 4.58039 4.48852 4.46601
threshold=19.500000000000004 2.3167662268152474 6.5000000000000009 595.50000000000011 105.50000000000001 10.500000000000002 56.500000000000007 0.99903374435883829 119.50000000000001 1.5864299942663906 8203.9900000000016 22.500000000000004 70.500000000000014 133.50000000000003 138.50000000000003 7.5000000000000009 57.500000000000007 6.5000000000000009 577.00000000000011 39.500000000000007 32.500000000000007 3.5093393289519201 0.99997468012839452 0.99999877317899843
decision_type=2 2 2 2 2 2 2 2 2 2 2 2 2 2 2 2 2 2 2 2 2 2 2 2
left_child=2 4 5 12 9 7 15 -1 -5 16 11 13 -3 -9 -6 -4 -2 -7 -10 -8 -13 -17 -23 -12
right_child=1 3 6 8 14 17 19 10 18 -11 23 20 -14 -15 -16 21 -18 -19 -20 -21 -22 22 -24 -25
leaf_value=-0.020869745827155319 -0.0094317900741197509 0.016227460025171676 -0.027230456432926885 0.028044705066762526 0.0078973696885192932 -0.031802880973086291 -0.014516809001146212 -0.042449281359357501 0.035726984170999732 0.0033753217546141417 -0.039931102797480078 -0.042709970525291956 0.021497191324801559 -0.053388485116098255 0.012428036484666418 -0.014677077192611604 -0.001791067098002176 -0.024797138660909043 0.047046102588657296 -0.0075361140029100333 -0.033270666072582875 -0.010153618749738531 -0.022724744586640803 -0.026781759091202756
leaf_weight=38 121 487 109 514 641 277 128 86 222 600 49 281 732 167 558 154 425 179 51 490 65 30 233 51
leaf_count=38 121 487 109 514 641 277 128 86 222 600 49 281 732 167 558 154 425 179 51 490 65 30 233 51
internal_value=-2.67561e-06 0.0139127 -0.0259108 0.024132 0.00516867 -0.0370043 -0.0143374 -0.0419076 0.0314608 0.000101176 -0.0430439 -0.0446616 0.0193959 -0.0497001 0.0100092 -0.0206127 -0.00349125 -0.0290654 0.037869 -0.00898892 -0.0409555 -0.0188696 -0.0213066 -0.0332884
internal_weight=6688 4351 2337 2006 2345 1193 1144 737 787 1146 699 599 1219 253 1199 526 546 456 273 618 346 417 263 100
internal_count=6688 4351 2337 2006 2345 1193 1144 737 787 1146 699 599 1219 253 1199 526 546 456 273 618 346 417 263 100
is_linear=0
shrinkage=0.03


Tree=16
num_leaves=25
num_cat=0
split_feature=38 162 38 163 163 121 50 242 272 15 38 162 121 82 50 254 130 242 162 121 34 42 226 135
split_gain=2521.29 426.889 288.624 72.994 67.2257 48.5084 33.5051 15.9564 14.9637 20.0048 13.5264 12.6481 10.7331 10.3247 10.1744 8.10997 7.73626 6.60628 6.53093 6.28562 4.83137 4.80287 3.96056 3.79412
threshold=18.500000000000004 2.3167662268152474 6.5000000000000009 3.7496331518843822 1.6482841434315501 6.5000000000000009 100.50000000000001 115.50000000000001 0.9997048248140098 36.500000000000007 182.50000000000003 2.9634159540478797 51.500000000000007 2.5000000000000004 66.500000000000014 6.3141447368421062 21.500000000000004 39.500000000000007 0.99988195842812189 14.500000000000002 90.500000000000014 8998.0550000000003 2.9977518733140927 -0.25008312719290687
decision_type=2 2 2 2 2 2 2 2 2 2 2 2 2 2 2 2 2 2 2 2 2 2 2 2
left_child=2 4 5 11 12 8 16 -6 9 -1 -5 -3 -2 15 21 -10 -4 -8 -17 -18 -19 -7 -15 -13
right_child=1 3 6 10 7 14 17 -9 13 -11 -12 23 -14 22 -16 18 19 20 -20 -21 -22 -23 -24 -25
leaf_value=-0.049536066043416517 -0.008738529263809908 0.017079402984152274 -0.010589253200008905 0.029100406740684995 0.0044990364556668381 -0.03380820590824541 -0.014280769524414483 0.010557396268115546 -0.034090788735720114 -0.018899001447642779 0.038997315736984284 0.012783625185872312 -0.00054971865307297182 -0.031561143609033449 -0.02383432213846905 -0.056023526761372164 -0.030112331859340914 -0.011831437782706442 -0.045658937143327923 -0.02051373375966125 -0.0052655621754842188 -0.023575089935453902 -0.041007187837062663 0.023528280601221772
leaf_weight=30 191 798 56 446 654 324 232 983 40 55 178 33 589 60 193 88 82 172 185 279 251 51 167 551
leaf_count=30 191 798 56 446 654 324 232 983 40 55 178 33 589 60 193 88 82 172 185 279 251 51 167 551
internal_value=-2.81596e-06 0.013178 -0.0257426 0.0234085 0.00468538 -0.0358956 -0.0144386 0.00813927 -0.0416792 -0.0297928 0.0319342 0.0195548 -0.00255964 -0.0435388 -0.02952 -0.0471421 -0.0210925 -0.0101953 -0.0490302 -0.0227101 -0.00794463 -0.0324312 -0.0385386 0.0229286
internal_weight=6688 4423 2265 2006 2417 1193 1072 1637 625 85 624 1382 780 540 568 313 417 655 273 361 423 375 227 584
internal_count=6688 4423 2265 2006 2417 1193 1072 1637 625 85 624 1382 780 540 568 313 417 655 273 361 423 375 227 584
is_linear=0
shrinkage=0.03


Tree=17
num_leaves=25
num_cat=1
split_feature=38 163 38 160 44 49 49 7 204 34 66 121 16 158 38 163 258 40 113 255 44 158 88 145
split_gain=2372.45 400.459 271.585 82.9644 54.3151 45.996 31.5841 19.8424 18.0626 16.522 12.9499 12.8761 12.0523 17.1099 9.35482 8.66676 8.60951 6.66646 6.54954 5.63036 5.04769 4.81711 4.7299 4.58477
threshold=18.500000000000004 2.2237268774168539 6.5000000000000009 3.6250300059957019 184.50000000000003 23.500000000000004 56.500000000000007 0 0.72714472299746136 863.50000000000011 43.500000000000007 190.50000000000003 11.500000000000002 0.045205479452054803 43.500000000000007 1.47205714607528 20.250000000000004 13411.107802561217 5.5000000000000009 2.7500000000000004 98.500000000000014 0.18219178082191784 25.500000000000004 0.7935827365079372
decision_type=2 2 2 2 2 2 2 9 2 2 2 2 2 2 2 2 2 2 2 2 2 2 2 2
left_child=2 4 5 11 15 7 19 8 17 -5 16 -3 -10 -14 -6 20 18 -1 -9 23 -2 -7 -17 -4
right_child=1 3 6 9 14 21 -8 10 12 -11 -12 -13 13 -15 -16 22 -18 -19 -20 -21 -22 -23 -24 -25
leaf_value=-0.043809425787759974 -0.011679512095585482 0.01463077083718683 -0.006177866948911777 0.026958344814609188 0.005443998208475795 -0.0298587615125003 -0.0089672878577471797 -0.025761931546997782 -0.043016654738197421 0.036619419497297141 -0.061030160348005902 0.020381267773750121 -0.0085409542685671216 -0.03031564731045441 0.01050706175494924 0.011813860665946911 -0.050856524625521031 -0.027730085732248232 -0.040982393038441235 -0.022912517243633003 -0.003342201926167358 -0.023160168860521167 -0.00020874076568180283 -0.017896440831271072
leaf_weight=141 91 674 35 523 731 208 549 30 37 235 36 748 47 109 603 31 80 30 276 225 238 199 549 263
leaf_count=141 91 674 35 523 731 208 549 30 37 235 36 748 47 109 603 31 80 30 276 225 238 199 549 263
internal_value=-3.01107e-06 0.0127829 -0.0249715 0.0219393 0.00388165 -0.0348203 -0.0140061 -0.0390705 -0.0338748 0.0299619 -0.0435358 0.017659 -0.0275072 -0.0237842 0.00773549 -0.00177097 -0.0418811 -0.0410239 -0.0395089 -0.019287 -0.00566023 -0.0265974 0.000430601 -0.0165327
internal_weight=6688 4423 2265 2180 2243 1193 1072 786 364 758 422 1422 193 156 1334 909 386 171 306 523 329 407 580 298
internal_count=6688 4423 2265 2180 2243 1193 1072 786 364 758 422 1422 193 156 1334 909 386 171 306 523 329 407 580 298
cat_boundaries=0 1
cat_threshold=2
is_linear=0
shrinkage=0.03


Tree=18
num_leaves=25
num_cat=0
split_feature=38 162 38 38 44 157 45 42 163 255 38 157 274 82 133 48 45 130 50 100 50 34 164 87
split_gain=2232.9 338.398 304.958 60.5587 51.0064 43.2822 42.1768 18.7173 12.1147 11.8835 11.1179 10.8599 8.48755 8.15387 8.15072 5.59282 5.38543 5.3752 4.73327 4.54463 4.52738 3.98362 3.8594 3.796
threshold=20.500000000000004 2.3733601055997524 6.5000000000000009 120.50000000000001 225.50000000000003 0.12771739130434787 155.50000000000003 8998.0550000000003 1.5864299942663906 10.250000000000002 223.50000000000003 0.92119565217391319 0.99997160734653556 6.5000000000000009 1.0000000180025095e-35 36.500000000000007 574.50000000000011 21.500000000000004 80.500000000000014 28.500000000000004 66.500000000000014 791.50000000000011 0.20897615708274894 15.500000000000002
decision_type=2 2 2 2 2 2 2 2 2 2 2 2 2 2 2 2 2 2 2 2 2 2 2 2
left_child=2 4 5 11 8 7 13 9 19 12 21 -3 -1 23 -14 -8 -6 -15 -19 -2 -7 -5 -10 -4
right_child=1 3 6 10 16 20 15 -9 22 -11 -12 -13 14 17 -16 -17 -18 18 -20 -21 -22 -23 -24 -25
leaf_value=-0.023108540298349231 -0.012225918051161966 0.016869417759664895 -0.014275583321866006 0.026297309295863311 0.008065760240532455 -0.028963429003305903 -0.010206563165439136 -0.019954641659459666 0.0031273526544473374 -0.044857537656284217 0.039789075526652257 0.022602794508337715 -0.048519432472420659 -0.0041315387149785309 -0.036118448373127457 -0.0045307021296839989 0.012189796100962666 -0.022534899696530331 -0.015092265330345004 -0.0016618691254871221 -0.02246571296159906 0.032012501277562506 0.013811464107760758 -0.026480322243508419
leaf_weight=41 40 850 30 291 640 208 289 50 669 230 99 468 57 32 408 347 527 107 305 446 199 197 32 126
leaf_count=41 40 850 30 291 640 208 289 50 669 230 99 468 57 32 408 347 527 107 305 446 199 197 32 126
internal_value=-3.20331e-06 0.0130871 -0.0229566 0.0224875 0.00547784 -0.0337774 -0.0125078 -0.0379005 0.00109615 -0.0391127 0.0305125 0.0189091 -0.0364872 -0.0182163 -0.0376551 -0.00711574 0.00993157 -0.0161152 -0.0170375 -0.00253985 -0.0258001 0.0286167 0.00362125 -0.0241631
internal_weight=6688 4259 2429 1905 2354 1193 1236 786 1187 736 587 1318 506 600 465 636 1167 444 412 486 407 488 701 156
internal_count=6688 4259 2429 1905 2354 1193 1236 786 1187 736 587 1318 506 600 465 636 1167 444 412 486 407 488 701 156
is_linear=0
shrinkage=0.03


Tree=19
num_leaves=25
num_cat=1
split_feature=41 100 121 160 257 254 257 34 15 191 66 121 82 154 163 45 138 257 174 7 164 163 160 45
split_gain=2102.44 334.071 258.519 59.0905 52.1531 39.6367 32.5201 14.7295 14.213 16.1406 16.8283 10.5795 9.76137 9.03327 8.79667 8.04112 7.49838 7.45392 9.14446 6.65692 7.12431 6.56303 6.20245 4.68688
threshold=58.500000000000007 135.50000000000003 14.500000000000002 3.6250300059957019 1.5169540229885059 10.244897959183676 3.1043557168784033 863.50000000000011 11.500000000000002 0.56746204546452861 4.5000000000000009 2.5000000000000004 31.500000000000004 0.29529042175577491 2.0739201929416251 842.00000000000011 -0.69314718055994529 10.267857142857144 0.11032945957010405 0 0.0099929873772791038 1.153779590065704 1.6448508738573933 174.50000000000003
decision_type=2 2 2 2 2 2 2 2 2 2 2 2 2 2 2 2 2 2 2 9 2 2 2 2
left_child=2 4 5 15 14 8 22 -5 -1 17 -11 -7 16 -8 -2 -3 -6 18 -10 20 -13 -15 23 -4
right_child=1 3 6 7 12 11 13 -9 9 10 -12 19 -14 21 -16 -17 -18 -19 -20 -21 -22 -23 -24 -25
leaf_value=-0.045706602289671001 0.0069737295130289818 0.014310821771625331 -0.012570005372586899 0.025361111946667476 -0.015482299741585152 -0.048453183280667729 -0.029377540578735466 0.034485917844096936 -0.015069452156563716 0.00039689675809356317 -0.029396508064503977 -0.036829848972744772 0.0052173975176134446 -0.022868588717051282 0.012122248375217559 0.019455478614059489 -0.00048793449683853118 -0.035801586537328484 -0.028855188537700478 -0.040831796689198743 -0.021334216235627 -0.015056710666227047 0.0036867932902995464 -0.0067717680444723035
leaf_weight=42 658 462 203 523 31 109 58 235 50 36 32 87 302 128 555 701 884 124 403 212 41 434 37 341
leaf_count=42 658 462 203 523 31 109 58 235 50 36 32 87 302 128 555 701 884 124 403 212 41 434 37 341
internal_value=-3.25987e-06 0.0123236 -0.022954 0.0216732 0.00493056 -0.0332149 -0.0132441 0.0281982 -0.0286596 -0.027538 -0.0136021 -0.0401701 0.000540049 -0.0180268 0.00933268 0.0174158 -0.00100086 -0.0291726 -0.0273439 -0.0374923 -0.0319104 -0.016845 -0.00813292 -0.00894287
internal_weight=6688 4351 2337 1921 2430 1136 1201 758 687 645 68 449 1217 620 1213 1163 915 577 453 340 128 562 581 544
internal_count=6688 4351 2337 1921 2430 1136 1201 758 687 645 68 449 1217 620 1213 1163 915 577 453 340 128 562 581 544
cat_boundaries=0 1
cat_threshold=2
is_linear=0
shrinkage=0.03


Tree=20
num_leaves=25
num_cat=0
split_feature=38 162 38 162 121 121 242 160 272 16 163 82 62 121 52 254 100 242 161 100 253 34 78 226
split_gain=1978.91 299.94 270.505 54.159 45.2592 39.2557 36.4729 14.2086 12.6456 17.6885 10.3866 8.88549 8.30892 7.97131 7.5886 7.48627 6.68578 6.45126 4.75795 3.95574 3.87054 3.73706 4.66856 3.45963
threshold=20.500000000000004 2.3733601055997524 6.5000000000000009 4.2106455336483393 95.500000000000014 6.5000000000000009 36.500000000000007 3.1016189671026693 0.9997048248140098 36.500000000000007 1.5864299942663906 2.5000000000000004 6.5000000000000009 593.50000000000011 13.500000000000002 2.40185884638213 10.500000000000002 145.50000000000003 0.99925062443803092 28.500000000000004 0.44479730663268818 4.5000000000000009 1.5000000000000002 2.9977518733140927
decision_type=2 2 2 2 2 2 2 2 2 2 2 2 2 2 2 2 2 2 2 2 2 2 2 2
left_child=2 4 5 7 10 8 16 -3 9 -1 19 14 21 -5 18 -8 20 -6 -10 -2 -4 -7 -23 -13
right_child=1 3 6 13 17 12 15 -9 11 -11 -12 23 -14 -15 -16 -17 -18 -19 -20 -21 -22 22 -24 -25
leaf_value=-0.044637644985795907 -0.011629473564500671 0.015661515808150773 -0.023404284783082072 0.028242964149082065 0.0072375234162143035 -0.018654333769914964 -0.004049018422826435 0.02167946764930297 -0.055589006548110033 -0.015839577296684528 0.003268340220902955 -0.027568307563634636 -0.020843685989632946 0.038611794324935396 -0.028696855671724451 -0.010359293472016754 -0.014870023034144919 0.01163701573752844 -0.04230307737984236 -0.0017618844904741888 -0.011494534299569667 -0.037578196438372444 -0.02796647386981645 -0.036382553373568792
leaf_weight=30 40 809 181 372 727 33 351 639 30 55 630 60 189 85 36 331 343 520 247 437 30 58 288 167
leaf_count=30 40 809 181 372 727 33 351 639 30 55 630 60 189 85 36 331 343 520 247 437 30 58 288 167
internal_value=-3.36968e-06 0.0123199 -0.0216119 0.0211701 0.005156 -0.0318032 -0.0117709 0.0183206 -0.0370069 -0.0260794 0.000737891 -0.0387163 -0.0260666 0.0301861 -0.0420577 -0.0071171 -0.0174922 0.00907531 -0.0437724 -0.00259791 -0.0217314 -0.0286571 -0.0295967 -0.0340792
internal_weight=6688 4259 2429 1905 2354 1193 1236 1448 625 85 1107 540 568 457 313 682 554 1247 277 477 211 379 346 227
internal_count=6688 4259 2429 1905 2354 1193 1236 1448 625 85 1107 540 568 457 313 682 554 1247 277 477 211 379 346 227
is_linear=0
shrinkage=0.03


Tree=21
num_leaves=25
num_cat=0
split_feature=41 41 121 100 38 38 275 316 229 274 50 232 121 45 167 50 157 147 45 68 146 38 81 130
split_gain=1862.29 330.539 193.031 61.7802 48.5353 29.932 20.4834 13.6484 12.757 12.1384 13.2164 10.8699 9.69959 9.58905 9.40632 7.47916 6.77673 6.29817 6.93716 4.931 4.83337 4.68164 4.61296 4.27528
threshold=52.500000000000007 162.50000000000003 11.500000000000002 292.50000000000006 29.500000000000004 10.500000000000002 0.99999972681143701 217.50000000000003 0.79554438688295248 0.99997160734653556 21.500000000000004 1.0040605509298588 593.50000000000011 100.50000000000001 0.19939462730549665 165.50000000000003 0.095108695652173919 0.010811009812105395 174.50000000000003 80.500000000000014 0.75265705019958473 4.5000000000000009 55.500000000000007 125.50000000000001
decision_type=2 2 2 2 2 2 2 2 2 2 2 2 2 2 2 2 2 2 2 2 2 2 2 2
left_child=2 4 6 7 15 13 9 -3 16 14 19 -6 -5 -4 -1 -2 -8 -7 -19 -11 -18 -15 -12 -24
right_child=1 3 5 12 11 17 8 -9 -10 10 22 -13 -14 21 -16 -17 20 18 -20 -21 -22 -23 23 -25
leaf_value=-0.010737040375554284 -0.0071732566203787139 0.014223288216809047 -0.022956403912383908 0.026325413641584524 0.0028970785914296617 0.0030267138535452777 -0.035427932956955704 0.020001331362940154 -0.010663385947309706 -0.034339436587573581 -0.035547352159035567 0.0084626090880787746 0.037454802128458975 -0.026317648402998377 -0.033706255968340211 -0.00067121850330119576 -0.027944452271979822 -0.013486096159156767 -0.0066663194483323612 -0.045813880358707162 -0.016167325860690192 -0.014011155623683654 -0.018343118590032941 -0.032584912334870056
leaf_weight=30 206 961 319 488 467 32 94 606 41 48 291 989 85 32 36 706 151 318 237 162 42 261 32 54
leaf_count=30 206 961 319 488 467 32 94 606 41 48 291 989 85 32 36 706 151 318 237 162 42 261 32 54
internal_value=-3.54099e-06 0.0110046 -0.022768 0.0195499 0.00328037 -0.0146867 -0.0326396 0.0164609 -0.0264678 -0.0357306 -0.037114 0.00667989 0.0279879 -0.0193343 -0.0233431 -0.0021438 -0.0287106 -0.00983368 -0.010581 -0.043223 -0.0254068 -0.015374 -0.0336926 -0.0273479
internal_weight=6688 4508 2180 2140 2368 1199 981 1567 328 653 587 1456 573 612 66 912 287 587 555 210 193 293 377 86
internal_count=6688 4508 2180 2140 2368 1199 981 1567 328 653 587 1456 573 612 66 912 287 587 555 210 193 293 377 86
is_linear=0
shrinkage=0.03


Tree=22
num_leaves=25
num_cat=1
split_feature=53 163 53 41 162 49 41 7 204 160 148 66 163 258 316 272 163 254 50 260 146 156 15 50
split_gain=1754.11 283.684 217.69 48.3074 48.0112 34.442 28.4704 16.5577 15.5102 12.363 11.416 10.9208 9.81579 6.81429 6.79747 6.26711 5.87209 5.43233 5.296 7.59525 4.54927 4.34818 4.15955 3.74274
threshold=19.500000000000004 2.3895129653719374 6.5000000000000009 105.50000000000001 4.2106455336483393 23.500000000000004 36.500000000000007 0 0.72714472299746136 3.1016189671026693 0.070601956373130145 34.500000000000007 1.5864299942663906 20.250000000000004 577.00000000000011 0.9997048248140098 2.0630866800866912 2.5183285509325688 92.500000000000014 25.500000000000004 0.52777228015622246 0.46195652173913043 11.500000000000002 66.500000000000014
decision_type=2 2 2 2 2 2 2 9 2 2 2 2 2 2 2 2 2 2 2 2 2 2 2 2
left_child=2 3 5 12 9 7 18 8 20 -3 -10 13 21 15 -6 -9 -5 -8 19 -4 -1 -2 -12 -7
right_child=1 4 6 16 14 23 17 11 10 -11 22 -13 -14 -15 -16 -17 -18 -19 -20 -21 -22 -23 -24 -25
leaf_value=-0.02870657902444906 -0.0068344160476268845 0.014809680657002307 -0.0057506118659089262 0.0065528871607866152 0.027105511947237072 -0.02569443654048904 -0.0045301424121908206 -0.020491289002356732 -0.0090011346777303779 0.020443654632973686 -0.036868881984251478 -0.051885953439180704 0.0026605951107166225 -0.044134315521336717 0.038951426210235479 -0.035323693904458851 0.010596632796175894 -0.010366216919155655 -0.013050867203949474 -0.020710883317795872 -0.039290382608320601 -0.001076879389863918 -0.024181686012100721 -0.019781597969266068
leaf_weight=62 174 815 35 706 406 208 339 30 42 628 31 45 591 77 51 270 608 253 235 282 109 372 120 199
leaf_count=62 174 815 35 706 406 208 339 30 42 628 31 45 591 77 51 270 608 253 235 282 109 372 120 199
internal_value=-3.69502e-06 0.0112558 -0.0209673 0.00450937 0.0199563 -0.0299347 -0.0116113 -0.0336135 -0.0288686 0.0172649 -0.0229715 -0.0376914 -1.57426e-05 -0.0359758 0.0284423 -0.0338578 0.00842691 -0.00703067 -0.0165163 -0.0190709 -0.0354895 -0.00291811 -0.0268289 -0.0228163
internal_weight=6688 4351 2337 2451 1900 1193 1144 786 364 1443 193 422 1137 377 457 300 1314 592 552 317 171 546 151 407
internal_count=6688 4351 2337 2451 1900 1193 1144 786 364 1443 193 422 1137 377 457 300 1314 592 552 317 171 546 151 407
cat_boundaries=0 1
cat_threshold=2
is_linear=0
shrinkage=0.03


Tree=23
num_leaves=25
num_cat=1
split_feature=53 162 53 44 162 121 45 272 11 162 160 162 62 82 121 100 61 88 7 224 121 48 45 154
split_gain=1650.84 250.769 225.159 46.1007 39.0169 33.2075 31.8016 10.7356 10.568 9.60263 8.75292 7.98067 7.1836 6.87844 6.69666 5.70931 4.9808 4.37245 4.27853 8.29923 5.44833 4.10057 3.66066 3.48287
threshold=20.500000000000004 2.5097243728603602 6.5000000000000009 227.50000000000003 4.2106455336483393 6.5000000000000009 155.50000000000003 0.9997048248140098 100202.41000000002 1.5296491122268121 3.135525863032822 0.99992582968501487 6.5000000000000009 6.5000000000000009 593.50000000000011 114.50000000000001 1.0000000180025095e-35 23.500000000000004 0 0.84610503271484949 1.5000000000000002 36.500000000000007 100.50000000000001 0.63939834063631629
decision_type=2 2 2 2 2 2 2 2 2 2 2 2 2 2 2 2 2 2 9 2 2 2 2 2
left_child=2 3 5 9 10 7 13 8 -1 -2 -3 18 23 -4 -6 -5 -15 -11 19 -9 -20 -8 -18 -7
right_child=1 4 6 15 14 12 21 11 -10 17 -12 -13 -14 16 -16 -17 22 -19 20 -21 -22 -23 -24 -25
leaf_value=-0.032622253331327865 -0.0031468152175112688 0.014938542827126212 -0.021179842441208536 0.0074022873655245382 0.025806258699644702 -0.031264424270617854 -0.0087260366582502715 -0.021128672578208073 -0.010932669044814557 0.01296005575239163 0.01996206900282246 -0.03217458882075979 -0.018902347089412724 -0.0029774646426440109 0.035319820464567914 0.011419756172314176 -0.019249819400866189 0.0022694601684946883 -0.053976285146478328 -0.040840540813427799 -0.039580545514456854 -0.0038626583109930258 -0.012880769114895128 -0.024421008277009396
leaf_weight=50 354 663 156 757 372 96 289 30 35 36 609 310 189 36 85 561 118 822 34 60 106 347 290 283
leaf_count=50 354 663 156 757 372 96 289 30 35 36 609 310 189 36 85 561 118 822 34 60 106 347 290 283
internal_value=-3.84278e-06 0.0112517 -0.0197401 0.00523188 0.0200578 -0.0290383 -0.0107614 -0.033825 -0.0237498 0.00100594 0.0173474 -0.0354007 -0.0237608 -0.0157187 0.0275896 0.00911532 -0.0137888 0.00272297 -0.03972 -0.034334 -0.0431341 -0.00607833 -0.0147344 -0.0261701
internal_weight=6688 4259 2429 2530 1729 1193 1236 625 85 1212 1272 540 568 600 457 1318 444 858 230 90 140 636 408 379
internal_count=6688 4259 2429 2530 1729 1193 1236 625 85 1212 1272 540 568 600 457 1318 444 858 230 90 140 636 408 379
cat_boundaries=0 1
cat_threshold=2
is_linear=0
shrinkage=0.03


Tree=24
num_leaves=25
num_cat=1
split_feature=38 38 162 49 100 316 45 7 204 170 67 50 163 68 41 45 49 48 57 50 161 49 169 160
split_gain=1553.95 227.809 223.646 39.9224 38.8102 36.776 24.7352 15.4499 13.3841 11.1394 9.97204 8.63476 7.96245 7.45079 6.26183 6.2203 5.6296 5.16489 5.16457 5.31863 4.72536 4.53367 4.09758 4.01175
threshold=21.500000000000004 7.5000000000000009 2.5097243728603602 23.500000000000004 79.500000000000014 327.50000000000006 155.50000000000003 0 0.72714472299746136 0.13525096613741236 43.500000000000007 338.50000000000006 1.5864299942663906 58.500000000000007 146.50000000000003 2503.5000000000005 34.500000000000007 6.5000000000000009 1.0000000180025095e-35 85.500000000000014 0.99989445561609835 79.500000000000014 0.11287117158186132 1.3715885903715226
decision_type=2 2 2 2 2 2 2 9 2 2 2 2 2 2 2 2 2 2 2 2 2 2 2 2
left_child=1 3 4 7 12 11 18 8 20 -10 13 -4 -2 -9 -6 -7 -5 -15 -3 23 -1 -8 -14 -20
right_child=2 6 5 16 14 15 21 10 9 -11 -12 -13 22 17 -16 -17 -18 -19 19 -21 -22 -23 -24 -25
leaf_value=-0.037333120281088136 -0.0019954313867561477 -0.004308478567982092 0.014927475519048029 -0.023848990020072399 0.0067756067616071523 0.025224303695859044 -0.0078466509978984047 -0.019588866068882764 -0.025138553796180348 -0.0071098445347317334 -0.050812522715313613 0.020053447771031584 0.013547535694156438 -0.038578327150050863 0.010947974192563126 0.034831737447505562 -0.017452384898013366 -0.031084024404302978 -0.021005194934423356 -0.01245736745338369 -0.026922172830451896 -0.0029551086230771694 0.0027145183089609601 -0.0089811076822771518
leaf_weight=103 414 44 799 264 646 372 358 31 159 39 36 482 33 199 663 76 248 160 159 274 71 331 696 31
leaf_count=103 414 44 799 264 646 372 358 31 159 39 36 482 33 199 663 76 248 160 159 274 71 331 696 31
internal_value=-3.94631e-06 -0.0186787 0.0111932 -0.0273241 0.00536479 0.0194563 -0.00921321 -0.0315284 -0.0270082 -0.021608 -0.0354613 0.01686 0.00132245 -0.0340239 0.00889185 0.0268682 -0.0207605 -0.0352562 -0.0142389 -0.015173 -0.0331201 -0.00550185 0.00321081 -0.0190649
internal_weight=6688 2507 4181 1310 2452 1729 1197 798 372 198 426 1281 1143 390 1309 448 512 359 508 464 174 689 729 190
internal_count=6688 2507 4181 1310 2452 1729 1197 798 372 198 426 1281 1143 390 1309 448 512 359 508 464 174 689 729 190
cat_boundaries=0 1
cat_threshold=2
is_linear=0
shrinkage=0.03


Tree=25
num_leaves=25
num_cat=0
split_feature=38 162 38 45 45 45 121 159 38 82 52 38 41 38 144 121 49 232 15 192 259 41 162 165
split_gain=1462.4 248.993 167.553 43.6912 40.545 27.2748 23.5531 9.8606 9.39926 8.71305 9.09668 7.32297 7.00303 5.90027 5.59622 6.47592 4.99306 4.84681 4.21964 5.45217 4.19847 3.8314 3.70934 3.38218
threshold=18.500000000000004 2.3167662268152474 5.5000000000000009 1245.0000000000002 387.50000000000006 128.50000000000003 6.5000000000000009 0.999708420112566 182.50000000000003 2.5000000000000004 13.500000000000002 66.500000000000014 75.500000000000014 42.500000000000007 25.500000000000004 14.500000000000002 10.500000000000002 0.95590731218066805 11.500000000000002 0.47537002546048873 14.500000000000002 45.500000000000007 2.9359711885318358 -0.14999999999999999
decision_type=2 2 2 2 2 2 2 2 2 2 2 2 2 2 2 2 2 2 2 2 2 2 2 2
left_child=2 4 6 11 12 14 7 -1 -5 10 16 -3 17 -6 -4 -16 -9 21 -8 -20 -7 -2 -13 -22
right_child=1 3 5 8 13 20 18 9 -10 -11 -12 22 -14 -15 15 -17 -18 -19 19 -21 23 -23 -24 -25
leaf_value=-0.019838861627479325 -0.014298103777828277 0.011229798571499425 -0.0065164898318510979 0.021935481394823573 0.0048320658813097526 -0.0061167901697892942 -0.031127982964202508 -0.041754591322029293 0.030082203878446328 -0.028759928105122103 -0.022788691438195709 0.014022111806327217 0.0014870721029059484 0.0087897749651725844 -0.023522896508327291 -0.015681148263215143 -0.033352693501831024 0.0038179728582124176 -0.01881836271455033 -0.026005801873028339 -0.020366447293243117 -0.0037814033625294115 0.017879723311769659 -0.0096292491624343623
leaf_weight=56 34 394 44 496 644 451 53 170 177 236 40 424 535 729 133 358 116 71 230 172 32 404 515 174
leaf_count=56 34 394 44 496 644 451 53 170 177 236 40 424 535 729 133 358 116 71 230 172 32 404 515 174
internal_value=-4.02904e-06 0.0100343 -0.0196073 0.0178476 0.00354785 -0.0118599 -0.0282092 -0.0320397 0.0240867 -0.0332463 -0.0364751 0.0146938 -0.000905507 0.0069361 -0.0168935 -0.0178158 -0.0383702 -0.00342599 -0.0229941 -0.0219067 -0.00775453 -0.00460769 0.0161427 -0.0113208
internal_weight=6688 4423 2265 2006 2417 1192 1073 618 673 562 326 1333 1044 1373 535 491 286 509 455 402 657 438 939 206
internal_count=6688 4423 2265 2006 2417 1192 1073 618 673 562 326 1333 1044 1373 535 491 286 509 455 402 657 438 939 206
is_linear=0
shrinkage=0.03


Tree=26
num_leaves=25
num_cat=1
split_feature=38 38 121 49 38 163 45 7 163 133 164 170 49 68 304 48 45 38 49 33 26 50 244 68
split_gain=1376.46 202.032 198.514 35.5901 33.9772 33.4289 22.0455 14.1334 9.83361 9.18944 8.03832 7.74503 7.46444 7.14561 5.67683 5.49241 5.29442 5.04336 5.02855 4.77252 7.16154 6.69448 4.62643 3.92509
threshold=21.500000000000004 7.5000000000000009 169.50000000000003 23.500000000000004 136.50000000000003 1.8767410595191205 159.50000000000003 0 3.2204558347211818 1.0000000180025095e-35 -1.0000000180025095e-35 0.11874570999514646 104.50000000000001 75.500000000000014 -78.347499999999982 6.5000000000000009 2503.5000000000005 47.500000000000007 34.500000000000007 1.5000000000000002 4440.5349999999989 85.500000000000014 0.2975187734636846 947.00000000000011
decision_type=2 2 2 2 2 2 2 9 2 2 2 2 2 2 2 2 2 2 2 2 2 2 2 2
left_child=1 3 5 7 8 12 19 10 -4 -9 14 22 -2 -11 -1 -15 -6 -7 -5 20 -3 -21 -12 -16
right_child=2 6 4 18 16 17 -8 9 -10 13 11 -13 -14 15 23 -17 -18 -19 -20 21 -22 -23 -24 -25
leaf_value=-0.019374789883424139 -0.0013427398429789398 -0.015513635633028202 0.013787959775963326 -0.022443992025446356 0.024125204632694398 0.0062845855325001287 -0.0050221460144523238 -0.04533402549008192 0.019048163184999228 -0.017653049748193265 -0.028981641790559214 -0.008162678030285718 0.0034630190734824024 -0.036535609470980404 -0.035642573511272549 -0.028662858899709355 0.033187335715120142 0.010145079290042229 -0.016394942454715566 -0.019006740386966606 0.0047993723413281113 -0.011506057703005196 -0.015718976654613998 -0.026444051636428902
leaf_weight=47 522 31 811 264 336 567 666 53 540 31 65 39 655 188 96 154 74 676 248 172 31 297 40 85
leaf_count=47 522 31 811 264 336 567 666 53 540 31 65 39 655 188 96 154 74 676 248 172 31 297 40 85
internal_value=-4.08233e-06 -0.0175801 0.0105342 -0.0257217 0.0181977 0.00495585 -0.00866592 -0.0296917 0.015894 -0.0334535 -0.0253679 -0.0197238 0.00132918 -0.0317457 -0.0289092 -0.0330088 0.0257758 0.00838716 -0.0195236 -0.0132286 -0.00531745 -0.0142667 -0.0239775 -0.0313564
internal_weight=6688 2507 4181 1310 1761 2420 1197 798 1351 426 372 144 1177 373 228 342 410 1243 512 531 62 469 105 181
internal_count=6688 2507 4181 1310 1761 2420 1197 798 1351 426 372 144 1177 373 228 342 410 1243 512 531 62 469 105 181
cat_boundaries=0 1
cat_threshold=2
is_linear=0
shrinkage=0.03


Tree=27
num_leaves=25
num_cat=0
split_feature=242 100 121 53 53 53 254 15 295 204 121 320 49 121 162 232 53 44 220 254 154 193 29 183
split_gain=1296.37 207.409 160.698 36.633 34.1999 26.1558 21.246 10.7615 13.5088 9.63867 7.767 7.73756 7.59829 7.29615 7.05347 6.943 6.66115 5.75173 5.47955 5.16807 4.39477 3.99322 5.61369 3.78911
threshold=58.500000000000007 137.50000000000003 12.500000000000002 120.50000000000001 33.500000000000007 10.500000000000002 10.244897959183676 11.500000000000002 2.5000000000000004 0.84204657266247673 3.5000000000000004 17.166666666666671 169.50000000000003 2.5000000000000004 5.563156246394251 1.0923603318548831 25.500000000000004 144.50000000000003 0.46600852491991779 3.1659454157290408 0.35522867949576092 0.3999400099982004 31.500000000000004 0.052781452748670125
decision_type=2 2 2 2 2 2 2 2 2 2 2 2 2 2 2 2 2 2 2 2 2 2 2 2
left_child=2 4 6 12 17 11 7 -1 9 18 -10 20 -3 -8 -5 -6 19 -2 -9 -7 -4 22 -15 -12
right_child=1 3 5 14 15 16 13 8 10 -11 23 -13 -14 21 -16 -17 -18 -19 -20 -21 -22 -23 -24 -25
leaf_value=-0.039113931497378358 -0.0035222794001844747 0.012612202156741206 -0.027382076247009685 0.021080307737975389 0.0040290827016135951 -0.0060700166321174575 -0.038739518249709601 -0.026623282658792758 -0.034407454258289887 -0.0012513245937730807 -0.023687332747055017 -0.012112626941044754 0.017431626539386454 -0.021921364305439901 0.028224344983232015 0.0084270974311470865 0.0064982069279701507 0.0012934557177764364 -0.0095145075253374942 -0.011605313088839612 -0.01748256670204542 -0.033921700875150514 -0.031975363477452605 -0.012279576032462705
leaf_weight=36 329 834 50 398 496 474 109 41 62 42 340 273 466 105 189 946 30 693 30 227 256 128 104 30
leaf_count=36 329 834 50 398 496 474 109 41 62 42 340 273 466 105 189 946 30 693 30 227 256 128 104 30
internal_value=-4.17468e-06 0.00967526 -0.0180262 0.0171602 0.00394141 -0.0110555 -0.0269128 -0.0231039 -0.0220339 -0.0127258 -0.0244582 -0.015823 0.0143433 -0.0318615 0.02339 0.00691679 -0.00727365 -0.000254073 -0.01946 -0.00786815 -0.0191184 -0.0296171 -0.0269516 -0.0227741
internal_weight=6688 4351 2337 1887 2464 1310 1027 581 545 113 432 579 1300 446 587 1442 731 1022 71 701 306 337 209 370
internal_count=6688 4351 2337 1887 2464 1310 1027 581 545 113 432 579 1300 446 587 1442 731 1022 71 701 306 337 209 370
is_linear=0
shrinkage=0.03


Tree=28
num_leaves=25
num_cat=0
split_feature=53 163 53 160 53 158 49 42 34 142 53 256 158 154 142 82 295 167 81 41 53 26 283 34
split_gain=1220.29 209.832 139.599 43.8099 28.8116 22.9432 18.968 14.0874 9.38616 7.67878 7.20979 6.66198 8.4119 6.25998 5.58326 5.30777 5.65722 4.59161 4.50897 4.26681 3.67094 3.53813 3.27345 3.08535
threshold=18.500000000000004 2.2237268774168539 5.5000000000000009 3.6250300059957019 31.500000000000004 0.27534246575342475 23.500000000000004 7517.1900000000005 863.50000000000011 22.750000000000004 66.500000000000014 336.50000000000006 0.086301369863013719 0.35522867949576092 41.250000000000007 6.5000000000000009 16.500000000000004 0.23766218966840139 11.500000000000002 1.5000000000000002 12.500000000000002 2433.935000000009 -0.25499999999999995 1419.0000000000002
decision_type=2 2 2 2 2 2 2 2 2 2 2 2 2 2 2 2 2 2 2 2 2 2 2 2
left_child=2 4 6 10 9 13 7 11 -5 -2 -3 12 19 -4 -6 17 21 -15 -19 -1 -7 -17 -14 -10
right_child=1 3 5 8 14 20 -8 -9 23 -11 -12 -13 22 15 -16 16 -18 18 -20 -21 -22 -23 -24 -25
leaf_value=-0.043119555933734184 -0.00473339058064348 0.010052771079916088 -0.028577420019379282 0.019357056872332738 0.0036424247056992326 -0.0098995966016016262 -0.019330259255748779 -0.012723290782845662 0.025254754448797226 0.0008556126542021091 0.014440894948294307 -0.016493981702258381 -0.022090568953465031 -0.027033150602772737 0.0075677947685341054 -0.011055628684282004 -0.014631063536132888 -0.0057566768117847927 -0.018996833397529795 -0.03164149270920804 -0.0053690750499372801 0.0020322348158246678 -0.029208846773694796 0.035959131242428902
leaf_weight=34 362 571 32 523 666 274 301 50 205 567 851 36 130 47 648 40 228 31 102 402 404 34 120 30
leaf_count=34 362 571 32 523 666 274 301 50 205 567 851 36 130 47 648 40 228 31 102 402 404 34 120 30
internal_value=-4.27014e-06 0.00916546 -0.0179115 0.0157936 0.00272175 -0.0108394 -0.0257633 -0.0282648 0.0216248 -0.00131928 0.0126818 -0.029335 -0.030002 -0.0156246 0.00558094 -0.0147526 -0.0122853 -0.0188666 -0.01594 -0.0325531 -0.00720561 -0.00500717 -0.0255297 0.0266487
internal_weight=6688 4423 2265 2180 2243 1192 1073 772 758 929 1422 722 686 514 1314 482 302 180 133 436 678 74 250 235
internal_count=6688 4423 2265 2180 2243 1192 1073 772 758 929 1422 722 686 514 1314 482 302 180 133 436 678 74 250 235
is_linear=0
shrinkage=0.03


Tree=29
num_leaves=25
num_cat=1
split_feature=41 41 121 82 53 53 7 170 66 82 55 68 159 44 163 50 162 53 316 168 33 45 243 321
split_gain=1148.63 209.927 115.496 44.0875 29.2675 17.0847 14.9588 10.3113 10.0595 9.96561 9.19131 7.99944 7.41286 6.99179 6.87905 5.95089 5.47442 5.45883 5.11195 5.56494 5.06469 4.94416 4.80539 4.72875
threshold=51.500000000000007 153.50000000000003 11.500000000000002 80.500000000000014 27.500000000000004 10.500000000000002 0 0.11082971860432152 30.500000000000004 119.50000000000001 1.0000000180025095e-35 58.500000000000007 1.6382632257869525 21.500000000000004 2.5841485426456141 76.500000000000014 0.99984526218443681 12.500000000000002 5.5000000000000009 0.17392309233466741 1.5000000000000002 174.50000000000003 1.1647286821705429 0.013282464969153375
decision_type=2 2 2 2 2 2 9 2 2 2 2 2 2 2 2 2 2 2 2 2 2 2 2 2
left_child=2 4 6 14 17 15 7 22 11 -5 -9 -8 -6 -13 -3 -4 -10 -2 -12 -20 -7 -22 23 -1
right_child=1 3 5 9 12 20 8 10 16 -11 18 13 -14 -15 -16 -17 -18 -19 19 -21 21 -23 -24 -25
leaf_value=-0.02497538015709375 -0.014978457772207021 0.009594795662265572 -0.018739027483233008 0.01819957214692541 0.00026917616895369173 0.0023509991893595887 -0.012632290824901225 -0.00033809243945831871 -0.050409627420165602 0.025280999909979021 -0.029842173626454561 -0.031159091315369557 0.005704615343062094 -0.021447895420642862 0.013770580298885785 -0.012658514585152658 -0.031569911597971102 -0.001941874624657486 -0.0074631241741838703 -0.022794044153118618 -0.011139859478962779 -0.0051159850394526208 -0.018288451484546303 -0.036110171699192013
leaf_weight=226 30 666 251 543 281 40 30 30 30 274 30 303 1175 90 783 360 30 791 43 44 302 211 82 43
leaf_count=226 30 666 251 543 281 40 30 30 30 274 30 303 1175 90 783 360 30 791 43 44 302 211 82 43
internal_value=-4.30417e-06 0.00853814 -0.0180977 0.0150027 0.00210315 -0.0117007 -0.0256831 -0.0219997 -0.0294692 0.020581 -0.015257 -0.027802 0.00465776 -0.0289488 0.0118541 -0.015164 -0.0411079 -0.00242366 -0.0190532 -0.0152684 -0.00786668 -0.00866953 -0.0248099 -0.0267792
internal_weight=6688 4543 2145 2266 2277 1164 981 498 483 817 147 423 1456 393 1449 611 60 821 117 87 553 513 351 269
internal_count=6688 4543 2145 2266 2277 1164 981 498 483 817 147 423 1456 393 1449 611 60 821 117 87 553 513 351 269
cat_boundaries=0 1
cat_threshold=2
is_linear=0
shrinkage=0.03


Tree=30
num_leaves=25
num_cat=1
split_feature=41 38 121 44 38 38 254 15 280 82 45 121 226 121 33 45 45 159 256 44 8 167 183 33
split_gain=1081.31 174.083 134.292 33.3768 25.9303 21.6295 17.9748 10.0003 12.8836 9.63332 7.31621 6.49325 6.49126 6.42106 6.33572 6.99825 5.21887 5.11011 4.88784 4.7556 4.26637 3.79642 3.71524 3.46418
threshold=58.500000000000007 58.500000000000007 12.500000000000002 577.50000000000011 33.500000000000007 10.500000000000002 10.244897959183676 11.500000000000002 1.0000000180025095e-35 119.50000000000001 74.500000000000014 2.5000000000000004 0.55348680453525556 5.5000000000000009 1.5000000000000002 174.50000000000003 514.50000000000011 2.3296688547228857 139.50000000000003 153.50000000000003 0 0.36218815635731 0.022956847701641782 285.50000000000006
decision_type=2 2 2 2 2 2 2 2 2 2 2 2 2 2 2 2 2 2 2 2 9 2 2 2
left_child=2 4 6 17 19 10 7 -1 12 -5 -4 -8 -9 21 -7 20 -6 -3 -13 -2 -16 -10 -15 -11
right_child=1 3 5 9 16 14 11 8 13 23 -12 18 -14 22 15 -17 -18 -19 -20 -21 -22 -23 -24 -25
leaf_value=-0.036510224313451967 -0.0027535411925611137 0.0085161690266489787 -0.020436992985764776 0.017626431744320274 0.0040585861986039782 0.00521895042701265 -0.035628740799337574 0.00027811876028521445 -0.031291393842118764 0.023280159094840568 -0.012499394508985838 -0.028167127111410516 -0.015940525075278909 -0.021150699233833406 -0.0092302516377372086 -0.0044333076783958682 0.0078498917312394851 0.013167616415582402 -0.015165299275190728 0.0014037659612046245 -0.02001039152128959 -0.020016592704909995 -0.01172590855113079 0.034419448930163715
leaf_weight=36 416 289 140 575 621 38 109 35 91 244 439 307 59 272 290 365 702 863 30 611 38 42 46 30
leaf_count=36 416 289 140 575 621 38 109 35 91 244 439 307 59 272 290 365 702 863 30 611 38 42 46 30
internal_value=-4.43362e-06 0.00883569 -0.0164638 0.0153389 0.00329658 -0.0100913 -0.0245877 -0.021083 -0.020052 0.0198583 -0.0144271 -0.0291408 -0.00987591 -0.0221636 -0.00665142 -0.0073073 0.00607301 0.0120042 -0.0270234 -0.00027739 -0.010494 -0.0277712 -0.0198009 0.0245228
internal_weight=6688 4351 2337 2001 2350 1310 1027 581 545 849 579 446 94 451 731 693 1323 1152 337 1027 328 133 318 274
internal_count=6688 4351 2337 2001 2350 1310 1027 581 545 849 579 446 94 451 731 693 1323 1152 337 1027 328 133 318 274
cat_boundaries=0 1
cat_threshold=2
is_linear=0
shrinkage=0.03


Tree=31
num_leaves=25
num_cat=0
split_feature=38 38 82 162 38 162 254 254 34 213 274 224 116 82 38 149 121 38 144 158 121 135 275 228
split_gain=1018.55 149.711 147.635 27.4958 27.0063 22.4412 17.3132 10.8277 8.30912 8.24478 7.58669 8.40208 5.70425 4.85521 4.76745 4.54698 4.42166 4.06061 3.86319 4.48236 3.63369 3.1987 3.14253 3.52598
threshold=21.500000000000004 7.5000000000000009 51.500000000000007 4.2106455336483393 3.5000000000000004 1.8102674931106202 3.2293272975077882 11.005434782608697 459.50000000000006 0.18239992727510293 0.99999310765371874 1.0000000180025095e-35 27.500000000000004 21.500000000000004 262.00000000000006 0.14407858153674244 44.500000000000007 43.500000000000007 43.250000000000007 0.22054794520547946 1.5000000000000002 0.34697665358273505 0.99999982321362901 0.90902893031516818
decision_type=2 2 2 2 2 2 2 2 2 2 2 2 2 2 2 2 2 2 2 2 2 2 2 2
left_child=1 4 5 8 7 13 16 10 -4 15 -1 -12 -13 -2 -5 22 -3 -7 -8 -20 -9 -15 -6 -24
right_child=2 6 3 14 9 17 18 20 -10 -11 11 12 -14 21 -16 -17 -18 -19 19 -21 -22 -23 23 -25
leaf_value=-0.011514741436304834 -0.0024344547368425973 -0.006859128180852248 0.011100040305626476 0.020629979258232244 -0.020995717881994103 0.0044787663838415934 -0.0033574326408793557 -0.036223229513361987 0.015781574093568663 -0.021937639088418621 -0.03721559119365557 -0.023629841575217976 -0.01006613778281156 0.0016438439061744574 0.030233118421585718 -0.0028316280191324874 -0.0023181182278038484 0.0079980578880873114 -0.018039406642294139 -0.010994469848825657 -0.028081878063634099 0.010939987797895047 -0.015110908412492706 -0.0050293661064402329
leaf_weight=52 299 436 738 402 68 472 39 65 650 193 39 290 32 717 55 30 351 813 126 245 295 35 208 38
leaf_count=52 299 436 738 402 68 472 39 65 650 193 39 290 32 717 55 30 351 813 126 245 295 35 208 38
internal_value=-4.43031e-06 -0.0151237 0.00906077 0.0154044 -0.0221324 0.00404875 -0.00744963 -0.0257318 0.0132955 -0.0169417 -0.0223728 -0.0239249 -0.0222948 0.000794072 0.0217986 -0.0141245 -0.00483821 0.00670815 -0.0124525 -0.0133994 -0.0295698 0.0020819 -0.0151926 -0.0135685
internal_weight=6688 2507 4181 1845 1310 2336 1197 773 1388 537 413 361 322 1051 457 344 787 1285 410 371 360 752 314 246
internal_count=6688 2507 4181 1845 1310 2336 1197 773 1388 537 413 361 322 1051 457 344 787 1285 410 371 360 752 314 246
is_linear=0
shrinkage=0.03


Tree=32
num_leaves=25
num_cat=0
split_feature=38 243 121 142 41 38 254 15 280 38 226 121 121 154 45 159 159 256 318 159 61 51 170 81
split_gain=958.571 164.389 109.777 33.8335 23.3776 19.206 14.372 8.91152 13.4563 8.44533 7.24266 5.79245 5.40787 5.38128 5.04721 4.85657 4.63978 4.58698 4.56959 4.40739 3.97161 3.96681 3.57781 3.14272
threshold=18.500000000000004 2.2391212949337822 11.500000000000002 96.250000000000014 93.500000000000014 10.500000000000002 10.244897959183676 11.500000000000002 1.0000000180025095e-35 155.50000000000003 0.55348680453525556 2.5000000000000004 3.5000000000000004 0.35522867949576092 181.50000000000003 1.1785398606333974 1.4507364257783106 139.50000000000003 -73.452321440214931 2.4718928535015334 3.5000000000000004 128.50000000000003 0.10962281718393781 1852.5000000000002
decision_type=2 2 2 2 2 2 2 2 2 2 2 2 2 2 2 2 2 2 2 2 2 2 2 2
left_child=2 4 6 19 16 13 7 -1 10 -5 -9 -8 -10 18 -7 -15 -2 -13 -4 -3 -18 -6 -14 -11
right_child=1 3 5 9 21 14 11 8 12 23 -12 17 22 15 -16 -17 20 -19 -20 -21 -22 -23 -24 -25
leaf_value=-0.034625403873230272 -0.0044443455740516549 0.0087434938327014388 -0.012220852482975936 0.01654981391317845 0.0035381610588666292 -0.0090757224509220458 -0.033578136546808739 0.0033408556255688617 -0.029208516437205005 0.021725674977393816 -0.014708043436000896 -0.026552210189913248 -0.021646613626292457 -0.016461570064447963 -0.0037794133101527998 -0.010465057818231607 0.010661880196674077 -0.013959857127397163 -0.025901825324927446 0.012368537443446964 -0.00031803644544668844 0.0068531065834492684 -0.014649189078375369 0.031750433714159067
leaf_weight=36 274 493 38 564 730 334 109 31 67 252 55 306 251 195 320 341 31 30 57 819 631 595 95 34
leaf_count=36 274 493 38 564 730 334 109 31 67 252 55 306 251 195 320 341 31 30 57 819 631 595 95 34
internal_value=-4.47406e-06 0.00812262 -0.0158757 0.0140373 0.00246525 -0.0101026 -0.0234407 -0.0200971 -0.0190363 0.0187054 -0.00817088 -0.0274482 -0.021289 -0.0138407 -0.00648982 -0.0126549 -0.00116155 -0.0254413 -0.0204796 0.0110094 0.00019313 0.00502943 -0.0197388 0.0229386
internal_weight=6688 4423 2265 2162 2261 1285 980 535 499 850 86 445 413 631 654 536 936 336 95 1312 662 1325 346 286
internal_count=6688 4423 2265 2162 2261 1285 980 535 499 850 86 445 413 631 654 536 936 336 95 1312 662 1325 346 286
is_linear=0
shrinkage=0.03


Tree=33
num_leaves=25
num_cat=0
split_feature=38 38 163 160 38 257 45 15 68 223 212 62 49 317 50 181 42 114 100 142 56 49 38 61
split_gain=902.469 132.639 131.93 25.4087 24.1972 20.196 14.9688 8.73907 14.7493 9.47423 7.64422 7.54642 6.26207 5.08136 4.78924 4.16784 4.16526 7.8772 4.54323 3.6405 3.49057 3.06151 3.05397 2.94547
threshold=21.500000000000004 7.5000000000000009 2.3895129653719374 3.6250300059957019 3.5000000000000004 1.4959016393442626 155.50000000000003 12.500000000000002 21.500000000000004 0.076919625480435558 0.82756480442000646 172.50000000000003 8.5000000000000018 1.2551282911363923 204.50000000000003 0.0053528768687009492 3323.7850000000058 21.500000000000004 10.500000000000002 1.4166666666666667 4.5000000000000009 79.500000000000014 66.500000000000014 4.5000000000000009
decision_type=2 2 2 2 2 2 2 2 2 2 2 2 2 2 2 2 2 2 2 2 2 2 2 2
left_child=1 4 5 22 7 -2 16 12 -9 19 20 -5 -1 -11 -7 -12 18 -18 23 -10 -6 -8 -4 -3
right_child=2 6 3 11 10 14 21 8 9 13 15 -13 -14 -15 -16 -17 17 -19 -20 -21 -22 -23 -24 -25
leaf_value=-0.039612561565789225 0.0064154183890610568 -0.025506110259625465 0.0091677521601833123 0.017188013184300993 -0.021760934137455994 -0.0014293284269002262 -0.0060509370118242405 -0.0036605855988131627 -0.033363295550539671 -0.021675234518163191 -0.013655722367434713 0.024943336377590161 -0.026167109051369684 -0.010273822390976541 0.0025319525772543473 -0.0033244720518499794 0.003531461835440306 -0.010760559510590951 -0.010832878196066344 -0.02556941664924892 -0.015696628771606311 -0.0020297618776204569 0.012585295616188654 -0.013941713530345665
leaf_weight=51 1173 37 349 613 162 494 358 35 81 270 126 142 91 42 617 50 45 147 231 203 199 331 793 48
leaf_count=51 1173 37 349 613 162 494 358 35 81 270 126 142 91 42 617 50 45 147 231 203 199 331 793 48
internal_value=-4.49059e-06 -0.0142362 0.00852848 0.0143763 -0.0208332 0.00366979 -0.00701266 -0.0242406 -0.0227007 -0.023813 -0.0159192 0.0186537 -0.0310417 -0.0201538 0.000767921 -0.0107413 -0.010923 -0.00739516 -0.0130539 -0.0278138 -0.0184316 -0.00412407 0.0115444 -0.0190349
internal_weight=6688 2507 4181 1897 1310 2284 1197 773 631 596 537 755 142 312 1111 176 508 192 316 284 361 689 1142 85
internal_count=6688 2507 4181 1897 1310 2284 1197 773 631 596 537 755 142 312 1111 176 508 192 316 284 361 689 1142 85
is_linear=0
shrinkage=0.03


Tree=34
num_leaves=25
num_cat=1
split_feature=316 38 100 163 38 254 257 15 50 38 51 157 45 7 38 205 45 50 142 38 257 56 56 154
split_gain=849.808 138.702 103.81 27.0237 21.8389 16.5638 16.4492 8.68779 10.2403 8.61264 6.74533 6.63029 5.5603 5.55227 5.47898 4.99361 4.97034 4.73103 4.40378 4.25606 3.8288 3.73264 3.69454 3.06553
threshold=57.500000000000007 58.500000000000007 7.5000000000000009 3.7496331518843822 31.500000000000004 10.244897959183676 3.1043557168784033 12.500000000000002 7.5000000000000009 3.5000000000000004 236.50000000000003 0.14945652173913046 36.500000000000007 0 221.00000000000003 0.19629204811499598 514.50000000000011 92.500000000000014 25.583333333333336 26.500000000000004 7.041666666666667 9.5000000000000018 13.500000000000002 0.83721473343513642
decision_type=2 2 2 2 2 2 2 2 2 2 2 2 2 9 2 2 2 2 2 2 2 2 2 2
left_child=2 4 5 10 18 7 19 -1 -9 -8 -3 -10 -11 15 -5 -7 22 23 -2 21 -15 -4 -6 -14
right_child=1 3 6 14 16 13 9 8 11 12 -12 -13 17 20 -16 -17 -18 -19 -20 -21 -22 -23 -24 -25
leaf_value=-0.032567775018734105 -0.0029042156210866972 0.0095458162959417107 -0.010918464089447981 0.017568889125819907 0.013726144293849154 -0.014149004836088259 -0.022670553408266191 -0.0051664282914430379 -0.021372561866075408 0.0016317941981098579 0.013851414178332952 -0.01460016330962206 -0.019015381455239726 -0.038575312447882142 0.025348979325203989 -0.02545844045960393 0.0069341861133290703 -0.0085980329756246976 0.0012621322074690838 0.0030145019147838443 -0.027174165832584068 -0.0045983011653330606 0.0029561495172188519 -0.012147894773640424
leaf_weight=37 442 827 106 519 30 58 62 56 338 30 554 220 86 32 100 98 723 265 471 53 250 429 696 206
leaf_count=37 442 827 106 519 30 58 62 56 338 30 554 220 86 32 100 98 723 265 471 53 250 429 696 206
internal_value=-4.58417e-06 0.00780393 -0.0146491 0.0136177 0.00287951 -0.0214055 -0.00869734 -0.0183484 -0.0174815 -0.0119935 0.0112761 -0.0187109 -0.010857 -0.0259371 0.0188345 -0.0212846 0.00516944 -0.0115352 -0.000751685 -0.00505273 -0.0284918 -0.00585793 0.00340715 -0.0141866
internal_weight=6688 4362 2326 2000 2362 1089 1237 651 614 649 1381 558 587 438 619 156 1449 557 913 588 282 535 726 292
internal_count=6688 4362 2326 2000 2362 1089 1237 651 614 649 1381 558 587 438 619 156 1449 557 913 588 282 535 726 292
cat_boundaries=0 1
cat_threshold=2
is_linear=0
shrinkage=0.03


Tree=35
num_leaves=25
num_cat=1
split_feature=316 82 121 100 316 257 254 15 280 154 50 38 11 121 7 256 36 38 38 121 68 75 286 149
split_gain=799.653 130.658 98.2067 23.4548 22.3561 18.4453 13.3352 7.85431 10.3215 7.42532 6.73293 6.72894 5.68924 5.40348 5.17416 5.38031 3.97451 3.95392 3.88114 3.71719 3.70619 3.59327 3.51371 3.41508
threshold=57.500000000000007 51.500000000000007 12.500000000000002 79.500000000000014 327.50000000000006 3.1043557168784033 10.244897959183676 11.500000000000002 1.0000000180025095e-35 0.29529042175577491 336.50000000000006 24.500000000000004 185012.15500000003 5.5000000000000009 0 58.500000000000007 30.500000000000004 262.00000000000006 26.500000000000004 1.5000000000000002 1025.5000000000002 14.500000000000002 -2.3994999999999997 0.12488171265361513
decision_type=2 2 2 2 2 2 2 2 2 2 2 2 2 2 9 2 2 2 2 2 2 2 2 2
