tree
version=v4
num_class=1
num_tree_per_iteration=1
label_index=0
max_feature_idx=321
objective=regression
feature_names=Gender IncomeCategory CustomerStatus ClientType MaritalStatus OccupationCategory IndustryCategory CustomerBankingType CustomerOnboardingChannel ResidentialCityName CountryCodeNationality AnnualGrossIncome LowIncomeFlag CertificationTypeDescription ContactPreference Age age_at_prediction_start birthdate_missing birthdate_after_cutoff birthdate_age_under_18 birthdate_age_over_100 birthdate_age_was_clipped birthday_in_pred_window birthday_pred_month_index days_to_birthday_in_pred_window txn_count_all txn_amount_sum_all txn_amount_mean_all txn_amount_std_all txn_debit_count txn_credit_count txn_debit_sum txn_credit_sum public_holiday_txn_count school_holiday_txn_count black_friday_txn_count festive_season_txn_count stmt_balance_mean txn_count_last_1m txn_amount_sum_last_1m stmt_balance_mean_1m txn_count_last_3m txn_amount_sum_last_3m stmt_balance_mean_3m txn_count_last_6m txn_count_last_12m active_days_all active_days_last_1m active_days_last_3m active_days_last_6m active_days_last_12m target_lag_1yr target_lag_2yr txn_count_m1 txn_count_m2 txn_count_m3 txn_count_m4 txn_count_m5 txn_count_m6 txn_count_m7 txn_count_m8 txn_count_m9 txn_count_m10 txn_count_m11 txn_count_m12 txn_count_m13 recency_days days_since_last_active_day lifespan_days unique_account_count transfer_txn_count reversal_txn_count returned_txn_count card_txn_count cash_txn_count weekend_txn_count_all weekend_txn_count_3m early_month_txn_count_all early_month_txn_count_3m mid_month_txn_count_all mid_month_txn_count_3m late_month_txn_count_all late_month_txn_count_3m month_end_txn_count_all month_end_txn_count_3m payday_window_txn_count_all payday_window_txn_count_3m txn_type_transfers_payments_count_all txn_type_charges_fees_count_all txn_type_interest_investments_count_all txn_type_other_unclassified_count_all txn_type_debit_orders_standing_orders_count_all txn_type_withdrawals_count_all txn_type_foreign_exchange_count_all txn_type_teller_branch_transactions_count_all txn_type_card_transactions_count_all txn_type_unpaid_returned_items_count_all txn_type_reversals_adjustments_count_all txn_type_deposits_count_all txn_type_account_maintenance_count_all txn_type_transfers_payments_count_3m txn_type_charges_fees_count_3m txn_type_interest_investments_count_3m txn_type_other_unclassified_count_3m txn_type_debit_orders_standing_orders_count_3m txn_type_withdrawals_count_3m txn_type_foreign_exchange_count_3m txn_type_teller_branch_transactions_count_3m txn_type_card_transactions_count_3m txn_type_unpaid_returned_items_count_3m txn_type_reversals_adjustments_count_3m txn_type_deposits_count_3m txn_type_account_maintenance_count_3m txn_batch_system_defined_count_all txn_batch_other_charges_count_all txn_batch_not_disclosed_unknown_count_all txn_batch_digital_banking_fees_count_all txn_batch_transaction_service_fees_count_all txn_batch_credit_debit_service_count_all txn_batch_unallocated_count_all txn_batch_other_unclassified_count_all txn_batch_system_defined_count_3m txn_batch_other_charges_count_3m txn_batch_not_disclosed_unknown_count_3m txn_batch_digital_banking_fees_count_3m txn_batch_transaction_service_fees_count_3m txn_batch_credit_debit_service_count_3m txn_batch_unallocated_count_3m txn_batch_other_unclassified_count_3m reversal_type_manual_count_all reversal_type_sytem_count_all reversal_type_not_applicable_count_all reversal_type_manual_count_3m reversal_type_sytem_count_3m reversal_type_not_applicable_count_3m txn_velocity spend_velocity yoy_growth_ratio mom_accel_1 mom_accel_2 mom_accel_3 mom_jerk txn_count_6m_avg transfer_txn_ratio txns_per_account debit_credit_ratio debit_txn_share public_holiday_txn_share school_holiday_txn_share festive_season_txn_share reversal_ratio bounced_ratio credit_to_debit_ratio card_to_cash_ratio balance_velocity active_day_rate_last_1m active_day_rate_last_3m active_day_rate_last_6m active_day_rate_last_12m txns_per_active_day_all txns_per_active_day_last_1m txns_per_active_day_last_3m txns_per_active_day_last_6m txns_per_active_day_last_12m active_rate_accel_1m_vs_3m active_rate_accel_3m_vs_12m weekend_txn_share_all weekend_txn_share_3m early_month_txn_share_all early_month_txn_share_3m mid_month_txn_share_all mid_month_txn_share_3m late_month_txn_share_all late_month_txn_share_3m month_end_txn_share_all month_end_txn_share_3m payday_window_txn_share_all payday_window_txn_share_3m txn_type_transfers_payments_share_all txn_type_charges_fees_share_all txn_type_interest_investments_share_all txn_type_other_unclassified_share_all txn_type_debit_orders_standing_orders_share_all txn_type_withdrawals_share_all txn_type_foreign_exchange_share_all txn_type_teller_branch_transactions_share_all txn_type_card_transactions_share_all txn_type_unpaid_returned_items_share_all txn_type_reversals_adjustments_share_all txn_type_deposits_share_all txn_type_account_maintenance_share_all txn_type_transfers_payments_share_3m txn_type_charges_fees_share_3m txn_type_interest_investments_share_3m txn_type_other_unclassified_share_3m txn_type_debit_orders_standing_orders_share_3m txn_type_withdrawals_share_3m txn_type_foreign_exchange_share_3m txn_type_teller_branch_transactions_share_3m txn_type_card_transactions_share_3m txn_type_unpaid_returned_items_share_3m txn_type_reversals_adjustments_share_3m txn_type_deposits_share_3m txn_type_account_maintenance_share_3m txn_batch_system_defined_share_all txn_batch_other_charges_share_all txn_batch_not_disclosed_unknown_share_all txn_batch_digital_banking_fees_share_all txn_batch_transaction_service_fees_share_all txn_batch_credit_debit_service_share_all txn_batch_unallocated_share_all txn_batch_other_unclassified_share_all txn_batch_system_defined_share_3m txn_batch_other_charges_share_3m txn_batch_not_disclosed_unknown_share_3m txn_batch_digital_banking_fees_share_3m txn_batch_transaction_service_fees_share_3m txn_batch_credit_debit_service_share_3m txn_batch_unallocated_share_3m txn_batch_other_unclassified_share_3m reversal_type_manual_share_all reversal_type_sytem_share_all reversal_type_not_applicable_share_all reversal_type_manual_share_3m reversal_type_sytem_share_3m reversal_type_not_applicable_share_3m fees_per_transfer_3m debit_orders_per_active_day_3m system_defined_share_3m recent_vs_trend daily_txn_count_sum_all daily_txn_count_mean_all daily_txn_count_std_all daily_txn_count_max_all daily_txn_count_p90_all high_volume_days_5_all high_volume_days_10_all top3_daily_txn_count_all daily_abs_amount_mean_all daily_abs_amount_max_all top3_daily_txn_share_all daily_txn_count_cv_all daily_txn_count_sum_3m daily_txn_count_mean_3m daily_txn_count_std_3m daily_txn_count_max_3m daily_txn_count_p90_3m high_volume_days_5_3m high_volume_days_10_3m top3_daily_txn_count_3m daily_abs_amount_mean_3m daily_abs_amount_max_3m top3_daily_txn_share_3m daily_txn_count_cv_3m active_gap_mean_all active_gap_median_all longest_inactive_gap_all active_gap_mean_3m active_gap_median_3m longest_inactive_gap_3m account_txn_count_mean_all account_txn_count_std_all primary_account_txn_count_all account_txn_count_sum_all account_txn_count_mean_3m account_txn_count_std_3m primary_account_txn_count_3m account_txn_count_sum_3m primary_account_abs_amount_sum_all account_abs_amount_sum_all primary_account_abs_amount_sum_3m account_abs_amount_sum_3m primary_account_txn_share_all primary_account_txn_share_3m primary_account_amount_share_all primary_account_amount_share_3m account_activity_cv_all account_activity_cv_3m fin_interest_income_mean fin_interest_revenue_mean fin_interest_income_std fin_interest_revenue_std fin_interest_income_min fin_interest_income_max fin_interest_revenue_min fin_interest_revenue_max fin_interest_income_mean_3m fin_interest_revenue_mean_3m fin_interest_income_first fin_interest_income_last fin_interest_revenue_first fin_interest_revenue_last fin_product_count fin_account_count fin_snapshot_count fin_transactional_snapshot_count fin_investments_snapshot_count fin_mortgages_snapshot_count fin_transactional_interest_income_mean fin_investments_interest_income_mean fin_mortgages_interest_income_mean fin_transactional_interest_revenue_mean fin_investments_interest_revenue_mean fin_mortgages_interest_revenue_mean fin_transactional_interest_income_mean_3m fin_investments_interest_income_mean_3m fin_mortgages_interest_income_mean_3m fin_transactional_interest_revenue_mean_3m fin_investments_interest_revenue_mean_3m fin_mortgages_interest_revenue_mean_3m fin_interest_income_trend fin_interest_revenue_trend fin_interest_income_trend_per_snapshot fin_interest_revenue_trend_per_snapshot fin_interest_income_recent_ratio fin_interest_revenue_recent_ratio month_end_vol_cluster_3m throughput_ratio_3m ticket_size_drift_1m_3m month_end_vs_early_diff_3m seasonal_recent_gap txn_friction_score
feature_infos=-1:1:0 -1:7:1:3:6:0:4:5:2 -1:0:2 -1:2:1:3 -1:0:2:1:3 -1:9:11:12:4:8:5:3:16:0:2:13:7:14:17:1:6:10 -1:5:4:12:10:7:3:2:1:8:11:15:17:0:6:14:13:9 -1:1:2:0 -1:1:2 -1:173:54:322:283:89:141:306:50:58:124:309:370:26:193:243:270:316:342:415:94:296:244:354:112:32:3:90:155:305:382:424:332:310:425:259:357:348:24:181:187:255:298:313:37:70:239:256:92:113:167:65:13:48:106:111:20:233:279:110:164:216:241:389:126:260:454:463:156:162:281:338:376:6:115:176:121:242:388:423:434:455:462:93:144:362:380:466:43:184:185:130:158:183:205:419:88:103:127:138:200:201:254:319:333:363:372:393:40:44:49:147:161:208:251:257:275:312:355:381:400:411:432:460:8:14:117:133:136:171:178:186:194:230:263:273:274:291:304:315:320:323:328:329:337:340:343:404:421:456:469:34:42:60:61:64:73:99:122:145:146:152:177:182:202:206:207:218:232:264:297:302:303:307:317:341:360:361:367:368:371:375:431 -1:59:23:61:18:44:4:30:9:22:48:57:52:3:11:28:33:34:42:60:14:46:19:29:0:1:2:10:15:26:40:43:49:55 [0:548044978.5] -1:0:1 -1:0:4:1:3 -1:2:1:0 [0:100] [0:100] none none [0:1] none none [0:1] [-1:2] [0:999] [1:18728] [-35816766.619999997:52406406.049999997] [-75941.460000000006:220265.82500000001] [0:590052.83448541572] [0:12696] [0:11867] [0:257680635.50999999] [0:263457622.47] [0:584] [0:3028] [0:54] [0:1826] [-973250.26728686632:1000000] [0:613] [-4371530.6900000004:2259849.3999999999] [-998822.31920000003:1000000] [0:1800] [-9016234.4800000004:4863829.6399999997] [-999560.56686567154:1000000] [0:3427] [0:6771] [1:1039] [0:31] [0:92] [0:184] [0:365] [0:1798] [0:1812] [0:613] [0:579] [0:611] [0:595] [0:533] [0:652] [0:713] [0:573] [0:546] [0:635] [0:520] [0:643] [0:645] [1:954] [1:954] [0:1038] [1:6] [0:18009] [0:58] [0:237] [0:517] [0:1254] [0:5381] [0:562] [0:3155] [0:301] [0:2840] [0:253] [0:4170] [0:447] [0:2252] [0:255] [0:7325] [0:715] [0:18009] [0:2082] [0:374] [0:1121] [0:555] [0:1254] [0:709] [0:1191] [0:517] [0:237] [0:58] [0:300] [0:35] [0:1748] [0:296] [0:38] [0:225] [0:53] [0:91] [0:300] [0:88] [0:44] [0:30] [0:20] [0:46] [0:3] [0:17944] [0:1150] [0:2216] [0:1561] [0:1162] [0:478] [0:233] none [0:1703] [0:112] [0:227] [0:159] [0:113] [0:39] none none [0:14820] [0:7892] [0:554] [0:1309] [0:754] [0:159] [-2.2335922215070942:1.0551271767283708] [-10.273941976939037:7.5793827092502086] [-5.4424177105217932:6.4052284580308418] [-2.6741486494265287:3.8066624897703196] [-2.8332133440562162:3.713572066704308] [-2.6390573296152589:4.0775374439057197] [-6.0414444794130029:4.219507705176107] [0:571.16666666666663] [0:0.99999295779607178] [1:15085] [0:75941.460000000006] [0:0.9999848487144134] [0:0.33322225924691773] [0:0.99900099900099915] [0:0.49999764152055887] [0:0.24996875390576179] [0:0.49999468090764987] [0:440531650] [0:381000] [-317.96715549874187:691.73471336359398] [0:1] [0:1] [0:1] [0:1] [0.99900099900099915:18.042371828158164] [0:19.773555691751877] [0:19.565004728209473] [0:18.624898777724034] [0:18.55063410785176] [-0.53366058906030855:0.55434782608695654] [-0.49484812388326382:0.70711733174508629] [0:0.99966677774075308] [0:0.99980003999200151] [0:0.99900099900099915] [0:0.99966677774075308] [0:0.99966677774075308] [0:0.99966677774075308] [0:0.99990000999900019] [0:0.99990000999900019] [0:0.99900099900099915] [0:0.99950024987506247] [0:0.99990000999900019] [0:0.99990909917280257] [0:0.99999295779607178] [0:0.99998529433390682] [0:0.80950453560629509] [0:0.38547270685638629] [0:0.43967235207325966] [0:0.51273722058210014] [0:0.30344618312977151] [0:0.99900099900099915] [0:0.22523925680629903] [0:0.49999468090764987] [0:0.24996875390576179] [0:0.26664889007399506] [0:0.1999600079984003] [0:0.99999107150829003] [0:0.99990000999900019] [0:0.99975006248437881] [0:0.46663555762949138] [0:0.57134695043565198] [0:0.54836940743846974] [0:0.35713860549279175] [0:0.99900099900099915] [0:0.28260255211843222] [0:0.59988002399520091] [0:0.4998750312421894] [0:0.53331555614812842] [0:0.33327778703549404] [0:0.99999939540544414] [0:0.99900099900099915] [0:0.99900099900099915] [0:0.49999264716695341] [0:0.31490734521382713] [0:0.22916507524253302] [0:0.47101278618555736] none [0:0.99999586778567029] [0:0.99975006248437881] [0:0.99900099900099915] [0:0.746475368660241] [0:0.3444959593494768] [0:0.24998437597650144] none none [0:0.99999637682472176] [0:0.99999666667777787] [0:0.45152662479863909] [0:0.99999431821410101] [0:0.99997674472686682] [0:0.746475368660241] [0:20000] [0:0.78046876905441331] [0:0.99999586778567029] [-3.4122472178487406:1.6863989535702286] [1:18728] [1:18.04238921001927] [0:8.2212737591282643] [1:42] [1:25] [0:1032] [0:995] [1:108] [0:510919.86076470593] [0:4613745.3799999999] [0.0056599740677074932:0.99975006248437881] [0:1.5509162792999596] [0:1800] [0:19.565217391304348] [0:9.5837310913119858] [0:31] [0:26] [0:92] [0:91] [0:89] [0:545217.78312499996] [0:3177654.6299999999] [0:0.99975006248437881] [0:1.0033822647234893] [0:181.5] [0:181.5] [1:1000] [0:73] [0:73] [1:92] [1:15085] [0:8191.8134947844928] [1:15651] [1:18728] [0:1363] [0:895.90429176335567] [0:1495] [0:1800] [0:521138257.98000002] [0:521138257.98000002] [0:45550392.270000003] [0:45550392.270000003] [0.33666554444818519:0.99999993370898677] [0:0.99999926632482294] [0:0.9999999999980812] [0:0.99999999997804623] [0:2.4246852640978691] [0:2.448673518277086] [-58504.588571428569:35985.627209302322] [-0.089999999999999789:16911.705500000004] [0:53282.587822061527] [0:73624.91051612336] [-135752.14999999999:3726.79] [-45662.199999999997:418378] [-5250.7200000000003:958] [0:329709.20000000001] [-57234.41333333333:28286.747500000001] [-10.48:47500.990000000005] [-94773.660000000003:54024.910000000003] [-51880.860000000001:77764.470000000001] [-54.469999999999999:24272.419999999998] [-10.48:49879.669999999998] [0:3] [0:42] [0:691] [0:116] [0:669] [0:22] [-58504.588571428569:35985.627209302322] [-23308.900526315789:17045.23] [-6934.4800000000005:48309.779090909084] [-0.089999999999999789:18727.693333333333] none [-124.06105263157896:21464.314999999999] [-57234.41333333333:18004.666666666668] [-41422.294999999998:6369.5666666666666] [-10903.064999999999:56915.854999999996] [-10.48:95001.98000000001] none [0:26885.285] [-56954.800000000003:94425.529999999999] [-23764.599999999999:49700.619999999995] [-2227.3103842308242:4291.8744602518063] [-1177.2809063645454:2484.9067546622664] [-134.01297419008139:2984.4597598932223] [-18.036500943989932:43.857677902621823] [0:1404] [-29117.261388301427:1023.6932559799293] [-97222.281888888901:157391.83753968254] [0:4294967295] [-195:1198] [0:0.49999468090764987]
tree_sizes=2198 2348 2352 2363 2347 2338 2369 2346 2368 2349 2341 2345 2369 2348 2344 2362 2338 2351 2340 2358 2357 2365 2362 2363 2353 2364 2346 2357 2335 2343 2371 2354 2351 2323 2348 2335 2363 2357 2374 2381 2370 2344 2359 2363 2347 2349 2367 2375 2389 2374 2377 2370 2379 2349 2364 2362 2355 2357 2359 2366 2387 2383 2402 2380 2371 2369 2398 2372 2393 2358 2383 2392 2401 2365 2389 2396 2384 2384 2397 2377 2398 2385 2349 2451 2422 2454 2395 2393 2400 2374 2406 2398 2404 2397 2394 2439 2471 2545 2391 2449 2471 2416 2536 2501 2500 2526 2539 2476 2466 2384 2480 2505 2571 2558 2378 2415 2563 2524 2515 2455 2568 2477 2395 2459 2477 2506 2515 2511 2458 2463 2366 2546 2419 2498 2421 2419 2493 2324 2404 2408 2511 2576 2305 2499 2557 2577 2610 2542 2635 2402 2333 2600 2592 2326 2424 2393 2526 2570 2611 2412 2593

Tree=0
num_leaves=25
num_cat=0
split_feature=242 242 53 242 242 49 242 247 256 242 100 45 242 136 45 45 53 144 45 163 259 100 240 45
split_gain=6717.79 1083.12 811.696 204.975 143.245 118.8 100.103 43.4306 35.9318 29.5003 25.5634 25.19 24.822 21.8154 13.8709 12.9301 11.7505 11.5801 10.0324 9.31268 8.843 8.50711 8.19837 12.0977
threshold=57.500000000000007 167.50000000000003 5.5000000000000009 309.50000000000006 105.50000000000001 22.500000000000004 36.500000000000007 54.500000000000007 403.50000000000006 7.5000000000000009 10.500000000000002 330.50000000000006 236.50000000000003 0.34038615677832246 572.50000000000011 22.500000000000004 39.500000000000007 46.250000000000007 95.500000000000014 1.2973992348843211 24.500000000000004 573.50000000000011 0.16666373461962644 80.500000000000014
decision_type=2 2 2 2 2 2 2 2 2 2 2 2 2 10 2 2 2 2 2 2 2 2 2 2
left_child=2 4 5 12 11 8 10 -5 9 13 22 16 -3 15 -6 -1 -2 -12 -19 -8 -15 -9 23 -4
right_child=1 3 6 7 14 -7 19 21 -10 -11 17 -13 -14 20 -16 -17 -18 18 -20 -21 -22 -23 -24 -25
leaf_value=4.3030199351360858 4.3796097651628241 4.411438864685806 4.3360113244902996 4.4298831133209742 4.3973201658219505 4.3390472423702606 4.3634040032289727 4.4418276527392946 4.3463182427045828 4.3244439511557937 4.3748660208457135 4.389493979647856 4.4200065585404715 4.3394107959161055 4.4043013568322067 4.3143440586419857 4.3977082137995716 4.3468933673735375 4.3587987739368357 4.3721418804681207 4.3164155493786271 4.4556433613344257 4.3595972906681641 4.3493289951364096
leaf_weight=194 584 792 109 563 766 338 157 151 38 251 32 537 504 33 390 201 34 87 264 381 32 62 35 153
leaf_count=194 584 792 109 563 766 338 157 151 38 251 32 537 504 33 390 201 34 87 264 381 32 62 35 153
internal_value=4.38453 4.40634 4.34307 4.42209 4.39221 4.32423 4.3599 4.43429 4.31755 4.31602 4.35225 4.38474 4.41478 4.31145 4.39968 4.30876 4.38061 4.35741 4.35583 4.36958 4.32796 4.44589 4.34561 4.34376
internal_weight=6688 4383 2305 2072 2311 1087 1218 776 749 711 680 1155 1296 460 1156 395 618 383 351 538 65 213 297 262
internal_count=6688 4383 2305 2072 2311 1087 1218 776 749 711 680 1155 1296 460 1156 395 618 383 351 538 65 213 297 262
is_linear=0
shrinkage=1


Tree=1
num_leaves=25
num_cat=1
split_feature=267 267 38 267 267 49 267 161 7 267 204 100 38 49 15 45 229 45 58 229 45 163 163 161
split_gain=6321.41 1002.4 782.409 193.002 129.813 111.785 98.7747 35.9217 35.14 29.8998 26.0225 24.0491 22.5994 21.2244 19.6957 24.6601 14.5299 13.0486 12.9936 11.886 9.28076 9.12105 8.8856 7.7104
threshold=58.500000000000007 167.50000000000003 5.5000000000000009 324.50000000000006 105.50000000000001 22.500000000000004 36.500000000000007 5.9564569950326636 0 238.50000000000003 0.73683691139411445 10.500000000000002 24.500000000000004 10.500000000000002 14.500000000000002 22.500000000000004 0.31768164000294458 572.50000000000011 14.500000000000002 0.69123513234074385 95.500000000000014 1.2973992348843211 1.5835250258603246 1.0832957189508881
decision_type=2 2 2 2 2 2 2 2 9 2 2 2 2 2 2 2 2 2 2 2 2 2 2 2
left_child=2 4 5 9 12 8 11 -5 10 -3 -1 23 18 16 -12 -16 -10 -6 -2 20 -13 -8 -14 -4
right_child=1 3 6 7 17 -7 21 -9 13 -11 14 19 22 -15 15 -17 -18 -19 -20 -21 -22 -23 -24 -25
leaf_value=-0.065990995273487341 -0.019836958805389559 0.02618073528659259 -0.046264809363691532 0.045673973727151623 0.012403035952601784 -0.044122153683677112 -0.020382624113575078 0.062305853475010137 -0.084404709504948522 0.035202394363106584 -0.065134705267134746 -0.036491786423947972 -0.0012168762108464052 -0.06532728043121884 -0.023271990179166088 -0.052518376535755674 -0.061904047734189227 0.019174893038360254 -0.003233266261261269 -0.0092132281590679155 -0.025066701405717692 -0.011858068702564133 0.0059297999743699054 -0.034853389415921844
leaf_weight=160 48 808 75 543 766 338 160 152 125 569 47 88 230 268 42 71 36 390 368 34 261 401 486 222
leaf_count=160 48 808 75 543 766 338 160 152 125 569 47 88 230 268 42 71 36 390 368 34 261 401 486 222
internal_value=0 0.0213119 -0.0399139 0.0364276 0.00762084 -0.0584983 -0.0236298 0.0493242 -0.0649751 0.0299131 -0.057344 -0.031321 0.00039674 -0.0706456 -0.0486424 -0.0417048 -0.0794337 0.0146917 -0.00516059 -0.0263117 -0.0279657 -0.0142979 0.00363004 -0.0377598
internal_weight=6688 4360 2328 2072 2288 1087 1241 695 749 1377 320 680 1132 429 160 113 161 1156 416 383 349 561 716 297
internal_count=6688 4360 2328 2072 2288 1087 1241 695 749 1377 320 680 1132 429 160 113 161 1156 416 383 349 561 716 297
cat_boundaries=0 1
cat_threshold=2
is_linear=0
shrinkage=0.03


Tree=2
num_leaves=25
num_cat=1
split_feature=41 41 38 41 41 254 41 38 157 44 45 41 262 45 135 136 7 41 163 50 38 248 27 157
split_gain=5948.17 958.849 718.554 181.861 126.784 108.177 88.841 39.3724 23.8948 23.488 22.5831 22.1677 17.8593 25.5375 15.3305 14.4558 12.7166 12.3829 11.4294 10.8412 10.8021 10.7425 8.50757 7.79436
threshold=57.500000000000007 167.50000000000003 5.5000000000000009 309.50000000000006 105.50000000000001 9.0584415584415598 34.500000000000007 157.50000000000003 0.13858695652173916 8.5000000000000018 330.50000000000006 224.50000000000003 36.500000000000007 95.500000000000014 0.18232155679395454 -1.5559103846509899 0 137.50000000000003 1.2973992348843211 33.500000000000007 39.500000000000007 31.500000000000004 75.738799609435844 0.42119565217391308
decision_type=2 2 2 2 2 2 2 2 2 2 2 2 2 2 2 10 9 2 2 2 2 2 2 2
left_child=2 4 5 11 10 8 12 -5 15 14 20 -3 -4 -14 -7 -1 22 -6 -8 -11 23 -9 -17 -2
right_child=1 3 6 7 17 9 18 21 -10 19 -12 -13 13 -15 -16 16 -18 -19 -20 -21 -22 -23 -24 -25
leaf_value=-0.05790593367267715 -0.014227539265881158 0.024650558453031681 -0.015006956098578387 0.041763349981027653 0.01144140292879149 -0.083681468128804268 -0.020904185579529271 0.053389806253055158 -0.040823698442938795 -0.065677252221632482 0.004697436263330983 0.032552730472564684 -0.039577293027096089 -0.026694548000968647 -0.060724882761688186 -0.026413624255631967 -0.059252081153255934 0.017715185373553974 -0.012010815138027537 -0.053435733790812505 0.012678627323719762 0.070562797932729224 -0.048230344714516413 -0.0034061068006411496
leaf_weight=209 68 674 57 500 639 101 195 235 258 286 537 622 265 298 39 38 33 517 403 93 34 41 30 516
leaf_count=209 68 674 57 500 639 101 195 235 258 286 537 622 265 298 39 38 33 517 403 93 34 41 30 516
internal_value=-1.4792e-07 0.0205163 -0.0390131 0.0353351 0.00722784 -0.0567452 -0.0231824 0.0468289 -0.0476607 -0.0666705 0.000195262 0.0284476 -0.0311441 -0.0327696 -0.0773557 -0.0533262 -0.0437719 0.0142511 -0.0149189 -0.0626962 -0.0037121 0.0559764 -0.0361394 -0.00467349
internal_weight=6688 4383 2305 2072 2311 1087 1218 776 568 519 1155 1296 620 563 140 310 101 1156 598 379 618 276 68 584
internal_count=6688 4383 2305 2072 2311 1087 1218 776 568 519 1155 1296 620 563 140 310 101 1156 598 379 618 276 68 584
cat_boundaries=0 1
cat_threshold=2
is_linear=0
shrinkage=0.03


Tree=3
num_leaves=25
num_cat=1
split_feature=41 41 53 41 53 254 41 316 45 121 163 157 100 44 45 136 7 229 158 163 27 100 317 266
split_gain=5597.2 887.397 692.669 171.232 116.361 101.774 87.715 32.1441 26.9201 25.6243 23.4784 22.4819 22.0451 21.2865 13.6263 13.5809 11.9573 11.0796 8.66903 8.02894 7.99987 7.98441 7.80124 7.38465
threshold=58.500000000000007 167.50000000000003 5.5000000000000009 324.50000000000006 32.500000000000007 9.0584415584415598 36.500000000000007 415.50000000000006 919.50000000000011 1.5000000000000002 1.8779003952262754 0.13858695652173916 10.500000000000002 144.50000000000003 35.500000000000007 -1.5559103846509899 0 0.69123513234074385 0.25616438356164389 1.2973992348843211 75.738799609435844 553.50000000000011 0.89177162529908094 8.5000000000000018
decision_type=2 2 2 2 2 2 2 2 2 2 2 2 2 2 2 10 9 2 2 2 2 2 2 2
left_child=2 4 5 8 13 11 12 -5 -3 -7 -6 15 -4 -2 22 23 20 18 -14 -8 -17 -9 -11 -1
right_child=1 3 6 7 10 9 19 21 -10 14 -12 -13 17 -15 -16 16 -18 -19 -20 -21 -22 -23 -24 -25
leaf_value=-0.062474755611036638 -0.0069130106746959482 0.024430314686028073 -0.035649399463822715 0.042087174004920902 0.0076358912412673331 -0.081958588567035418 -0.019152602626360968 0.051453419542240975 0.032932273997821081 -0.066855565417924062 0.015921926080880128 -0.039599462011435695 -0.031510158086629936 0.0024701080739314078 -0.052171565732282592 -0.025623295678808462 -0.057479888028788777 -0.0081819911951150018 -0.02188213313044466 -0.011151814953310494 -0.046788241285026268 0.063973532017697121 -0.053336066200347719 -0.050631236996531596
leaf_weight=97 335 777 297 482 487 69 160 133 600 296 846 258 159 620 104 38 33 34 190 401 30 80 50 112
leaf_count=97 335 777 297 482 487 69 160 133 600 296 846 258 159 620 104 38 33 34 190 401 30 80 50 112
internal_value=-3.84918e-07 0.0200533 -0.0375586 0.0342756 0.00717152 -0.0550449 -0.0222366 0.0464235 0.0281392 -0.0646724 0.0128977 -0.0462328 -0.0294846 -0.000818591 -0.0619976 -0.0517292 -0.0424645 -0.0246882 -0.0262849 -0.013442 -0.0350598 0.0561977 -0.0649265 -0.0561696
internal_weight=6688 4360 2328 2072 2288 1087 1241 695 1377 519 1333 568 680 955 450 310 101 383 349 561 68 213 346 209
internal_count=6688 4360 2328 2072 2288 1087 1241 695 1377 519 1333 568 680 955 450 310 101 383 349 561 68 213 346 209
cat_boundaries=0 1
cat_threshold=2
is_linear=0
shrinkage=0.03


Tree=4
num_leaves=25
num_cat=1
split_feature=41 41 38 41 38 254 257 38 44 121 157 162 50 254 36 136 266 7 44 100 68 27 160 41
split_gain=5267.2 888.85 590.834 161.427 125.683 95.7456 69.9185 35.1982 27.3422 24.1025 21.1555 20.1006 19.6143 16.6234 13.9197 12.761 12.1666 11.243 10.7632 10.0732 10.0373 7.52226 7.00869 6.95061
threshold=54.500000000000007 167.50000000000003 5.5000000000000009 309.50000000000006 30.500000000000004 9.0584415584415598 3.757352941176471 157.50000000000003 238.50000000000003 1.5000000000000002 0.13858695652173916 2.8322601684213393 180.50000000000003 3.1601506456241037 10.500000000000002 -1.5559103846509899 18.500000000000004 0 15.500000000000002 553.50000000000011 474.50000000000006 75.738799609435844 2.3770646741310437 8.5000000000000018
decision_type=2 2 2 2 2 2 2 2 2 2 2 2 2 2 2 10 2 9 2 2 2 2 2 2
left_child=2 4 5 11 12 10 13 -5 -6 -7 15 -3 -2 -4 18 23 20 21 -11 -9 -8 -17 -13 -1
right_child=1 3 6 7 8 9 16 19 -10 14 -12 22 -14 -15 -16 17 -18 -19 -20 -21 -22 -23 -24 -25
leaf_value=-0.060849751698215333 -0.0084795233989206284 0.023515511405154982 -0.013094322457048198 0.039286382084139176 0.0071360110303795177 -0.079503390259404602 -0.0242463425519573 0.048884390767936756 0.015421478204931843 -0.065030312018809794 -0.038411939325105539 0.017846962661983875 0.00079124610854707791 -0.022991103274661431 -0.042277163872568621 -0.024856614398909363 -0.028220440312703297 -0.055760700554105806 -0.054034525268354817 0.061869969212171042 -0.043244274244832362 -0.045389256608050522 0.032007938895869462 -0.049311163758122646
leaf_weight=93 311 744 454 500 637 69 34 195 826 289 258 35 603 233 38 38 320 33 123 81 111 30 517 116
leaf_count=93 311 744 454 500 637 69 34 195 826 289 258 35 603 233 38 38 320 33 123 81 111 30 517 116
internal_value=-6.74168e-07 0.0188856 -0.0375291 0.0332478 0.00636416 -0.0533958 -0.0225518 0.0440769 0.0118167 -0.0627343 -0.0448481 0.0267584 -0.00236055 -0.0164581 -0.0601392 -0.0501808 -0.0315429 -0.0411962 -0.0617688 0.0527273 -0.03883 -0.0340125 0.0311189 -0.0544866
internal_weight=6688 4449 2239 2072 2377 1087 1152 776 1463 519 568 1296 914 687 450 310 465 101 412 276 145 68 552 209
internal_count=6688 4449 2239 2072 2377 1087 1152 776 1463 519 568 1296 914 687 450 310 465 101 412 276 145 68 552 209
cat_boundaries=0 1
cat_threshold=2
is_linear=0
shrinkage=0.03


Tree=5
num_leaves=25
num_cat=0
split_feature=41 121 53 41 44 254 41 41 53 53 316 53 121 163 49 50 295 27 50 68 307 163 136 163
split_gain=4956.65 787.839 613.091 128.9 127.299 90.1935 78.3206 32.9386 25.2807 24.1754 23.3135 16.7728 14.6362 13.9537 12.3749 12.3031 12.1741 10.512 9.74534 11.286 8.99778 8.96107 7.58767 7.2736
threshold=58.500000000000007 162.50000000000003 5.5000000000000009 112.50000000000001 684.50000000000011 7.2798357664233588 36.500000000000007 7.5000000000000009 25.500000000000004 89.500000000000014 467.50000000000006 9.5000000000000018 1.5000000000000002 2.103107569392789 25.500000000000004 157.50000000000003 2.5000000000000004 7.0541428571404143 81.500000000000014 474.50000000000006 44.896250000000002 1.5835250258603246 0.34038615677832246 1.2973992348843211
decision_type=2 2 2 2 2 2 2 2 2 2 2 2 2 2 2 2 2 2 2 2 2 2 10 2
left_child=2 3 5 8 9 14 11 12 15 -3 -6 18 -7 -5 16 -2 17 -1 19 -4 -18 -10 -14 -8
right_child=1 4 6 13 10 7 23 -9 21 -11 -12 -13 22 -15 -16 -17 20 -19 -20 -21 -22 -23 -24 -25
leaf_value=-0.025569870919575837 -0.015583933069486624 0.024894751575424454 -0.022913101334723966 0.011869962437919454 0.041818642018018423 -0.077282989928113582 -0.018054745126990304 -0.050242013580001722 -0.00092889941428670646 0.033357690904592008 0.056280739244234372 -0.021864352962019593 -0.06367624890181571 0.018411074968806267 -0.036777560738471965 -0.0022056028307837552 -0.060862911108367598 -0.048424571432434317 -0.026167110721862025 -0.039104258012105042 -0.04489917443590126 0.0062975396023202826 -0.049954643884472023 -0.010438333835638084
leaf_weight=38 73 782 51 644 459 70 160 240 207 506 132 267 277 548 241 409 63 37 177 185 74 600 47 401
leaf_count=38 73 782 51 644 459 70 160 240 207 506 132 267 277 548 241 409 63 37 177 185 74 600 47 401
internal_value=-9.18178e-07 0.0188704 -0.0353447 0.00777028 0.0335241 -0.0517961 -0.0209295 -0.0591187 0.00119175 0.0282241 0.0450628 -0.0277786 -0.0645042 0.0148809 -0.0415302 -0.00424082 -0.0468988 -0.0369343 -0.0315886 -0.0356292 -0.0523011 0.00444032 -0.0617111 -0.0126187
internal_weight=6688 4360 2328 2481 1879 1087 1241 634 1289 1288 591 680 394 1192 453 482 212 75 413 236 137 807 324 561
internal_count=6688 4360 2328 2481 1879 1087 1241 634 1289 1288 591 680 394 1192 453 482 212 75 413 236 137 807 324 561
is_linear=0
shrinkage=0.03


Tree=6
num_leaves=25
num_cat=1
split_feature=41 121 38 41 41 157 257 7 316 162 41 204 157 158 45 41 266 135 38 64 41 172 135 272
split_gain=4664.27 788.447 522.959 138.58 116.409 84.5418 62.2593 29.0467 27.2238 23.2381 22.4097 20.8842 17.2647 15.3391 12.3898 12.2843 11.114 9.58977 8.8953 8.20288 6.96633 6.77965 6.73476 5.94712
threshold=54.500000000000007 151.50000000000003 5.5000000000000009 324.50000000000006 105.50000000000001 0.12228260869565219 3.757352941176471 0 415.50000000000006 2.9640489512170078 74.500000000000014 0.73683691139411445 0.057065217391304358 0.0095890410958904132 572.50000000000011 39.500000000000007 18.500000000000004 0.24531145822423597 3.5000000000000004 1.5000000000000002 839.50000000000011 0.28568367711323417 -0.34830669426821564 0.99997014349413182
decision_type=2 2 2 2 2 2 2 9 2 2 2 2 2 2 2 2 2 2 2 2 2 2 2 2
left_child=2 4 5 9 10 7 15 11 -5 -3 -2 21 17 -13 -6 23 19 -9 -15 -8 -10 -1 -12 -4
right_child=1 3 6 8 14 -7 16 12 20 -11 22 13 -14 18 -16 -17 -18 -19 -20 -21 -22 -23 -24 -25
leaf_value=-0.069364964767525211 -0.0052511905064816008 0.022790927604458364 -0.0092230637738630727 0.038413155469823192 0.010575797043891376 -0.03773919096915257 -0.024169588383397642 -0.073020397507601212 0.049067950221699221 0.030989036681326361 -0.0099697964617714834 -0.022282339693090621 -0.056235764225842734 -0.050366868261788829 0.017006612716532001 -0.011886243973590727 -0.026534057253694128 -0.054587046748589614 -0.031381763248581593 -0.040906129761992725 0.065336870537247765 -0.053317581965147652 0.0036680365954128904 -0.021679117386632633
leaf_weight=33 496 836 41 482 774 338 37 125 183 504 34 32 268 97 419 384 320 36 31 108 30 127 691 262
leaf_count=33 496 836 41 482 774 338 37 125 183 504 34 32 268 97 419 384 320 36 31 108 30 127 691 262
internal_value=-1.21437e-06 0.0177713 -0.0353165 0.0315262 0.00617377 -0.0502441 -0.0212255 -0.0558774 0.0424054 0.0258787 -0.000335849 -0.0489425 -0.0610307 -0.0411484 0.0128381 -0.0154747 -0.0297102 -0.0689537 -0.0458204 -0.0366757 0.051403 -0.0566874 0.00302305 -0.0200071
internal_weight=6688 4449 2239 2035 2414 1087 1152 749 695 1340 1221 320 429 160 1193 687 465 161 128 145 213 160 725 303
internal_count=6688 4449 2239 2035 2414 1087 1152 749 695 1340 1221 320 429 160 1193 687 465 161 128 145 213 160 725 303
cat_boundaries=0 1
cat_threshold=2
is_linear=0
shrinkage=0.03


Tree=7
num_leaves=25
num_cat=0
split_feature=38 121 38 121 163 254 45 163 243 41 157 121 163 144 157 36 50 295 26 307 316 44 38 44
split_gain=4393.18 725.105 520.418 122.1 114.737 80.3089 76.4464 27.1588 22.8528 19.3681 18.7348 17.8282 17.6907 12.4782 13.102 12.0507 11.0472 10.7943 10.008 9.10804 6.97698 6.84661 6.62838 6.26943
threshold=18.500000000000004 162.50000000000003 5.5000000000000009 92.500000000000014 3.7417135706678164 9.6576576576576603 133.50000000000003 1.4999869319322479 6.0163043478260878 243.50000000000003 0.13858695652173916 1.5000000000000002 2.1272989240974582 35.750000000000007 0.203804347826087 10.500000000000002 139.50000000000003 2.5000000000000004 37.019999999999371 44.896250000000002 5.5000000000000009 15.500000000000002 31.500000000000004 101.50000000000001
decision_type=2 2 2 2 2 2 2 2 2 2 2 2 2 2 2 2 2 2 2 2 2 2 2 2
left_child=2 3 5 7 9 10 13 23 -6 -3 17 -7 -5 -4 -15 21 -8 18 -1 20 -19 -13 -9 -2
right_child=1 4 6 12 8 11 16 22 -10 -11 -12 15 -14 14 -16 -17 -18 19 -20 -21 -22 -23 -24 -25
leaf_value=-0.025776904965344433 -0.012998915695499222 0.022642320372972417 -0.014174691384316786 0.010550823597583229 0.038724954733484536 -0.072594927890467745 -0.017140829583006372 0.00096572729675792758 0.052219359709531919 0.030237297288838425 -0.035504165800286237 -0.059592412605340379 0.017693763564210933 -0.035188165865940479 -0.025377768757922754 -0.03738144054869625 -0.0090072722119769241 -0.068663375087987602 -0.045455423346652042 -0.044395719016271602 -0.051065434422570208 -0.04996864961339282 0.0065861603250441129 -0.0042994806785215884
leaf_weight=40 107 648 55 852 497 67 275 529 150 580 269 280 497 210 310 32 338 32 61 138 74 100 295 252
leaf_count=40 107 648 55 852 497 67 275 529 150 580 269 280 497 210 310 32 338 32 61 138 74 100 295 252
internal_value=-1.44719e-06 0.0174906 -0.0337975 0.00701686 0.0316316 -0.0487385 -0.0200459 -1.56713e-05 0.0418657 0.0262341 -0.0415229 -0.0579707 0.0131858 -0.0279077 -0.0293514 -0.0555682 -0.0126632 -0.0461955 -0.0377248 -0.0496726 -0.056466 -0.0570815 0.00298209 -0.0069036
internal_weight=6688 4407 2281 2532 1875 1093 1188 1183 647 1228 614 479 1349 575 520 412 613 345 101 244 106 380 824 359
internal_count=6688 4407 2281 2532 1875 1093 1188 1183 647 1228 614 479 1349 575 520 412 613 345 101 244 106 380 824 359
is_linear=0
shrinkage=0.03


Tree=8
num_leaves=25
num_cat=1
split_feature=38 162 38 44 162 157 45 7 163 247 272 242 242 157 294 45 229 157 224 180 229 84 29 44
split_gain=4133.8 683.144 489.709 114.593 110.539 74.6466 71.9287 26.1326 22.865 21.7248 19.7333 18.1218 16.2244 13.8856 11.8087 14.5785 11.1317 9.84354 9.06227 10.9224 8.57661 6.84427 6.72972 6.05416
threshold=18.500000000000004 2.369479853275815 5.5000000000000009 204.50000000000003 3.7740146831916541 0.11141304347826088 133.50000000000003 0 1.4999869319322479 54.500000000000007 0.9996625114961456 243.50000000000003 140.50000000000003 0.057065217391304358 13.500000000000002 80.500000000000014 0.31768164000294458 0.38858695652173919 0.74131242907742079 0.0053584485526423373 0.63793710164924178 2.5000000000000004 20.500000000000004 101.50000000000001
decision_type=2 2 2 2 2 2 2 9 2 2 2 2 2 2 2 2 2 2 2 2 2 2 2 2
left_child=2 3 5 8 11 7 14 10 23 -6 -1 -3 -5 16 21 -16 -9 -8 19 -12 -10 -4 -23 -2
right_child=1 4 6 12 9 -7 17 13 20 -11 18 -13 -14 -15 15 -17 -18 -19 -20 -21 -22 22 -24 -25
leaf_value=-0.026898317023041057 -0.012609312315797563 0.021939665910863007 -0.0289013406509885 0.0094645987787452014 0.036674236721099034 -0.036665041482417275 -0.015908175340541501 -0.069430646599053764 0.0017715944021694924 0.048478035504188069 -0.054817267638489493 0.029220118249834788 0.016039661210283149 -0.053478102393355632 -0.038437422480984827 -0.026067901296554095 -0.049767367581209976 -0.0082584407727327811 -0.05424955171118799 -0.034420149028998648 0.015869746469776996 -0.0027678308534463771 -0.020161445464808993 -0.004075984424538691
leaf_weight=42 107 678 46 735 437 388 322 125 732 213 40 577 632 249 121 315 36 291 149 64 41 30 63 255
leaf_count=42 107 678 46 735 437 388 322 125 732 213 40 577 632 249 121 315 36 291 149 64 41 30 63 255
internal_value=-1.704e-06 0.0169661 -0.0327849 0.00665764 0.0305024 -0.0472784 -0.0194451 -0.0531092 -0.000385878 0.0405537 -0.0462031 0.0252914 0.0125076 -0.0580585 -0.0270711 -0.0295156 -0.0650861 -0.0122836 -0.0493841 -0.0423391 0.0025252 -0.0193663 -0.0145918 -0.00660934
internal_weight=6688 4407 2281 2502 1905 1093 1188 705 1135 650 295 1255 1367 410 575 436 161 613 253 104 773 139 93 362
internal_count=6688 4407 2281 2502 1905 1093 1188 705 1135 650 295 1255 1367 410 575 436 161 613 253 104 773 139 93 362
cat_boundaries=0 1
cat_threshold=2
is_linear=0
shrinkage=0.03


Tree=9
num_leaves=25
num_cat=1
split_feature=41 100 38 41 100 48 41 7 45 38 136 100 100 49 45 34 68 152 38 62 66 47 82 45
split_gain=3890.06 619.328 480.418 101.857 101.236 91.6165 44.057 29.0589 20.5611 19.4826 19.108 18.7818 14.2609 13.2689 10.8024 10.5957 9.29164 8.90991 8.84169 8.79082 8.29838 5.95669 5.79201 5.26231
threshold=58.500000000000007 137.50000000000003 6.5000000000000009 112.50000000000001 292.50000000000006 10.500000000000002 38.500000000000007 0 330.50000000000006 83.500000000000014 -0.010531490767824446 553.50000000000011 10.500000000000002 10.500000000000002 578.50000000000011 10.500000000000002 579.00000000000011 1.128772398313735 39.500000000000007 6.5000000000000009 44.500000000000007 11.500000000000002 119.50000000000001 119.50000000000001
decision_type=2 2 2 2 2 2 2 9 2 2 10 2 2 2 2 2 2 2 2 2 2 2 2 2
left_child=2 3 5 8 9 7 12 10 18 -3 16 22 -4 20 -5 -14 -1 -12 21 -7 -9 -2 -6 -17
right_child=1 4 6 14 11 19 -8 13 -10 -11 17 -13 15 -15 -16 23 -18 -19 -20 -21 -22 -23 -24 -25
leaf_value=-0.055673212386689201 -0.013415066781892766 0.021528596467994574 -0.028665509379612042 0.010555740221272713 0.035338365670600322 -0.037449179564139685 -0.010599414364231577 -0.059651610235123116 0.0046120350074230956 0.028938141055423278 -0.023893273663360793 0.05369156207462128 -0.0018589815455318682 -0.051867695489810989 0.016307916362776526 -0.024438758856983205 -0.043354984831556642 -0.042757757726944373 0.010802931393046512 -0.02883237295202884 -0.07800452228400398 -0.0029252887085655134 0.04224774283881113 -0.017112055688875315
leaf_weight=104 54 680 223 647 312 260 504 131 682 616 51 81 30 258 548 170 134 43 39 193 30 514 187 197
leaf_count=104 54 680 223 647 312 260 504 131 682 616 51 81 30 258 548 170 134 43 39 193 30 514 187 197
internal_value=-1.9208e-06 0.0167161 -0.031313 0.00688805 0.0297268 -0.0444819 -0.0172015 -0.0509208 0.00103609 0.0250547 -0.0442105 0.0401552 -0.022561 -0.0562188 0.0131972 -0.019118 -0.0487715 -0.0325909 -0.00297686 -0.0337918 -0.0631363 -0.00393002 0.0379416 -0.0205198
internal_weight=6688 4360 2328 2484 1876 1204 1124 751 1289 1296 332 580 620 419 1195 397 238 94 607 453 161 568 499 367
internal_count=6688 4360 2328 2484 1876 1204 1124 751 1289 1296 332 580 620 419 1195 397 238 94 607 453 161 568 499 367
cat_boundaries=0 1
cat_threshold=2
is_linear=0
shrinkage=0.03


Tree=10
num_leaves=25
num_cat=0
split_feature=53 100 53 53 163 254 45 41 163 44 53 53 260 266 158 317 44 146 44 45 163 41 204 223
split_gain=3663.51 605.241 433.41 104.528 96.0351 68.3101 63.9128 25.6743 22.694 19.5583 19.3579 15.91 10.8861 11.7594 9.58604 9.54249 11.1245 9.49318 9.59672 6.99548 6.73848 5.35955 5.29936 5.93905
threshold=18.500000000000004 137.50000000000003 5.5000000000000009 32.500000000000007 3.7417135706678164 7.2798357664233588 133.50000000000003 7.5000000000000009 2.0633931522970377 144.50000000000003 181.50000000000003 80.500000000000014 35.750000000000007 18.500000000000004 0.39041095890410965 0.89177162529908094 8.5000000000000018 0.87261292051327555 44.500000000000007 432.50000000000006 1.2909662485036908 839.50000000000011 0.90068189568108548 0.33325002314120594
decision_type=2 2 2 2 2 2 2 2 2 2 2 2 2 2 2 2 2 2 2 2 2 2 2 2
left_child=2 3 5 9 11 17 12 15 19 20 -6 -3 -4 -14 -8 16 -7 18 22 -5 -2 -12 -1 -24
right_child=1 4 6 8 10 7 14 -9 -10 -11 21 -13 13 -15 -16 -17 -18 -19 -20 -21 -22 -23 23 -25
leaf_value=-0.038514674737158187 -0.017300787035725886 0.020383123776418072 -0.012673320746465083 0.0050939276686634821 0.034994171796191555 -0.064921671176478443 -0.01546935283085025 -0.043057622118530689 0.015599853331597607 0.0024592955924031224 0.044218465090981394 0.027270727815900859 -0.035590972317890691 -0.0244644431513091 -0.0079262907704348972 -0.0419965153867949 -0.053308321147805891 -0.047668170629554668 -0.024536472694871581 0.010506927471300354 -0.0047431623624437785 0.058778760544089377 -0.020026866141448718 -0.037202757425290382
leaf_weight=249 43 589 55 378 465 121 295 240 649 577 151 637 111 409 318 44 229 54 80 508 380 30 36 40
leaf_count=249 43 589 55 378 465 121 295 240 649 577 151 637 111 409 318 44 229 54 80 508 380 30 36 40
internal_value=-2.07684e-06 0.0159714 -0.0308642 0.00641559 0.0289089 -0.0444993 -0.0183143 -0.0508975 0.0113325 -0.00112917 0.0382796 0.0239661 -0.0255031 -0.0268517 -0.0115631 -0.0556534 -0.0573492 -0.0356459 -0.0340241 0.00820176 -0.00603058 0.0466795 -0.0363421 -0.0291432
internal_weight=6688 4407 2281 2535 1872 1093 1188 634 1535 1000 646 1226 575 520 613 394 350 459 405 886 423 181 325 76
internal_count=6688 4407 2281 2535 1872 1093 1188 634 1535 1000 646 1226 575 520 613 394 350 459 405 886 423 181 325 76
is_linear=0
shrinkage=0.03


Tree=11
num_leaves=25
num_cat=0
split_feature=242 242 38 242 38 100 254 38 44 163 163 38 44 49 274 229 49 246 50 50 250 175 251 160
split_gain=3447.24 633.692 330.777 115.792 94.5428 51.895 45.2445 24.3398 17.5945 17.0888 16.1196 14.5846 14.0188 11.0154 10.5867 10.5108 8.64963 7.28903 6.89966 6.65798 6.54431 8.22831 5.34164 5.30868
threshold=50.500000000000007 161.50000000000003 4.5000000000000009 309.50000000000006 30.500000000000004 10.500000000000002 9.0584415584415598 157.50000000000003 141.50000000000003 2.7405536724086272 1.8779003952262754 12.500000000000002 8.5000000000000018 37.500000000000007 0.99997947006028021 0.40546510810816427 23.500000000000004 12.500000000000002 109.50000000000001 56.500000000000007 1281.8323216911767 0.30767455735085436 19798.390000000003 2.2599734284518589
decision_type=2 2 2 2 2 2 2 2 2 2 2 2 2 2 2 2 2 2 2 2 2 2 2 2
left_child=2 4 6 9 8 13 14 -5 22 -3 -6 18 15 20 -1 -8 -16 -9 -7 -13 -4 -22 -2 -11
right_child=1 3 5 7 10 11 12 17 -10 23 -12 19 -14 -15 16 -17 -18 -19 -20 -21 21 -23 -24 -25
leaf_value=-0.025138433516278105 -0.013812212967381068 0.018181023310651665 -0.038177788520602593 0.031744700521945807 0.0054900953655478667 -0.023142877036074816 -0.06410362738270721 0.040826585927866914 0.00098691334154770468 0.012549810551370454 0.012058259676774073 0.0016929065928704711 -0.048033675246800606 -0.022413228483190439 -0.043702506900228137 -0.043560797952570708 -0.034413204951683325 0.055118685547550422 -0.015203360285732548 -0.013028413001697513 -0.032188066569637283 -0.014938398932463655 -0.0054400300104275367 0.025540346368423505
leaf_weight=53 83 756 125 500 595 263 107 236 535 31 781 30 356 136 219 31 167 40 164 304 130 32 415 599
leaf_count=53 83 756 125 500 595 263 107 236 535 31 781 30 356 136 219 31 167 40 164 304 130 32 415 599
internal_value=-2.21649e-06 0.0146549 -0.0316504 0.0264456 0.00407123 -0.021116 -0.0450118 0.0357311 -0.00278565 0.0212425 0.00922089 -0.0164206 -0.051267 -0.0295502 -0.0379561 -0.0595455 -0.0397013 0.042928 -0.0201048 -0.011697 -0.0329127 -0.0288105 -0.00684391 0.024908
internal_weight=6688 4571 2117 2162 2409 1184 933 776 1033 1386 1376 761 494 423 439 138 386 276 427 334 287 162 498 630
internal_count=6688 4571 2117 2162 2409 1184 933 776 1033 1386 1376 761 494 423 439 138 386 276 427 334 287 162 498 630
is_linear=0
shrinkage=0.03


Tree=12
num_leaves=25
num_cat=1
split_feature=53 162 53 121 162 48 45 7 274 162 100 41 159 66 34 45 320 224 257 62 53 54 34 53
split_gain=3246.55 538.36 384.82 90.3533 87.2994 76.3996 42.8396 25.8599 20.9196 16.3299 16.2899 15.8399 15.4694 11.1757 9.74926 10.7905 8.17113 8.36638 7.56345 7.53708 5.38182 5.29842 5.22458 4.95926
threshold=18.500000000000004 2.369479853275815 6.5000000000000009 88.500000000000014 3.8876881387878903 10.500000000000002 150.50000000000003 0 0.99937898259555857 2.9640489512170078 553.50000000000011 140.50000000000003 1.4611093464779181 44.500000000000007 5.5000000000000009 102.50000000000001 -0.83333333333333315 0.74131242907742079 12.585714285714287 6.5000000000000009 31.500000000000004 12.500000000000002 200.50000000000003 151.50000000000003
decision_type=2 2 2 2 2 2 2 9 2 2 2 2 2 2 2 2 2 2 2 2 2 2 2 2
left_child=2 3 5 12 9 7 14 8 -1 -3 23 22 -2 18 -4 -16 -10 -18 -9 -7 -14 -8 -5 -6
right_child=1 4 6 11 10 19 21 13 16 -11 -12 -13 20 -15 15 -17 17 -19 -20 -21 -22 -23 -24 -25
leaf_value=-0.016099570150985273 -0.0065883671237487521 0.019538829165508566 -0.006286557057144899 0.0046024083063319369 0.031875223232872098 -0.034346660066187855 -0.014774298393276609 -0.044491387925267134 -0.050310335853489777 0.026310002895333626 0.049175189876086031 0.014364437605260981 -2.1857365215375362e-05 -0.069021298779505441 -0.027144488491526082 -0.018546296828756151 -0.032249540671681939 -0.044597541691374122 -0.053472959417966141 -0.026416900778518899 0.0055869651902339069 -0.0076442232999225984 0.0097427702823049273 0.038004279313935851
leaf_weight=30 293 699 36 273 294 263 128 147 91 606 81 632 565 32 250 288 92 119 240 196 211 369 528 225
leaf_count=30 293 699 36 273 294 263 128 147 91 606 81 632 565 32 250 288 92 119 240 196 211 369 528 225
internal_value=-2.30839e-06 0.0150347 -0.0290552 0.00588339 0.0270513 -0.0406493 -0.0159509 -0.046554 -0.0402247 0.0226872 0.0365329 0.0108072 -0.000714614 -0.0515512 -0.021538 -0.0225516 -0.0426052 -0.0392456 -0.0500815 -0.0309736 0.00149988 -0.00948918 0.00799535 0.0345449
internal_weight=6688 4407 2281 2502 1905 1210 1071 751 332 1305 600 1433 1069 419 574 538 302 211 387 459 776 497 801 519
internal_count=6688 4407 2281 2502 1905 1210 1071 751 332 1305 600 1433 1069 419 574 538 302 211 387 459 776 497 801 519
cat_boundaries=0 1
cat_threshold=2
is_linear=0
shrinkage=0.03


Tree=13
num_leaves=25
num_cat=0
split_feature=38 121 38 163 162 157 45 256 41 163 100 162 256 163 44 100 44 38 48 163 100 310 135 50
split_gain=3054.91 483.538 391.59 80.588 78.041 72.2266 45.2656 21.4551 17.6028 16.8372 15.7185 14.7577 13.9293 11.5719 9.48958 9.10382 6.19723 5.83788 5.62905 4.95883 4.58088 4.55736 4.38925 4.39033
threshold=19.500000000000004 162.50000000000003 6.5000000000000009 3.8051964797120017 1.7781884930778997 0.12228260869565219 157.50000000000003 403.50000000000006 7.5000000000000009 1.4999869319322479 553.50000000000011 2.9640489512170078 20.500000000000004 2.1272989240974582 8.5000000000000018 10.500000000000002 44.500000000000007 151.50000000000003 36.500000000000007 1.2569395748410959 28.500000000000004 0.060000000000000032 0.37575922541255152 218.50000000000003
decision_type=2 2 2 2 2 2 2 2 2 2 2 2 2 2 2 2 2 2 2 2 2 2 2 2
left_child=2 4 5 11 9 7 15 8 12 20 17 -3 -1 -6 -14 19 -7 -5 -8 -4 -2 -18 23 -11
right_child=1 3 6 10 13 16 18 -9 -10 22 -12 -13 14 -15 -16 -17 21 -19 -20 -21 -22 -23 -24 -25
leaf_value=-0.029949711156811356 -0.014011333726285794 0.019026948288586035 -0.027626804245080527 0.030717363600167781 0.0087967422253018256 -0.032260533029675 -0.011879099502065471 -0.023090293503478358 -0.039946491888447754 0.00017448754362829185 0.047701752429825751 0.025607693232340623 -0.057586392067158612 0.014514253681891357 -0.047869559076261614 -0.017839500579795831 -0.018095669786319282 0.03725935698416407 -0.0056869857517667611 -0.014505709019776816 -0.0039913845575585503 -0.029157479565341822 0.01369205441864932 0.0047432764496976336
leaf_weight=31 49 685 178 322 816 299 250 39 267 435 81 569 146 529 284 394 61 218 287 32 265 83 31 337
leaf_count=31 49 685 178 322 816 299 250 39 267 435 81 569 146 529 284 394 61 218 287 32 265 83 31 337
internal_value=-2.43322e-06 0.0149251 -0.0275407 0.0264037 0.00618137 -0.0394313 -0.0149261 -0.0450125 -0.0461795 0.000317454 0.0352519 0.0220171 -0.0497735 0.0110486 -0.0511884 -0.0205637 -0.0297535 0.0333704 -0.00857698 -0.0256495 -0.00556852 -0.0245082 0.00262321 0.00217314
internal_weight=6688 4337 2351 1875 2462 1210 1141 767 728 1117 621 1254 461 1345 430 604 443 540 537 210 314 144 803 772
internal_count=6688 4337 2351 1875 2462 1210 1141 767 728 1117 621 1254 461 1345 430 604 443 540 537 210 314 144 803 772
is_linear=0
shrinkage=0.03


Tree=14
num_leaves=25
num_cat=0
split_feature=53 162 53 121 142 48 45 272 247 45 163 41 53 29 49 62 42 142 26 162 54 163 142 246
split_gain=2874.81 477.483 340.623 80.4099 77.6438 68.1845 37.9721 21.8663 18.3721 16.0951 15.6121 13.4475 10.183 8.35303 10.1286 6.85828 6.79631 5.07059 4.96289 4.88987 4.82491 4.77697 4.73958 4.655
threshold=18.500000000000004 2.369479853275815 6.5000000000000009 89.500000000000014 102.75000000000001 10.500000000000002 150.50000000000003 0.9996625114961456 54.500000000000007 27.500000000000004 1.4453981419559778 140.50000000000003 66.500000000000014 20.500000000000004 42.500000000000007 6.5000000000000009 4673.4350000000004 1.4166666666666667 37.019999999999371 2.9640489512170078 12.500000000000002 1.5835250258603246 15.750000000000002 12.500000000000002
decision_type=2 2 2 2 2 2 2 2 2 2 2 2 2 2 2 2 2 2 2 2 2 2 2 2
left_child=2 3 5 10 12 7 13 18 -6 16 22 -5 -3 -4 -15 -7 17 -9 -1 -14 -8 -12 -2 -10
right_child=1 4 6 11 8 15 20 9 23 -11 21 -13 19 14 -16 -17 -18 -19 -20 -21 -22 -23 -24 -25
leaf_value=-0.022326830979555276 -0.013689475931361545 0.015888888939105141 -0.0070922139471899844 0.0076165772651256777 0.030019966558119497 -0.032326112076039588 -0.013972229656591069 -0.056053955198946438 0.038312819971607244 -0.040515250606801827 -0.0015826276269864392 0.013533455063935896 0.019990986853566463 -0.025987662210621321 -0.017577338075146654 -0.024760114654892945 -0.035968347851103137 -0.048006983461397021 -0.037913012400134442 0.024624346472153325 -0.0071670586622588324 0.0030814589964615617 -0.0044987688188934151 0.050311698102585192
leaf_weight=47 72 308 41 773 530 263 128 133 174 311 311 632 428 234 299 196 31 196 33 426 369 539 175 39
leaf_count=47 72 308 41 773 530 263 128 133 174 311 311 632 428 234 299 196 31 196 33 426 369 539 175 39
internal_value=-2.4909e-06 0.0141474 -0.0273415 0.00552895 0.0254643 -0.0382496 -0.0150124 -0.0438282 0.0330467 -0.045607 -0.000554996 0.010281 0.0206109 -0.0202727 -0.0212795 -0.0291079 -0.0499849 -0.0512852 -0.0288329 0.0223084 -0.00892819 0.00137144 -0.00719444 0.0405465
internal_weight=6688 4407 2281 2502 1905 1210 1071 751 743 671 1097 1405 1162 574 533 459 360 329 80 854 497 850 247 213
internal_count=6688 4407 2281 2502 1905 1210 1071 751 743 671 1097 1405 1162 574 533 459 360 329 80 854 497 850 247 213
is_linear=0
shrinkage=0.03


Tree=15
num_leaves=25
num_cat=1
split_feature=242 162 38 160 49 45 163 7 242 136 49 38 146 38 229 242 257 38 238 152 44 50 229 229
split_gain=2706.06 409.49 363.742 74.5118 65.5841 61.3044 39.5756 21.1769 18.6643 16.4963 11.5813 10.4545 9.79529 9.16527 8.83665 8.69937 8.50384 8.07019 7.84632 7.71503 6.54018 5.93933 5.73852 5.35774
threshold=62.500000000000007 2.369479853275815 6.5000000000000009 3.6379696358608937 22.500000000000004 432.50000000000006 1.2694336104195934 0 491.50000000000006 -1.5559103846509899 10.500000000000002 24.500000000000004 0.66161275888225124 66.500000000000014 0.31768164000294458 145.50000000000003 2.6819852941176472 10.500000000000002 6258.2105370967756 1.0640197232907 44.500000000000007 157.50000000000003 0.50063794414016594 0.14035735769492266
decision_type=2 2 2 2 2 2 2 9 2 10 2 2 2 2 2 2 2 2 2 2 2 2 2 2
left_child=2 5 4 13 7 11 17 9 -5 12 14 21 23 -3 -9 -7 22 -4 19 -11 -6 -2 -8 -1
right_child=1 3 6 8 20 15 16 10 -10 18 -12 -13 -14 -15 -16 -17 -18 -19 -20 -21 -22 -23 -24 -25
leaf_value=-0.039118099901969905 -0.013116164252072749 0.01545962512214474 -0.023186711068747826 0.02890276037334626 -0.030354158636710322 0.0084171059566036811 -0.0069559273854572579 -0.057164423477163703 0.039357534793908189 -0.0097549172210540033 -0.042912789554291016 0.0027630153804762314 -0.048079154999921367 0.021484628802916003 -0.039688187614908832 0.013532876020550198 -0.012634688948089716 -0.01562665797889019 -0.039637532163279615 -0.029419661013620122 -0.022357819641548891 -0.0018615797147938861 0.0066701480743793949 -0.024355626013652185
leaf_weight=90 50 322 298 546 299 709 339 125 219 31 272 808 105 824 36 526 305 230 31 45 141 275 30 32
leaf_count=90 50 322 298 546 299 709 339 125 219 31 272 808 105 824 36 526 305 230 31 45 141 275 30 32
internal_value=-2.5804e-06 0.0143151 -0.0254353 0.024646 -0.0370695 0.005976 -0.013748 -0.0423765 0.0319044 -0.036628 -0.0467942 0.000933327 -0.0412394 0.0197959 -0.0533024 0.0105993 -0.00891979 -0.0199028 -0.0267874 -0.0214613 -0.0278042 -0.00360578 -0.00583848 -0.0352937
internal_weight=6688 4279 2409 1911 1207 2368 1202 767 765 334 433 1133 227 1146 161 1235 674 528 107 76 440 325 369 122
internal_count=6688 4279 2409 1911 1207 2368 1202 767 765 334 433 1133 227 1146 161 1235 674 528 107 76 440 325 369 122
cat_boundaries=0 1
cat_threshold=2
is_linear=0
shrinkage=0.03


Tree=16
num_leaves=25
num_cat=0
split_feature=38 100 38 162 38 254 50 41 231 100 160 142 146 142 121 34 157 50 317 34 258 204 160 290
split_gain=2547.37 404.142 325.764 67.2489 66.0228 61.079 37.5392 19.686 14.8329 13.0899 12.7099 12.031 11.151 10.5353 9.78086 9.21938 8.33175 6.16593 5.95638 5.08137 4.56732 4.40247 4.35518 4.11465
threshold=19.500000000000004 137.50000000000003 6.5000000000000009 3.8876881387878903 32.500000000000007 7.2798357664233588 115.50000000000001 7.5000000000000009 1.9406496943491878 553.50000000000011 3.135525863032822 24.083333333333336 0.87261292051327555 7.416666666666667 1.5000000000000002 5.5000000000000009 0.23097826086956522 139.50000000000003 0.89177162529908094 377.50000000000006 8.7500000000000018 0.90068189568108548 1.3845355080788446 2.5750000000000006
decision_type=2 2 2 2 2 2 2 2 2 2 2 2 2 2 2 2 2 2 2 2 2 2 2 2
left_child=2 4 5 10 11 12 15 14 -6 -5 19 -2 13 20 23 -4 22 -8 -16 -3 21 -1 -17 -7
right_child=1 3 6 9 8 7 17 -9 -10 -11 -12 -13 -14 -15 18 16 -18 -19 -20 -21 -22 -23 -24 -25
leaf_value=-0.030476724919708448 -0.0049154914722518784 0.015150759635799546 -0.0048793556957732976 0.030649755275061381 0.0060109573168330302 -0.063847309171086386 -0.01264844135144611 -0.035663386416168535 0.011994878774094251 0.043775191136558901 0.024058250087385814 0.0020736760445268332 -0.041321800048503124 -0.019571700823867784 -0.045869195441095079 -0.026260121869540465 -0.016714373112699014 -0.0061320037907446143 -0.033390762270741559 0.02006894730126766 -0.040388564543846324 -0.021964806312853507 -0.015028761119755634 -0.047967835957980993
leaf_weight=271 364 356 38 518 649 39 200 253 886 81 487 566 58 124 282 200 276 388 43 430 35 74 39 31
leaf_count=271 364 356 38 518 649 39 200 253 886 81 487 566 58 124 282 200 276 388 43 430 35 74 39 31
internal_value=-2.754e-06 0.0136285 -0.0251497 0.0241373 0.00564584 -0.035995 -0.0136437 -0.0422859 0.00946738 0.0324367 0.0202275 -0.000658878 -0.02873 -0.027267 -0.0465099 -0.0192588 -0.0203128 -0.00835535 -0.0442382 0.0178474 -0.0297645 -0.0286666 -0.024447 -0.0569362
internal_weight=6688 4337 2351 1872 2465 1210 1141 648 1535 599 1273 930 562 504 395 553 515 588 325 786 380 345 239 70
internal_count=6688 4337 2351 1872 2465 1210 1141 648 1535 599 1273 930 562 504 395 553 515 588 325 786 380 345 239 70
is_linear=0
shrinkage=0.03


Tree=17
num_leaves=25
num_cat=0
split_feature=41 121 38 38 38 121 254 86 142 121 163 163 213 36 257 163 100 15 204 146 144 51 135 41
split_gain=2397.63 442.357 231.42 84.5891 64.7512 38.2149 32.0748 19.9081 12.7865 12.5889 11.9948 11.2529 10.8128 10.3607 7.33453 7.00943 6.62437 6.29296 6.17813 5.77709 4.75092 6.35531 4.54191 3.86377
threshold=50.500000000000007 142.50000000000003 4.5000000000000009 102.50000000000001 30.500000000000004 22.500000000000004 9.0584415584415598 184.50000000000003 24.083333333333336 1.5000000000000002 2.5826562003269578 1.8779003952262754 0.21239813168322541 10.500000000000002 8.5357142857142865 1.2909662485036908 573.50000000000011 15.500000000000002 0.92962186206342057 0.74927683771253484 21.250000000000004 19.500000000000004 -0.38922751883319112 7.5000000000000009
decision_type=2 2 2 2 2 2 2 2 2 2 2 2 2 2 2 2 2 2 2 2 2 2 2 2
left_child=2 4 6 10 8 12 14 -5 22 -8 -3 -6 20 23 17 -7 -9 -1 19 -19 -4 -22 -2 -11
right_child=1 3 5 7 11 15 9 16 -10 13 -12 -13 -14 -15 -16 -17 -18 18 -20 -21 21 -23 -24 -25
leaf_value=-0.041294201701600967 -0.016613315187359801 0.014141122286740962 -0.011953450800151987 0.025472823772956361 0.0044869249372022054 -0.015617173944878306 -0.055035207138975292 0.032860513512558309 0.0010278192114170112 -0.044294550851751172 0.019895709984560091 0.010016679061431215 -0.032536330517939631 -0.024388280538420029 -0.036743434003300601 -0.0091460036216315741 0.043875691433527202 -0.026123700801290877 -0.017122012075727194 -0.038243485352883251 -0.026630147280596293 -0.019146057910831533 -0.0049138645826207108 -0.037416240568891812
leaf_weight=32 32 612 46 499 588 302 68 291 511 275 716 767 94 33 164 309 63 144 49 50 181 252 492 118
leaf_count=32 32 612 46 499 588 302 68 291 511 275 716 767 94 33 164 309 63 144 49 50 181 252 492 118
internal_value=-2.91955e-06 0.0122208 -0.0263969 0.0219902 0.00330383 -0.0175848 -0.0375734 0.0293679 -0.00234381 -0.0428424 0.0172473 0.00761977 -0.0231568 -0.0408767 -0.0316289 -0.0123515 0.0348412 -0.0285556 -0.0268495 -0.0292809 -0.0213035 -0.0222869 -0.00563709 -0.042247
internal_weight=6688 4571 2117 2181 2390 1184 933 853 1035 494 1328 1355 573 426 439 611 354 275 243 194 479 433 524 393
internal_count=6688 4571 2117 2181 2390 1184 933 853 1035 494 1328 1355 573 426 439 611 354 275 243 194 479 433 524 393
is_linear=0
shrinkage=0.03


Tree=18
num_leaves=25
num_cat=0
split_feature=38 162 38 121 44 254 45 41 316 159 41 295 45 66 121 38 258 169 50 317 99 84 140 41
split_gain=2257.7 375.228 267.168 63.9786 61.7955 43.7116 40.3621 16.6076 14.8508 11.3352 11.2233 9.03518 9.99385 9.33778 8.49015 8.0274 7.49553 6.58423 6.27394 5.63442 5.22017 7.30256 5.13052 4.43745
threshold=18.500000000000004 2.369479853275815 5.5000000000000009 88.500000000000014 616.50000000000011 7.2798357664233588 133.50000000000003 7.5000000000000009 415.50000000000006 1.4611093464779181 137.50000000000003 12.500000000000002 74.500000000000014 1.5000000000000002 1.5000000000000002 66.500000000000014 8.7500000000000018 0.13698489399242172 142.50000000000003 0.89177162529908094 1.0000000180025095e-35 1.0000000180025095e-35 1.01955863933143 839.50000000000011
decision_type=2 2 2 2 2 2 2 2 2 2 2 2 2 2 2 2 2 2 2 2 2 2 2 2
left_child=2 3 5 9 15 16 11 14 -6 -2 -5 13 -13 17 -7 -3 20 -4 -8 -16 21 -1 -23 -10
right_child=1 4 6 10 8 7 18 -9 23 -11 -12 12 -14 -15 19 -17 -18 -19 -20 -21 -22 22 -24 -25
leaf_value=-0.037592972580761837 -0.0056837027676655176 0.014042017551532565 0.0051921179811423796 0.006481306736020387 0.02661972738245498 -0.05361136104430627 -0.012171289477565506 -0.033742871390270074 0.034231950340445787 0.0012396230899558193 0.011811755826458058 -0.031575354333928031 -0.01999965640150124 -0.020040850928104943 -0.043348666030392759 0.019746226411624237 -0.03862830144200622 -0.014015457625896873 -0.0060646374215931401 -0.031221731480064078 -0.014721234139628999 -0.02428787102984754 -0.037061137502557191 0.047194830666348775
leaf_weight=56 293 308 30 746 531 70 295 240 182 776 687 86 335 90 281 854 53 34 318 43 33 284 33 30
leaf_count=56 293 308 30 746 531 70 295 240 182 776 687 86 335 90 281 854 53 34 318 43 33 284 33 30
internal_value=-3.07656e-06 0.0125364 -0.0242308 0.00489618 0.0225687 -0.0349365 -0.0143765 -0.0400564 0.0293338 -0.000655525 0.00903954 -0.0200902 -0.0223783 -0.0138048 -0.0438851 0.0182382 -0.0278508 -0.00497105 -0.0090098 -0.0417586 -0.0264273 -0.0274507 -0.0256383 0.0361019
internal_weight=6688 4407 2281 2502 1905 1093 1188 634 743 1069 1433 575 421 154 394 1162 459 64 613 324 406 373 317 212
internal_count=6688 4407 2281 2502 1905 1093 1188 634 743 1069 1433 575 421 154 394 1162 459 64 613 324 406 373 317 212
is_linear=0
shrinkage=0.03


Tree=19
num_leaves=25
num_cat=0
split_feature=41 163 53 44 160 157 163 41 136 254 295 133 41 53 158 158 257 144 158 53 175 44 157 159
split_gain=2125.12 341.883 260.843 58.173 57.2874 52.7688 26.4573 14.8739 14.3022 10.7652 9.41669 9.60577 9.09499 8.2654 8.16821 7.77691 7.66876 7.08469 7.03368 6.66506 6.18082 5.56161 5.10966 4.37381
threshold=58.500000000000007 2.3942860770818983 6.5000000000000009 204.50000000000003 3.6379696358608937 0.12228260869565219 1.2694336104195934 491.50000000000006 0.76134301224787937 10.384659090909091 1.5000000000000002 3.5000000000000004 145.50000000000003 24.500000000000004 0.43150684931506855 0.053424657534246585 4.7434210526315796 73.500000000000014 0.92739726027397273 10.500000000000002 0.28314424171194202 44.500000000000007 0.36141304347826092 1.1516127654360797
decision_type=2 2 2 2 2 2 2 2 10 2 2 2 2 2 2 2 2 2 2 2 2 2 2 2
left_child=2 3 5 13 18 8 19 -6 9 10 16 -12 -5 14 -2 -11 -1 -8 -3 23 -10 -7 -19 -4
right_child=1 4 6 12 7 21 17 -9 20 15 11 -13 -14 -15 -16 -17 -18 22 -20 -21 -22 -23 -24 -25
leaf_value=-0.013276972479375612 -0.013138690150059792 0.016270988125028345 -0.026125850969111242 0.0069336671160177771 0.025649453001444313 -0.026832196887063162 0.0037166798995468685 0.034993067514210843 -0.033026573442720454 -0.047274513800533796 -0.051485936866970512 -0.034582656533470056 0.011822493866124792 0.0017822240850754983 -0.0017061917360615426 -0.038494013679066852 -0.034650336602684767 -0.012828985630041586 0.021827150068587192 -0.013746712699572115 -0.017113516751457662 -0.01940451048720887 -0.0069284190827988553 -0.018121355576027478
leaf_weight=31 68 840 93 803 544 299 40 219 55 174 38 183 605 673 329 216 31 223 279 228 39 138 335 205
leaf_count=31 68 840 93 803 544 299 40 219 55 174 38 183 605 673 329 216 31 223 279 228 39 138 335 205
internal_value=-3.18042e-06 0.0123533 -0.0231459 0.0050303 0.021993 -0.0328498 -0.0127466 0.0283395 -0.0376003 -0.0391447 -0.0345929 -0.0375246 0.00903716 -0.000239826 -0.00367477 -0.0424303 -0.0240506 -0.00841803 0.0176608 -0.0176594 -0.0264814 -0.0244985 -0.00929378 -0.0206374
internal_weight=6688 4360 2328 2478 1882 1204 1124 763 767 673 283 221 1408 1070 397 390 62 598 1119 526 94 437 558 298
internal_count=6688 4360 2328 2478 1882 1204 1124 763 767 673 283 221 1408 1070 397 390 62 598 1119 526 94 437 558 298
is_linear=0
shrinkage=0.03


Tree=20
num_leaves=25
num_cat=0
split_feature=38 100 38 162 38 48 254 274 136 159 44 50 162 100 257 100 170 62 272 154 317 51 232 161
split_gain=2001.22 318.33 255.812 53.3248 52.3574 48.7886 30.0409 17.5977 11.891 11.8533 11.5457 10.7056 9.82838 9.76091 6.99035 5.88353 5.38871 5.24875 4.65684 4.42884 4.0745 3.58017 3.55078 3.38969
threshold=19.500000000000004 137.50000000000003 6.5000000000000009 4.0088560411397376 32.500000000000007 10.500000000000002 3.1601506456241037 0.93639264037626291 0.34038615677832246 1.961638295728487 520.50000000000011 19.500000000000004 1.4677914487696146 553.50000000000011 3.2182539682539688 10.500000000000002 0.037857534819948586 6.5000000000000009 0.99997402226741683 0.67858512336408194 -0.5900553069249953 34.500000000000007 0.90498024649153863 0.99986608944271926
decision_type=2 2 2 2 2 2 2 2 10 2 2 2 2 2 2 2 2 2 2 2 2 2 2 2
left_child=2 4 5 10 12 7 14 -1 11 22 -3 20 -2 -5 -4 -8 -10 19 -17 -7 -9 -16 -6 -13
right_child=1 3 6 13 9 17 15 8 16 -11 -12 23 -14 -15 21 18 -18 -19 -20 -21 -22 -23 -24 -25
leaf_value=-0.013890085166159312 -0.0059551830814451347 0.015865120973919299 -0.0060211138939106797 0.027569146235883423 0.0016391042638531288 -0.032857370885485779 -0.021746041486240281 -0.037573247972990768 -0.033994968275805025 0.010770353877137985 0.021648854478484792 -0.039510681376076204 0.0011592626454002485 0.039007023342146681 -0.023011295930838265 -0.0048457917862263005 -0.020026137231871848 -0.020361620544084084 -0.016286318298545707 -0.024242076488549945 -0.047753911879065122 -0.011067018284698159 0.006684891425402642 -0.033752706209259159
leaf_weight=30 233 805 494 469 168 83 188 55 62 849 517 187 697 81 30 37 45 196 289 180 145 103 518 227
leaf_count=30 233 805 494 469 168 83 188 55 62 849 517 187 697 81 30 37 45 196 289 180 145 103 518 227
internal_value=-3.32083e-06 0.0120785 -0.0222921 0.0214053 0.00499373 -0.031903 -0.0120956 -0.0366229 -0.0375625 0.0083969 0.0181307 -0.0391892 -0.000620397 0.0292659 -0.00767769 -0.0174763 -0.0281724 -0.0241676 -0.0149989 -0.0269838 -0.0449894 -0.013799 0.00545398 -0.0363697
internal_weight=6688 4337 2351 1872 2465 1210 1141 751 721 1535 1322 614 930 550 627 514 107 459 326 263 200 133 686 414
internal_count=6688 4337 2351 1872 2465 1210 1141 751 721 1535 1322 614 930 550 627 514 107 459 326 263 200 133 686 414
is_linear=0
shrinkage=0.03


Tree=21
num_leaves=25
num_cat=1
split_feature=38 163 38 160 49 44 50 7 121 280 163 49 229 34 44 146 229 50 38 161 264 257 41 285
split_gain=1883.09 301.231 240.71 55.7056 45.9364 44.5707 28.071 17.6184 13.562 11.848 10.1902 9.04025 7.82589 7.77948 7.62151 7.24683 6.82435 6.78866 6.20912 5.13532 5.12178 4.87783 4.63528 4.35885
threshold=19.500000000000004 2.3286991813477784 6.5000000000000009 3.6379696358608937 22.500000000000004 204.50000000000003 115.50000000000001 0 416.50000000000006 1.0000000180025095e-35 1.4999869319322479 10.500000000000002 0.63793710164924178 5.5000000000000009 473.50000000000006 0.65669001489641499 0.31768164000294458 81.500000000000014 42.500000000000007 1.1248945422350924 2.2500000000000004 2.3529693486590042 839.50000000000011 32.830000000000005
decision_type=2 2 2 2 2 2 2 9 2 2 2 2 2 2 2 2 2 2 2 2 2 2 2 2
left_child=2 5 4 14 7 10 13 9 -5 20 -2 16 -12 -4 -3 19 -9 -15 -7 -11 -1 -8 -10 -17
right_child=1 3 6 8 -6 18 21 11 22 15 12 -13 -14 17 -16 23 -18 -19 -20 -21 -22 -23 -24 -25
leaf_value=-0.010693231461586548 -0.0046146233069177612 0.014280690806698111 -0.0033819490571425654 0.023684752140795125 -0.023225782456805896 0.0055397551609796267 -0.0036641275156156943 -0.048571540417431072 0.030659272891241523 -0.031818344923720661 0.0010890026909072135 -0.035996210226971879 0.014723035263227402 -0.02148522823287791 0.019129790553745453 -0.045471805547196723 -0.033203395205521513 -0.014468870983030279 0.0098358960636798758 -0.017690796786230475 -0.026355999424389213 -0.0093155845416531772 0.043571061196913355 -0.032902216657362669
leaf_weight=33 314 696 38 489 443 493 225 125 244 114 708 272 40 226 518 55 36 289 805 31 47 363 30 54
leaf_count=33 314 696 38 489 443 493 225 125 244 114 708 272 40 226 518 55 36 289 805 31 47 363 30 54
internal_value=-3.44931e-06 0.0117164 -0.0216244 0.0203548 -0.0309473 0.00447803 -0.0117333 -0.0353995 0.0267142 -0.0301601 -7.71459e-05 -0.0394263 0.00182398 -0.0165894 0.0163536 -0.0333537 -0.0451766 -0.0175573 0.00820702 -0.0288329 -0.019954 -0.00715913 0.0320993 -0.039308
internal_weight=6688 4337 2351 1977 1210 2360 1141 767 763 334 1062 433 748 553 1214 254 161 515 1298 145 80 588 274 109
internal_count=6688 4337 2351 1977 1210 2360 1141 767 763 334 1062 433 748 553 1214 254 161 515 1298 145 80 588 274 109
cat_boundaries=0 1
cat_threshold=2
is_linear=0
shrinkage=0.03


Tree=22
num_leaves=25
num_cat=1
split_feature=41 38 38 162 45 100 7 82 49 204 16 45 44 229 51 231 213 66 45 160 88 204 251 229
split_gain=1772.84 328.968 171.489 57.6526 57.6465 29.2751 23.9053 14.0261 13.2664 12.7561 10.817 14.8177 8.9326 8.76848 9.24908 8.22218 7.961 7.76644 6.66008 5.83218 5.54984 5.23124 4.90277 5.49383
threshold=50.500000000000007 57.500000000000007 4.5000000000000009 3.4205933560046522 385.50000000000006 10.500000000000002 0 119.50000000000001 13.500000000000002 0.74010964391613487 11.500000000000002 22.500000000000004 144.50000000000003 0.88809747634347191 34.500000000000007 2.4588493487674605 0.21239813168322541 44.500000000000007 568.50000000000011 1.2969557699838512 33.500000000000007 0.77451859011133939 19798.390000000003 0.57233507587005883
decision_type=2 2 2 2 2 2 9 2 2 2 2 2 2 2 2 2 2 2 2 2 2 2 2 2
left_child=2 4 6 15 12 16 9 -5 17 20 -11 -12 22 14 -7 -3 19 -8 -6 -4 -1 -21 -2 -24
right_child=1 3 5 7 18 13 8 -9 -10 10 11 -13 -14 -15 -16 -17 -18 -19 -20 21 -22 -23 23 -25
leaf_value=-0.038431001825706586 -0.010546703226475886 0.012157911486361476 -0.021174741467445128 0.022799680965114196 0.0057719711447688843 -0.01577952593054895 -0.039681348178112121 0.031217349241077563 -0.030961686025764681 -0.037721332617085469 -0.0051351944758596018 -0.024441483271253103 0.00089623107220045963 0.0037033238331569689 -0.0089816470336254225 0.017234493964730931 -0.029388513287322844 -0.056327845274015909 0.010125545996601789 -0.019536572161978079 -0.028373101023140009 -0.0019955014914178385 -0.0040129729758377076 0.0086375758369253465
leaf_weight=100 97 473 270 555 859 351 240 269 184 40 45 184 578 32 378 760 91 30 507 31 110 31 440 33
leaf_count=100 97 473 270 555 859 351 240 269 184 40 45 184 578 32 378 760 91 30 507 31 110 31 440 33
internal_value=-3.51643e-06 0.0105075 -0.0226996 0.0194048 0.00322588 -0.0151132 -0.032321 0.0255548 -0.0372803 -0.0276074 -0.0232252 -0.0206647 -0.00172736 -0.0115849 -0.0122605 0.0152906 -0.0214494 -0.0415622 0.00739065 -0.0192561 -0.0331929 -0.0108317 -0.00439272 -0.0031224
internal_weight=6688 4571 2117 2057 2514 1184 933 824 454 479 269 229 1148 761 729 1233 423 270 1366 332 210 62 570 473
internal_count=6688 4571 2117 2057 2514 1184 933 824 454 479 269 229 1148 761 729 1233 423 270 1366 332 210 62 570 473
cat_boundaries=0 1
cat_threshold=2
is_linear=0
shrinkage=0.03


Tree=23
num_leaves=25
num_cat=1
split_feature=38 163 38 160 38 49 257 7 121 204 16 50 38 163 316 50 44 257 266 172 68 273 16 38
split_gain=1668.86 280.761 197.32 59.1663 36.4437 32.6501 30.3377 14.7939 12.0798 11.6998 10.9663 13.1064 9.59298 9.51629 8.11099 7.99481 6.00872 5.52834 5.47009 5.4658 5.45035 5.12047 5.08831 4.40297
threshold=18.500000000000004 2.2227978786642173 5.5000000000000009 3.6379696358608937 32.500000000000007 22.500000000000004 3.7041666666666671 0 416.50000000000006 0.76161370774315496 14.500000000000002 19.500000000000004 66.500000000000014 1.4453981419559778 2.5000000000000004 142.50000000000003 248.50000000000003 12.585714285714287 18.500000000000004 0.28568367711323417 474.50000000000006 0.99995916833465415 26.500000000000004 237.50000000000003
decision_type=2 2 2 2 2 2 2 9 2 2 2 2 2 2 2 2 2 2 2 2 2 2 2 2
left_child=2 4 5 12 13 7 15 9 -5 19 -11 -12 -3 -2 -9 21 -6 -16 20 -1 -8 -4 -7 -10
right_child=1 3 6 8 16 22 18 14 23 10 11 -13 -14 -15 17 -17 -18 -19 -20 -21 -22 -23 -24 -25
leaf_value=-0.045144520096065704 -0.0064283817437095405 0.011719301643636462 0.0006300838428404046 0.022303972681921466 0.0045664822810580468 -0.014698434682304404 -0.012599807791093475 -0.046863628746092581 0.027922957490788321 -0.034600357161775515 -0.0036756955465152316 -0.025498820119617325 0.016794996829826422 0.00057307123858206445 -0.030779787983812798 -0.0047634447638961004 0.0087568991932441501 -0.038577114714654567 -0.016062356267162452 -0.03126135033982446 -0.026424097966278707 -0.012150020221928348 -0.024142575698955927 0.036932589495913284
leaf_weight=34 227 561 30 489 614 66 35 69 204 47 41 64 859 755 149 306 628 211 328 134 111 378 278 70
leaf_count=34 227 561 30 489 614 66 35 69 204 47 41 64 859 755 149 306 628 211 328 134 111 378 278 70
internal_value=-3.60831e-06 0.0107773 -0.0208337 0.0184202 0.00327338 -0.0300344 -0.0123643 -0.0335589 0.0251644 -0.0286123 -0.0224932 -0.0170176 0.0147928 -0.00104283 -0.0372341 -0.00844846 0.00668826 -0.0353677 -0.0182536 -0.0341141 -0.0231415 -0.011203 -0.0223441 0.0302483
internal_weight=6688 4407 2281 2183 2224 1093 1188 749 763 320 152 105 1420 982 429 714 1242 360 474 168 146 408 344 274
internal_count=6688 4407 2281 2183 2224 1093 1188 749 763 320 152 105 1420 982 429 714 1242 360 474 168 146 408 344 274
cat_boundaries=0 1
cat_threshold=2
is_linear=0
shrinkage=0.03


Tree=24
num_leaves=25
num_cat=0
split_feature=41 163 38 38 316 121 254 50 50 121 163 213 274 239 163 192 135 61 163 149 168 45 290 168
split_gain=1571.05 253.874 192.442 43.6527 43.2968 38.6637 21.1116 14.7676 10.9855 9.38452 8.19149 8.01687 7.15666 7.15841 6.63828 5.69184 5.12451 4.96879 4.96216 4.59183 4.23223 4.21363 3.70687 3.59808
threshold=58.500000000000007 2.3942860770818983 4.5000000000000009 39.500000000000007 323.50000000000006 22.500000000000004 9.0584415584415598 214.50000000000003 338.50000000000006 1.5000000000000002 1.2973992348843211 0.21239813168322541 0.99997947006028021 4041.6100000000001 6.7173833472890463 0.74985940429028486 -0.38922751883319112 6.5000000000000009 2.0633931522970377 0.12824721592838609 0.11137964545877578 98.500000000000014 2.5750000000000006 0.13380211450723842
decision_type=2 2 2 2 2 2 2 2 2 2 2 2 2 2 2 2 2 2 2 2 2 2 2 2
left_child=2 3 6 7 8 11 12 16 -3 22 -7 20 -1 -14 -6 23 -2 -12 -5 -11 -4 -22 -8 -15
right_child=1 4 5 18 14 10 9 -9 -10 19 17 -13 13 15 -16 -17 -18 -19 -20 -21 21 -23 -24 -25
leaf_value=-0.015104258562211936 -0.011485143755144344 0.014427400820081154 -0.0078428811805635462 0.0066029694982727809 0.02532032563092191 -0.012179830514102421 -0.051976776045930352 0.0040419132398264862 0.020019189489135933 -0.033924068195281695 0.0031304538093364924 -0.026892468644094267 -0.034685555010670367 -0.013132530094916436 0.035264239030258951 -0.033754492102004929 -0.0015265180605486994 -0.0070966584009865916 0.010633916678689478 -0.021694062059727782 -0.020160697050045886 -0.013771917450942679 -0.036967053558090483 -0.02421226421098796
leaf_weight=53 50 938 41 534 383 344 37 636 486 394 47 94 88 32 75 54 676 429 582 32 295 143 31 214
leaf_count=53 50 938 41 534 383 344 37 636 486 394 47 94 88 32 75 54 676 429 582 32 295 143 31 214
internal_value=-3.68999e-06 0.0106205 -0.0199021 0.00430984 0.0189274 -0.0128303 -0.0304323 0.000703015 0.0163392 -0.0347154 -0.00864384 -0.0188137 -0.0256208 -0.0270454 0.0269626 -0.0247835 -0.00221799 -0.00608009 0.00870858 -0.0330177 -0.0172167 -0.0180853 -0.0452425 -0.0227891
internal_weight=6688 4360 2328 2478 1882 1393 935 1362 1424 494 820 573 441 388 458 300 726 476 1116 426 479 438 68 246
internal_count=6688 4360 2328 2478 1882 1393 935 1362 1424 494 820 573 441 388 458 300 726 476 1116 426 479 438 68 246
is_linear=0
shrinkage=0.03


Tree=25
num_leaves=25
num_cat=1
split_feature=53 100 53 163 53 48 45 7 272 163 53 163 53 177 230 240 280 50 66 157 146 267 255 11
split_gain=1479.12 237.225 189.282 40.5667 38.9755 37.2848 22.8804 15.6712 13.4104 9.46494 8.56896 8.0605 7.79168 7.449 7.20116 6.7685 6.52709 5.05212 4.96104 4.14896 3.94979 4.79979 3.89693 3.60987
threshold=19.500000000000004 137.50000000000003 6.5000000000000009 3.8051964797120017 32.500000000000007 10.500000000000002 133.50000000000003 0 0.9996625114961456 2.0633931522970377 220.50000000000003 1.4453981419559778 80.500000000000014 0.33328704372327983 37.500000000000007 0.10526084954479799 1.7080191262250646 139.50000000000003 9.5000000000000018 0.19836956521739132 0.81088450727034578 19.500000000000004 19.250000000000004 195995.81000000003
decision_type=2 2 2 2 2 2 2 9 2 2 2 2 2 2 2 2 2 2 2 2 2 2 2 2
left_child=2 4 5 12 11 7 14 8 -1 -6 -5 -2 -3 -9 -4 16 -10 -8 19 -7 21 -16 -15 -17
right_child=1 3 6 10 9 18 17 13 15 -11 -12 -13 -14 22 20 23 -18 -19 -20 -21 -22 -23 -24 -25
leaf_value=-0.011064809924181625 -0.0060524837979814162 0.012792495059280746 -0.0037395737555866336 0.023166017379946516 0.0051788784529238569 -0.021875933965086046 -0.0098973279065658684 -0.044206152254251764 -0.013650569758977929 0.0099607268940687718 0.032999304769950104 0.00084461342819345229 0.017572946865480384 -0.032013637220784784 -0.024265893472948465 -0.037697831815402046 -0.028170900725939245 -0.0045564471874136505 -0.032052997991757808 -0.015443121744997847 -0.0062599034680523606 -0.015769315930567209 -0.040970063347323761 -0.025390480564576441
leaf_weight=44 192 592 44 524 886 286 275 75 37 649 97 738 659 287 76 89 130 388 33 140 32 326 57 32
leaf_count=44 192 592 44 524 886 286 275 75 37 649 97 738 659 287 76 89 130 388 33 140 32 326 57 32
internal_value=-3.79773e-06 0.0103831 -0.0191659 0.0184345 0.00426686 -0.0274332 -0.0103943 -0.03156 -0.0266346 0.00720312 0.0247119 -0.000576576 0.0153143 -0.0354483 -0.0154024 -0.0289982 -0.0249819 -0.00677743 -0.0206692 -0.019773 -0.0165767 -0.0173887 -0.0335179 -0.0344914
internal_weight=6688 4337 2351 1872 2465 1210 1141 751 332 1535 621 930 1251 419 478 288 167 663 459 426 434 402 344 121
internal_count=6688 4337 2351 1872 2465 1210 1141 751 332 1535 621 930 1251 419 478 288 167 663 459 426 434 402 344 121
cat_boundaries=0 1
cat_threshold=2
is_linear=0
shrinkage=0.03


Tree=26
num_leaves=25
num_cat=0
split_feature=242 38 38 163 45 100 254 82 163 15 295 62 44 143 270 164 132 38 213 163 26 257 170 175
split_gain=1392.14 259.868 134.327 49.0792 43.8618 23.5576 19.106 13.2425 8.14206 7.53646 11.6702 8.67498 7.03081 6.61339 6.56628 5.31782 5.29657 5.24066 5.1864 4.9889 4.97106 4.57851 4.37579 4.23419
threshold=50.500000000000007 56.500000000000007 4.5000000000000009 3.2125800483618652 385.50000000000006 8.5000000000000018 10.721693840579713 119.50000000000001 1.2694336104195934 10.500000000000002 2.5000000000000004 1.5000000000000002 144.50000000000003 0.55902001190385187 756.42500000000007 0.019810659186535771 1.5000000000000002 27.500000000000004 0.21239813168322541 2.5826562003269578 94.919999999999263 11.387500000000001 0.16028892433626288 0.067593415533503981
decision_type=2 2 2 2 2 2 2 2 2 2 2 2 2 2 2 2 2 2 2 2 2 2 2 2
left_child=2 4 6 19 12 18 9 -5 23 -1 13 -12 22 20 21 -16 -13 -6 -4 -3 -11 -8 -2 -7
right_child=1 3 5 7 17 8 14 -9 -10 10 11 16 -14 -15 15 -17 -18 -19 -20 -21 -22 -23 -24 -25
leaf_value=-0.039675798560693802 -0.0032324720413531801 0.010839538278568693 -0.018126354996305084 0.019841062740733134 0.0004533445918959474 -0.023695543250467022 -0.048240213936745518 0.027741087912979606 -0.0076999852145726785 -0.012722623562314761 -0.035622144381946004 -0.030121287247688769 0.00075192066731161438 -0.0041663850455457329 -0.031719484467591562 -0.018191346161258524 -0.021578857306454695 0.0070300634378222104 -0.027109726336523057 0.014864182987735557 -0.02927827504442531 -0.03518724358481868 -0.013790645700857394 -0.012716312008915102
leaf_weight=30 532 576 237 700 121 35 30 268 404 37 75 97 576 35 128 35 228 1204 80 556 31 207 38 428
leaf_count=30 532 576 237 700 121 35 30 268 404 37 75 97 576 35 128 35 228 1204 80 556 31 207 38 428
internal_value=-3.93974e-06 0.0093103 -0.020116 0.0170695 0.0027144 -0.0134012 -0.0286317 0.022034 -0.0108328 -0.0248794 -0.0239832 -0.0263138 -0.00158122 -0.0148866 -0.0336168 -0.028846 -0.0241462 0.00643182 -0.0204107 0.0128201 -0.020346 -0.0368718 -0.00394391 -0.0135577
internal_weight=6688 4571 2117 2100 2471 1184 933 968 867 533 503 400 1146 103 400 163 325 1325 317 1132 68 237 570 463
internal_count=6688 4571 2117 2100 2471 1184 933 968 867 533 503 400 1146 103 400 163 325 1325 317 1132 68 237 570 463
is_linear=0
shrinkage=0.03


Tree=27
num_leaves=25
num_cat=1
split_feature=53 121 53 53 53 242 254 272 34 34 231 44 7 146 82 220 54 53 40 66 154 44 39 273
split_gain=1311.18 220.605 155.156 38.3623 36.2679 32.9624 19.4716 13.562 11.5305 7.96053 7.8864 7.66927 6.755 6.34617 5.2012 5.11138 4.55821 4.49607 4.25324 4.20028 4.07983 5.15491 3.84417 3.50032
threshold=18.500000000000004 162.50000000000003 6.5000000000000009 32.500000000000007 136.50000000000003 10.500000000000002 3.1601506456241037 0.9996625114961456 458.50000000000006 7.5000000000000009 1.9406496943491878 137.50000000000003 0 0.87261292051327555 170.50000000000003 0.72896248450645984 12.500000000000002 1.5000000000000002 5524.6784615384622 2.5000000000000004 0.59975164145706061 44.500000000000007 -8.6649999999999974 0.99991288639166764
decision_type=2 2 2 2 2 2 2 2 2 2 2 2 9 2 2 2 2 2 2 2 2 2 2 2
left_child=2 3 5 11 8 7 16 12 -3 17 -5 -2 -1 20 -6 18 19 -9 -11 -4 -7 -22 -19 -8
right_child=1 4 6 10 14 13 23 9 -10 15 -12 -13 -14 -15 -16 -17 -18 22 -20 -21 21 -23 -24 -25
leaf_value=-0.0094772164414833934 -0.0043881979956806568 0.012418317937507552 -0.0076270589208991069 0.0042631944834900263 0.023805787219070111 -0.023700361525806807 -0.0049932704631599689 -0.039563881495383563 0.017779284170653289 -0.032330163079203757 0.0086277388701370868 0.001123295882024807 -0.027742773137079915 -0.0325927591559824 0.033776161092384065 -0.016546800064456038 -0.0043640503348708771 -0.036817041181039165 -0.025121298163050653 -0.018255822606080645 -0.019272663508721401 -0.010378064220469645 -0.026322029562462414 -0.015115764043561342
leaf_weight=41 348 725 150 656 358 126 34 131 735 207 875 653 34 34 57 31 373 66 127 44 265 78 70 470
leaf_count=41 348 725 150 656 358 126 34 131 735 207 875 653 34 34 57 31 373 66 127 44 265 78 70 470
internal_value=-4.10474e-06 0.00955183 -0.0184675 0.00377406 0.0173519 -0.0258301 -0.010145 -0.0300173 0.0151202 -0.0314566 0.00675999 -0.000790038 -0.0178235 -0.0199339 0.0251902 -0.0285103 -0.0063201 -0.0354609 -0.0296064 -0.0100613 -0.019003 -0.0172623 -0.0314605 -0.01444
internal_weight=6688 4407 2281 2532 1875 1210 1071 707 1460 632 1531 1001 75 503 415 365 567 267 334 194 469 343 136 504
internal_count=6688 4407 2281 2532 1875 1210 1071 707 1460 632 1531 1001 75 503 415 365 567 267 334 194 469 343 136 504
cat_boundaries=0 1
cat_threshold=2
is_linear=0
shrinkage=0.03


Tree=28
num_leaves=25
num_cat=0
split_feature=38 163 38 38 266 163 51 254 86 121 34 38 62 38 281 152 154 49 36 41 241 100 48 290
split_gain=1233.88 198.824 158.143 44.7382 38.0609 24.6664 15.5028 12.4585 11.0294 10.2244 8.66316 7.91411 6.02527 5.7167 5.39217 7.16848 4.94547 4.86018 4.73607 4.27506 3.99333 3.82459 3.75052 3.49391
threshold=19.500000000000004 2.2227978786642173 7.5000000000000009 101.50000000000001 10.500000000000002 1.5835250258603246 34.500000000000007 6.1261363636363644 184.50000000000003 1.5000000000000002 5.5000000000000009 42.500000000000007 6.5000000000000009 66.500000000000014 49.543810264103399 1.215259727275579 0.67858512336408194 42.500000000000007 9.5000000000000018 839.50000000000011 0.64359089017469484 1.5000000000000002 36.500000000000007 2.5750000000000006
decision_type=2 2 2 2 2 2 2 2 2 2 2 2 2 2 2 2 2 2 2 2 2 2 2 2
left_child=2 5 4 13 7 -2 10 14 -5 23 -4 -7 16 -3 15 -1 -6 -12 -11 -10 22 -20 -8 -9
right_child=1 3 6 8 12 11 20 9 19 18 17 -13 -14 -15 -16 -17 -18 -19 21 -21 -22 -23 -24 -25
leaf_value=-0.0095384032558151737 -0.0026225633882850144 0.010061460170726637 0.002571928212852325 0.018321064796712597 -0.02715124077358089 0.0030651235786646556 -0.008276255712543595 -0.046974095698116593 0.024224208052365224 -0.030649015456878238 -0.018288700510616943 0.0073172251220398662 -0.015413393480148675 0.014090621272116001 -0.028739039931605641 -0.027482386658960408 -0.019034123532299742 -0.011400551217222532 -0.027664546052478058 0.036369928038397496 0.0048850091669064392 -0.014663986008712621 -0.0032870211227837174 -0.033128569527207129
leaf_weight=56 527 561 30 510 100 948 294 44 324 422 153 679 277 758 49 32 235 246 58 30 32 34 257 32
leaf_count=56 527 561 30 510 100 948 294 44 324 422 153 679 277 758 49 32 235 246 58 30 32 34 257 32
internal_value=-4.22955e-06 0.00948255 -0.0175059 0.0158632 -0.0242711 0.00301417 -0.00855014 -0.0289213 0.0211751 -0.0308275 -0.0128834 0.00484185 -0.0187385 0.0123801 -0.0206738 -0.0161213 -0.0214735 -0.0140533 -0.029275 0.025272 -0.00535471 -0.0229137 -0.00595562 -0.041235
internal_weight=6688 4337 2351 2183 1339 2154 1012 727 864 590 429 1627 612 1319 137 88 335 399 514 354 583 92 551 76
internal_count=6688 4337 2351 2183 1339 2154 1012 727 864 590 429 1627 612 1319 137 88 335 399 514 354 583 92 551 76
is_linear=0
shrinkage=0.03


Tree=29
num_leaves=25
num_cat=0
split_feature=41 38 38 48 41 316 254 272 34 34 34 42 46 295 121 138 49 44 154 49 180 41 224 139
split_gain=1161.46 179.781 156.414 36.3312 34.2068 27.773 12.8635 11.453 9.89863 8.19904 7.1835 6.24005 5.85395 5.31564 5.24383 4.96122 4.71792 4.30577 4.22029 4.80877 4.45997 4.1912 3.64294 4.02559
threshold=62.500000000000007 66.500000000000014 7.5000000000000009 10.500000000000002 112.50000000000001 323.50000000000006 3.1206639245804975 0.9996625114961456 6.5000000000000009 12.500000000000002 462.50000000000006 5590.5800000000081 598.50000000000011 2.5000000000000004 598.50000000000011 -0.49587916177195795 41.500000000000007 8.5000000000000018 0.35837133966635976 36.500000000000007 0.066398012027966372 161.50000000000003 0.74131242907742079 -0.28768207245178107
decision_type=2 2 2 2 2 2 2 2 2 2 2 2 2 2 2 2 2 2 2 2 2 2 2 2
left_child=2 4 3 7 12 10 -4 13 -8 11 -3 17 15 -1 -7 -2 -10 -9 20 -20 -5 -6 -11 -24
right_child=1 5 6 18 21 14 8 9 16 22 -12 -13 -14 -15 -16 -17 -18 -19 19 -21 -22 -23 23 -25
leaf_value=-0.010847264093062477 -0.0097148393946515452 0.01227575058218021 -0.0052590784141725612 -0.029071101254788463 0.0063514136853163308 0.02175185411057106 0.0041180736268652931 -0.037383089478074998 -0.017661108761947063 -0.020186372711984528 0.016865950847220784 -0.019012388446835303 0.0028174829014808644 -0.027014002387359289 0.030416231565318735 -0.00049465049005174779 -0.010893255219582235 -0.030454079470845115 -0.018884398010835964 -0.01250848253312598 -0.015700845127911339 0.0098311054479781994 -0.034579935426597534 -0.023927317108923707
leaf_weight=50 58 617 609 57 878 379 32 129 140 102 631 34 586 30 79 558 293 267 308 170 40 493 53 95
leaf_count=50 58 617 609 57 878 379 32 129 140 102 631 34 586 30 79 558 293 267 308 170 40 493 53 95
internal_value=-4.27466e-06 0.00937563 -0.0166663 -0.0235238 0.00436661 0.0169278 -0.00813821 -0.0278372 -0.0119005 -0.0291082 0.0146002 -0.0316549 0.00066952 -0.0169734 0.0232592 -0.00136909 -0.013092 -0.0327277 -0.0178135 -0.0166262 -0.0236103 0.0076055 -0.024705 -0.0277831
internal_weight=6688 4279 2409 1335 2573 1706 1074 760 465 680 1248 430 1202 80 458 616 433 396 575 478 97 1371 250 148
internal_count=6688 4279 2409 1335 2573 1706 1074 760 465 680 1248 430 1202 80 458 616 433 396 575 478 97 1371 250 148
is_linear=0
shrinkage=0.03


Tree=30
num_leaves=25
num_cat=1
split_feature=38 163 38 41 160 38 50 7 272 38 273 163 163 316 62 50 150 44 36 154 239 192 154 41
split_gain=1093.76 176.6 139.721 33.7009 33.4162 26.3952 12.9336 12.2805 10.9123 8.34632 6.62603 6.25408 5.9896 5.88001 5.67369 5.60369 4.81069 4.55834 4.31107 4.30571 4.14623 3.51654 3.94531 3.33468
threshold=19.500000000000004 2.3286991813477784 7.5000000000000009 10.500000000000002 3.6379696358608937 32.500000000000007 139.50000000000003 0 0.9996625114961456 157.50000000000003 0.99990455458590144 1.4309069982860179 1.9383583642197324 2.5000000000000004 6.5000000000000009 89.500000000000014 0.010952897677147222 473.50000000000006 10.500000000000002 0.67858512336408194 22327.240000000002 0.44100948493181669 1.2199644112652757 839.50000000000011
decision_type=2 2 2 2 2 2 2 9 2 2 2 2 2 2 2 2 2 2 2 2 2 2 2 2
left_child=2 5 3 7 17 11 10 8 -1 -6 -4 -2 -7 -9 19 21 18 -3 -10 -5 -15 22 -12 -11
right_child=1 4 6 14 9 12 -8 13 16 23 15 -13 -14 20 -16 -17 -18 -19 -20 -21 -22 -23 -24 -25
leaf_value=-0.0081856263309282116 -0.0057058642155264532 0.010834918952359839 0.0021063998421583094 -0.025609992924296863 0.018053852475500873 0.0037689459449162903 -0.0036768989776764065 -0.038930983504579665 -0.026195558787397114 0.023440585568852333 -0.015315918385485228 0.00060758771593981203 0.0076707258139016056 -0.031339873636267931 -0.014523794636474798 -0.0091326871954684613 -0.034599425253206792 0.014591954886285317 -0.017194834101489906 -0.018124605046033478 -0.023873211764716965 -0.021338256636391512 -0.0040612960206169004 0.034372999248314537
leaf_weight=41 174 696 34 102 484 648 380 69 148 249 128 745 793 234 280 371 41 518 76 245 103 62 37 30
leaf_count=41 174 696 34 102 484 648 380 69 148 249 128 745 793 234 280 371 41 518 76 245 103 62 37 30
internal_value=-4.35238e-06 0.0089275 -0.0164823 -0.0228414 0.0155419 0.00338487 -0.00806407 -0.0273173 -0.0227231 0.0204685 -0.0106962 -0.000585004 0.00591861 -0.0307661 -0.0177503 -0.0114293 -0.0249571 0.0124415 -0.0231642 -0.0203403 -0.0290744 -0.015164 -0.0128143 0.0246388
internal_weight=6688 4337 2351 1339 1977 2360 1012 712 306 763 632 919 1441 406 627 598 265 1214 224 347 337 227 165 279
internal_count=6688 4337 2351 1339 1977 2360 1012 712 306 763 632 919 1441 406 627 598 265 1214 224 347 337 227 165 279
cat_boundaries=0 1
cat_threshold=2
is_linear=0
shrinkage=0.03


Tree=31
num_leaves=25
num_cat=0
split_feature=41 38 38 163 50 100 257 15 38 295 58 15 226 240 50 213 159 160 204 38 157 251 32 34
split_gain=1029.36 193.489 99.3053 46.7894 25.6404 18.2435 14.607 15.4019 9.91107 8.92572 11.1964 8.02431 11.4062 7.27464 5.58024 5.49747 5.49163 4.62024 4.54803 4.00744 4.81784 3.66241 3.31694 3.20724
threshold=50.500000000000007 50.500000000000007 4.5000000000000009 3.2125800483618652 216.50000000000003 10.500000000000002 12.342857142857145 10.500000000000002 157.50000000000003 2.5000000000000004 1.0000000180025095e-35 53.500000000000007 0.80857325320242912 0.16666373461962644 104.50000000000001 0.21239813168322541 2.3286592840352847 1.2969557699838512 0.77451859011133939 24.500000000000004 0.41576086956521746 23851.415000000005 7286.4700000000012 215.50000000000003
decision_type=2 2 2 2 2 2 2 2 2 2 2 2 2 2 2 2 2 2 2 2 2 2 2 2
left_child=2 4 6 16 19 15 7 -1 -5 11 -11 12 -9 14 -7 17 -3 -4 -19 20 21 -2 -12 -6
right_child=1 3 5 8 23 13 -8 9 -10 10 22 -13 -14 -15 -16 -17 -18 18 -20 -21 -22 -23 -24 -25
leaf_value=-0.037165402697723671 -0.017174668089988139 0.0081278710110496127 -0.016408241130470243 0.017067225473561598 0.0026550344850729884 -0.012419013719753649 -0.029068778773035816 0.0076622351016416099 0.023831965214657205 -0.036221392316883115 -0.027587899068358592 -0.024812447353898041 -0.016143554851511893 0.0056638298917598895 -0.0070773370713587448 -0.023127846011378766 0.011981585808335858 -0.015325168861836864 0.00082337550507481064 0.00012546117898371692 -0.0021594886711003031 -0.0055502311363006419 -0.018785932317670794 0.0058568387170211374
leaf_weight=51 35 567 270 696 474 308 391 30 277 44 47 31 45 30 423 91 835 31 31 463 428 85 294 711
leaf_count=51 35 567 270 696 474 308 391 30 277 44 47 31 45 30 423 91 835 31 31 463 428 85 294 711
internal_value=-4.38434e-06 0.00800474 -0.0172986 0.0139398 0.00158418 -0.0115244 -0.0246209 -0.0214019 0.0189984 -0.0197512 -0.0218844 -0.0119614 -0.00658377 -0.00873767 -0.0093335 -0.0165276 0.0104259 -0.014703 -0.00721426 -0.00192318 -0.00365925 -0.00897715 -0.0200156 0.00457898
internal_weight=6688 4571 2117 2375 2196 1184 933 542 973 491 385 106 75 761 731 423 1402 332 62 1011 548 120 341 1185
internal_count=6688 4571 2117 2375 2196 1184 933 542 973 491 385 106 75 761 731 423 1402 332 62 1011 548 120 341 1185
is_linear=0
shrinkage=0.03


Tree=32
num_leaves=25
num_cat=0
split_feature=38 163 38 82 49 163 254 136 170 51 47 287 30 38 44 16 54 66 59 163 307 212 294 254
split_gain=969.21 165.045 114.365 35.682 25.3755 21.8275 14.7417 9.87517 8.45957 8.09524 6.65631 6.23395 7.43417 5.15122 4.13039 3.9446 3.74279 3.81827 3.68205 3.65273 3.15237 3.11707 2.90504 6.09006
threshold=18.500000000000004 2.2227978786642173 6.5000000000000009 80.500000000000014 22.500000000000004 1.5835250258603246 3.1601506456241037 0.76134301224787937 0.046433927579180002 469.50000000000006 20.500000000000004 104.43650000000002 1.0000000180025095e-35 66.500000000000014 8.5000000000000018 25.500000000000004 12.500000000000002 2.5000000000000004 3.5000000000000004 1.2694336104195934 151.89833333333334 0.6999475043746064 13.500000000000002 6.8430015841953233
decision_type=2 2 2 2 2 2 2 10 2 2 2 2 2 2 2 2 2 2 2 2 2 2 2 2
left_child=2 5 4 13 7 19 16 11 -9 -5 -7 12 -1 -3 -14 18 17 20 -6 -2 -4 -13 -8 -24
right_child=1 3 6 9 15 10 22 8 -10 -11 -12 21 14 -15 -16 -17 -18 -19 -20 -21 -22 -23 23 -25
leaf_value=-0.017376827578880111 -0.012546936077847357 0.0088752482001211823 0.0011900824027192723 0.017193390273755195 -0.017307630357001776 0.001965544352157698 -0.0079210777175465139 -0.023066798258021153 -0.0042079263240579635 0.023967887848874971 0.0058485886515080646 -0.024400888868810422 -0.034362069560812433 0.012648104216538485 -0.027827073824068321 -0.017694864947553766 -0.0036303418866621786 -0.016602278805280826 -0.0033746857706486708 -0.001954668105419533 -0.0089188880603748247 -0.015297996142131839 -0.012421013798256803 -0.025145389693752514
leaf_weight=50 31 557 36 585 32 685 104 60 34 224 956 128 133 817 312 373 373 44 38 552 114 50 362 38
leaf_count=50 31 557 36 585 32 685 104 60 34 224 956 128 133 817 312 373 373 44 38 552 114 50 362 38
internal_value=-4.39869e-06 0.00821136 -0.0158786 0.0140714 -0.0221999 0.00245764 -0.0087327 -0.0255103 -0.0162891 0.0190756 0.00422974 -0.0267912 -0.0285498 0.0111216 -0.0297943 -0.016457 -0.0054035 -0.00879363 -0.00980243 -0.00252509 -0.00647357 -0.0218708 -0.0124703 -0.0136433
internal_weight=6688 4407 2281 2183 1210 2224 1071 767 94 809 1641 673 495 1374 445 443 567 194 70 583 150 178 504 400
internal_count=6688 4407 2281 2183 1210 2224 1071 767 94 809 1641 673 495 1374 445 443 567 194 70 583 150 178 504 400
is_linear=0
shrinkage=0.03


Tree=33
num_leaves=25
num_cat=0
split_feature=82 38 100 45 100 38 255 41 38 229 34 317 241 163 317 163 142 38 34 15 45 41 34 77
split_gain=912.327 141.411 123.155 27.472 22.1633 21.5815 17.0056 9.44217 8.78659 7.46535 6.46971 6.03247 8.52813 5.62404 5.03594 5.44348 5.00905 4.84725 4.80738 3.8736 8.67517 5.73268 3.50767 3.40242
threshold=18.500000000000004 66.500000000000014 7.5000000000000009 419.50000000000006 292.50000000000006 10.500000000000002 3.7500000000000004 7.5000000000000009 3.5000000000000004 0.63793710164924178 98.500000000000014 1.1178491208511969 0.41613835121600745 6.7173833472890463 0.87459728099734579 0.99994281373064264 24.083333333333336 42.500000000000007 462.50000000000006 28.500000000000004 9.5000000000000018 10.500000000000002 16.500000000000004 25.500000000000004
decision_type=2 2 2 2 2 2 2 2 2 2 2 2 2 2 2 2 2 2 2 2 2 2 2 2
left_child=2 3 6 9 18 8 11 14 -4 16 22 19 -13 -6 15 -8 -2 -5 -3 -1 -21 -22 -7 -24
right_child=1 4 5 17 13 10 7 -9 -10 -11 -12 12 -14 -15 -16 -17 -18 -19 -20 20 21 -23 23 -25
leaf_value=-0.026949251911521352 -0.0032767806978994418 0.01069145232018965 -0.023415915288375316 0.004132734371572481 0.018631275718707638 0 -0.035308248945693531 -0.020901971814905034 -0.011727582883721914 0.013944659281816998 -0.001733586831749028 -0.01989277237851814 0.0014195960978608676 0.027567499413312515 -0.019034132643374137 -0.02688254826310478 0.001177252682038203 0.00770081414795162 0.014658293362724147 -0.0032716494143183975 -0.026481531743641495 -0.016703440589783035 -0.017462384149301083 -0.007512201070684071
leaf_weight=49 343 598 67 533 504 52 105 285 462 34 284 33 34 75 50 236 672 986 529 34 77 199 34 413
leaf_count=49 343 598 67 533 504 52 105 285 462 34 284 33 34 75 50 236 672 986 529 34 77 199 34 413
internal_value=-4.49209e-06 0.00832222 -0.014748 0.00387267 0.0150176 -0.00853307 -0.022143 -0.0251141 -0.0132178 0.000135813 -0.00536294 -0.0174166 -0.00904683 0.0197986 -0.0281705 -0.0294954 -0.000325123 0.00645114 0.0125572 -0.0189673 -0.0176877 -0.0194509 -0.00742177 -0.00827948
internal_weight=6688 4274 2414 2568 1706 1312 1102 676 529 1049 783 426 67 579 391 341 1015 1519 1127 359 310 276 499 447
internal_count=6688 4274 2414 2568 1706 1312 1102 676 529 1049 783 426 67 579 391 341 1015 1519 1127 359 310 276 499 447
is_linear=0
shrinkage=0.03


Tree=34
num_leaves=25
num_cat=0
split_feature=38 100 38 254 38 121 51 161 45 34 146 159 142 257 45 317 257 49 175 136 241 15 45 121
split_gain=859.148 139.548 110.028 26.6434 24.5038 23.253 11.4977 8.74827 7.99511 7.16669 5.95962 5.69248 4.49697 3.98133 3.93327 3.89204 5.30096 3.80117 3.71068 7.25924 3.54458 3.27546 3.15593 3.10386
threshold=19.500000000000004 137.50000000000003 7.5000000000000009 7.2798357664233588 136.50000000000003 96.500000000000014 34.500000000000007 0.99986608944271926 1082.5000000000002 5.5000000000000009 0.87261292051327555 1.6389279755149724 6.7500000000000009 5.6770833333333348 2564.5000000000005 0.89177162529908094 9.1055555555555561 42.500000000000007 0.29997750187483135 1.6809862422373116 0.64359089017469484 30.500000000000004 578.50000000000011 63.500000000000007
decision_type=2 2 2 2 2 2 2 2 2 2 2 2 2 2 2 2 2 2 2 8 2 2 2 2
left_child=2 5 3 10 8 11 9 15 -3 -4 12 23 18 -9 -6 16 -5 -11 -1 -20 -8 -14 -7 -2
right_child=1 4 6 7 14 22 20 13 -10 17 -12 -13 21 -15 -16 -17 -18 -19 19 -21 -22 -23 -24 -25
leaf_value=-0.018597606307627301 -0.004101329166816629 0.010491702926074474 0.0031828431934860851 -0.041216069880597457 0.019325056026198949 0.0047634840877989132 -0.0049516670077194222 -0.010368392977529388 0.01509568801092682 -0.01568196029172983 -0.025080639280122739 0.002378544091064993 -0.0023626515105911266 -0.02208203367856652 0.027998970370159044 -0.018664989557087886 -0.027766112482319655 -0.009586431954028779 3.4519293662939221e-05 -0.018563259389180284 0.0052642516057207203 -0.013141808998974042 0.0078176519416672599 0.00014425764974460828
leaf_weight=312 280 902 30 31 358 730 551 30 555 153 61 576 30 300 57 38 263 246 31 47 32 196 535 344
leaf_count=312 280 902 30 31 358 730 551 30 555 153 61 576 30 300 57 38 263 246 31 47 32 196 535 344
internal_value=-4.50763e-06 0.0079116 -0.0146087 -0.0202519 0.014087 0.00322023 -0.00713784 -0.0245418 0.0122484 -0.01087 -0.0160497 0.000225928 -0.0151466 -0.0210297 0.0205301 -0.0280163 -0.029208 -0.0119347 -0.0171176 -0.0111428 -0.00438498 -0.0117259 0.00605805 -0.00175636
internal_weight=6688 4337 2351 1339 1872 2465 1012 662 1457 429 677 1200 616 330 415 332 294 399 390 78 583 226 1265 624
internal_count=6688 4337 2351 1339 1872 2465 1012 662 1457 429 677 1200 616 330 415 332 294 399 390 78 583 226 1265 624
is_linear=0
shrinkage=0.03


Tree=35
num_leaves=25
num_cat=0
split_feature=41 53 53 45 100 34 49 316 15 294 16 55 45 15 49 53 161 159 149 121 89 136 78 154
split_gain=808.859 152.858 78.446 36.3765 21.0359 20.1193 9.73461 7.96841 7.93108 11.5004 7.03512 6.99475 7.6184 5.45508 5.29004 5.05259 5.19101 4.70607 4.58654 5.00838 4.40691 3.71333 3.61968 3.58296
threshold=50.500000000000007 50.500000000000007 3.5000000000000004 1082.5000000000002 7.5000000000000009 188.50000000000003 22.500000000000004 467.50000000000006 11.500000000000002 1.5000000000000002 53.500000000000007 2.5000000000000004 146.50000000000003 37.500000000000007 7.5000000000000009 24.500000000000004 1.7595957408456877 2.3286592840352847 0.1363614669830007 5.5000000000000009 20.500000000000004 0.34038615677832246 1.5000000000000002 0.28587913264195935
decision_type=2 2 2 2 2 2 2 2 2 2 2 2 2 2 2 2 2 2 2 2 2 10 2 2
left_child=2 5 6 17 18 15 8 -5 20 10 13 -6 23 -10 -11 16 -2 -3 19 -4 -1 -16 -21 -13
right_child=1 3 4 7 11 -7 -8 -9 9 14 -12 12 -14 -15 21 -17 -18 -19 -20 22 -22 -23 -24 -25
leaf_value=-0.039066562897460466 -0.0026076066921982707 0.007178490729645332 -0.028735879937298273 0.015783972951631309 0.0032744091923139003 0.004517507190684159 -0.015583659338284228 0.02379155140925681 -0.016252643475112055 -0.032758236062509452 -0.024827458319166995 -0.02092474547330166 -0.0055720132096224667 0.0010329972722820033 -0.024496986044745574 0.00054653656762422358 -0.014723563461326868 0.010733032353012024 -0.0054425860674080263 -0.0078837425919140083 -0.02621735192639606 -0.013954007402380815 -0.017827232762868541 -0.010621434959765117
